{"learner":{"attributes":{},"feature_names":[],"feature_types":[],"gradient_booster":{"model":{"cats":{"enc":[],"feature_segments":[],"sorted_idx":[]},"gbtree_model_param":{"num_parallel_tree":"1","num_trees":"111"},"iteration_indptr":[0,1,2,3,4,5,6,7,8,9,10,11,12,13,14,15,16,17,18,19,20,21,22,23,24,25,26,27,28,29,30,31,32,33,34,35,36,37,38,39,40,41,42,43,44,45,46,47,48,49,50,51,52,53,54,55,56,57,58,59,60,61,62,63,64,65,66,67,68,69,70,71,72,73,74,75,76,77,78,79,80,81,82,83,84,85,86,87,88,89,90,91,92,93,94,95,96,97,98,99,100,101,102,103,104,105,106,107,108,109,110,111],"tree_info":[0,0,0,0,0,0,0,0,0,0,0,0,0,0,0,0,0,0,0,0,0,0,0,0,0,0,0,0,0,0,0,0,0,0,0,0,0,0,0,0,0,0,0,0,0,0,0,0,0,0,0,0,0,0,0,0,0,0,0,0,0,0,0,0,0,0,0,0,0,0,0,0,0,0,0,0,0,0,0,0,0,0,0,0,0,0,0,0,0,0,0,0,0,0,0,0,0,0,0,0,0,0,0,0,0,0,0,0,0,0,0],"trees":[{"base_weights":[4.198019E-2,-7.3077685E-1,1.1303347E0,-9.776304E-2,-3.8818237E-1,-8.607045E-2,1.2701994E0,-9.485397E-2,-1.795094E-1,-8.3303225E-1,1.3730948E0,4.616882E-3,-6.346612E-2,3.463811E-2,-8.002225E-2,4.393841E-2,8.298568E-2],"categories":[],"categories_nodes":[],"categories_segments":[],"categories_sizes":[],"default_left":[0,0,0,0,0,0,0,0,0,0,0,0,0,0,0,0,0],"id":0,"left_children":[1,3,5,-1,7,-1,9,-1,11,13,15,-1,-1,-1,-1,-1,-1],"loss_changes":[4.381976E2,1.2669913E2,8.955783E1,0E0,7.505291E1,0E0,4.6526733E1,0E0,6.312771E1,1.4064415E1,2.586145E1,0E0,0E0,0E0,0E0,0E0,0E0],"parents":[2147483647,0,0,1,1,2,2,4,4,6,6,8,8,9,9,10,10],"right_children":[2,4,6,-1,8,-1,10,-1,12,14,16,-1,-1,-1,-1,-1,-1],"split_conditions":[7.0765173E-1,-7.913232E-1,-4.480213E-1,-9.776304E-2,-9.64224E-1,-8.607045E-2,-3.0426753E-1,-9.485397E-2,1.5461743E-1,6.064404E-1,1.4997134E0,4.616882E-3,-6.346612E-2,3.463811E-2,-8.002225E-2,4.393841E-2,8.298568E-2],"split_indices":[5,4,3,0,6,0,8,0,0,4,0,0,0,0,0,0,0],"split_type":[0,0,0,0,0,0,0,0,0,0,0,0,0,0,0,0,0],"sum_hessian":[5.1804944E2,3.0323697E2,2.1481247E2,6.474999E1,2.3848695E2,9.249999E0,2.0556247E2,2.7499998E1,2.1098695E2,9.0911455E0,1.9647133E2,1.6996353E2,4.1023434E1,3.0911455E0,5.9999995E0,7.4346344E1,1.22124985E2],"tree_param":{"num_deleted":"0","num_feature":"16","num_nodes":"17","size_leaf_vector":"1"}},{"base_weights":[-6.1578505E-2,-8.9183956E-1,1.0664548E0,-1.7017931E0,-4.9427292E-1,-8.218025E-2,1.2013352E0,-9.46554E-2,-7.163481E-1,-9.8737353E-1,1.40896E-1,7.699084E-1,1.5934551E0,-8.44669E-2,4.6614382E-2,-8.2867935E-2,-2.8959215E-2,-4.924637E-2,3.9120227E-2,4.567733E-2,-7.747752E-2,-1.8029628E-4,8.3409235E-2],"categories":[],"categories_nodes":[],"categories_segments":[],"categories_sizes":[],"default_left":[0,0,0,0,0,0,0,0,0,0,0,0,0,0,0,0,0,0,0,0,0,0,0],"id":1,"left_children":[1,3,5,7,9,-1,11,-1,13,15,17,19,21,-1,-1,-1,-1,-1,-1,-1,-1,-1,-1],"loss_changes":[4.5886984E2,8.959845E1,7.89061E1,1.5364685E1,6.0148865E1,0E0,3.1787476E1,0E0,3.030096E1,2.8075668E1,6.251117E1,3.4622787E1,1.2269745E1,0E0,0E0,0E0,0E0,0E0,0E0,0E0,0E0,0E0,0E0],"parents":[2147483647,0,0,1,1,2,2,3,3,4,4,6,6,8,8,9,9,10,10,11,11,12,12],"right_children":[2,4,6,8,10,-1,12,-1,14,16,18,20,22,-1,-1,-1,-1,-1,-1,-1,-1,-1,-1],"split_conditions":[7.0765173E-1,-5.508086E-1,-4.480213E-1,1.0857085E0,3.3423963E-1,-8.218025E-2,1.4604203E0,-9.46554E-2,-8.3393455E-2,-4.0345082E-1,2.8595904E-1,1.8072412E0,1.3063632E0,-8.44669E-2,4.6614382E-2,-8.2867935E-2,-2.8959215E-2,-4.924637E-2,3.9120227E-2,4.567733E-2,-7.747752E-2,-1.8029628E-4,8.3409235E-2],"split_indices":[5,3,3,6,8,0,5,0,5,0,6,12,0,0,0,0,0,0,0,0,0,0,0],"split_type":[0,0,0,0,0,0,0,0,0,0,0,0,0,0,0,0,0,0,0,0,0,0,0],"sum_hessian":[4.8692804E2,2.806653E2,2.0626271E2,9.078675E1,1.8987857E2,8.983566E0,1.9727914E2,7.486986E1,1.5916891E1,1.06425514E2,8.3453064E1,9.6048134E1,1.0123101E2,9.98621E0,5.9306817E0,3.8554058E1,6.787145E1,3.0000435E1,5.345263E1,9.130317E1,4.744966E0,4.5888743E0,9.6642136E1],"tree_param":{"num_deleted":"0","num_feature":"16","num_nodes":"23","size_leaf_vector":"1"}},{"base_weights":[-8.342646E-3,-8.0320364E-1,9.680774E-1,-9.047987E-2,-4.824505E-1,-1.290348E0,1.1719537E0,1.1746838E0,-6.1160326E-1,3.3369653E-2,-8.5964344E-2,8.1943065E-1,1.4853818E0,8.661683E-4,8.375465E-2,-8.7654345E-2,-2.2961428E-2,4.9325045E-2,-7.804491E-2,3.3393707E-2,7.946752E-2],"categories":[],"categories_nodes":[],"categories_segments":[],"categories_sizes":[],"default_left":[0,0,0,0,0,0,0,0,0,0,0,0,0,0,0,0,0,0,0,0,0],"id":2,"left_children":[1,3,5,-1,7,9,11,13,15,-1,-1,17,19,-1,-1,-1,-1,-1,-1,-1,-1],"loss_changes":[3.9221594E2,8.861372E1,1.0668855E2,0E0,4.672635E1,1.8089115E1,2.1243896E1,9.185186E0,3.337963E1,0E0,0E0,4.271956E1,7.6449585E0,0E0,0E0,0E0,0E0,0E0,0E0,0E0,0E0],"parents":[2147483647,0,0,1,1,2,2,4,4,5,5,6,6,7,7,8,8,11,11,12,12],"right_children":[2,4,6,-1,8,10,12,14,16,-1,-1,18,20,-1,-1,-1,-1,-1,-1,-1,-1],"split_conditions":[5.823242E-1,-8.466001E-1,-2.2000654E-1,-9.047987E-2,-8.201755E-1,6.783203E-1,1.3725369E0,-3.5499686E-1,-5.959954E-1,3.3369653E-2,-8.5964344E-2,1.8072412E0,1.3276868E0,8.661683E-4,8.375465E-2,-8.7654345E-2,-2.2961428E-2,4.9325045E-2,-7.804491E-2,3.3393707E-2,7.946752E-2],"split_indices":[5,10,3,0,10,10,5,3,5,0,0,2,0,0,0,0,0,0,0,0,0],"split_type":[0,0,0,0,0,0,0,0,0,0,0,0,0,0,0,0,0,0,0,0,0],"sum_hessian":[5.0235318E2,2.7706927E2,2.252839E2,6.528107E1,2.117882E2,1.799143E1,2.0729248E2,1.4434826E1,1.9735338E2,3.0835903E0,1.490784E1,1.00113335E2,1.0717914E2,4.8257127E0,9.609114E0,2.138611E1,1.7596725E2,9.436817E1,5.745162E0,1.3349259E1,9.382988E1],"tree_param":{"num_deleted":"0","num_feature":"16","num_nodes":"21","size_leaf_vector":"1"}},{"base_weights":[6.454732E-3,-7.436588E-1,9.0416783E-1,-1.5615183E0,-3.724383E-1,-7.995484E-2,1.0660805E0,-8.756468E-2,-6.5094125E-1,-1.5960207E0,-4.3529026E-2,-7.844087E-2,1.1506232E0,2.193746E-2,-7.893681E-2,-8.9902095E-2,-1.2274016E-2,1.2059878E-2,-8.812742E-2,1.62333E-2,6.634644E-2],"categories":[],"categories_nodes":[],"categories_segments":[],"categories_sizes":[],"default_left":[0,0,0,0,0,0,0,0,0,0,0,0,0,0,0,0,0,0,0,0,0],"id":3,"left_children":[1,3,5,7,9,-1,11,-1,13,15,17,-1,19,-1,-1,-1,-1,-1,-1,-1,-1],"loss_changes":[3.4552252E2,8.399867E1,9.722571E1,1.3289703E1,7.806804E1,0E0,5.177774E1,0E0,1.8587845E1,1.0554237E1,7.632249E1,0E0,3.0560059E1,0E0,0E0,0E0,0E0,0E0,0E0,0E0,0E0],"parents":[2147483647,0,0,1,1,2,2,3,3,4,4,6,6,8,8,9,9,10,10,12,12],"right_children":[2,4,6,8,10,-1,12,-1,14,16,18,-1,20,-1,-1,-1,-1,-1,-1,-1,-1],"split_conditions":[5.823242E-1,-5.508086E-1,-4.480213E-1,5.018519E-2,-5.4848105E-1,-7.995484E-2,-1.1186262E0,-8.756468E-2,2.3544827E-2,4.3919352E-1,2.9080203E-1,-7.844087E-2,4.038568E-2,2.193746E-2,-7.893681E-2,-8.9902095E-2,-1.2274016E-2,1.2059878E-2,-8.812742E-2,1.62333E-2,6.634644E-2],"split_indices":[5,3,3,10,13,0,13,0,5,5,13,0,8,0,0,0,0,0,0,0,0],"split_type":[0,0,0,0,0,0,0,0,0,0,0,0,0,0,0,0,0,0,0,0,0],"sum_hessian":[5.101138E2,2.7804318E2,2.3207063E2,8.5301125E1,1.9274205E2,1.3289696E1,2.1878093E2,6.9443375E1,1.5857747E1,3.960986E1,1.5313219E2,5.982815E0,2.1279813E2,7.6562166E0,8.20153E0,3.4023426E1,5.5864353E0,1.3247884E2,2.0653353E1,3.8182556E1,1.7461557E2],"tree_param":{"num_deleted":"0","num_feature":"16","num_nodes":"21","size_leaf_vector":"1"}},{"base_weights":[1.7257163E-2,-7.6082444E-1,8.7976694E-1,-8.41355E-2,-4.7365665E-1,-7.767042E-2,1.0367696E0,-8.6923055E-2,-3.084386E-1,-7.288113E-2,1.1027081E0,4.5020357E-3,-5.7679642E-2,6.464628E-3,6.022593E-2],"categories":[],"categories_nodes":[],"categories_segments":[],"categories_sizes":[],"default_left":[0,0,0,0,0,0,0,0,0,0,0,0,0,0,0],"id":4,"left_children":[1,3,5,-1,7,-1,9,-1,11,-1,13,-1,-1,-1,-1],"loss_changes":[3.3934E2,6.9184784E1,9.402214E1,0E0,4.199146E1,0E0,3.960939E1,0E0,6.1771664E1,0E0,2.1687317E1,0E0,0E0,0E0,0E0],"parents":[2147483647,0,0,1,1,2,2,4,4,6,6,8,8,10,10],"right_children":[2,4,6,-1,8,-1,10,-1,12,-1,14,-1,-1,-1,-1],"split_conditions":[5.823242E-1,-8.466001E-1,-4.480213E-1,-8.41355E-2,-7.3554367E-1,-7.767042E-2,-1.1186262E0,-8.6923055E-2,1.9350608E-1,-7.288113E-2,-2.0501365E-1,4.5020357E-3,-5.7679642E-2,6.464628E-3,6.022593E-2],"split_indices":[5,10,3,0,13,0,13,0,13,0,8,0,0,0,0],"split_type":[0,0,0,0,0,0,0,0,0,0,0,0,0,0,0],"sum_hessian":[5.0264905E2,2.6435117E2,2.3829788E2,6.1055893E1,2.0329529E2,1.3635662E1,2.2466223E2,2.1837551E1,1.8145773E2,4.9705954E0,2.1969164E2,1.24226654E2,5.7231075E1,2.112444E1,1.9856718E2],"tree_param":{"num_deleted":"0","num_feature":"16","num_nodes":"15","size_leaf_vector":"1"}},{"base_weights":[-1.8081635E-2,-7.569726E-1,8.308122E-1,-1.5632652E0,-4.013262E-1,-7.5202934E-2,9.8455703E-1,-8.27354E-2,-7.405226E-1,-1.4968652E0,-7.872946E-2,-7.293277E-2,1.0615585E0,3.5206694E-2,-7.190581E-2,-8.401178E-2,-1.0216297E-2,9.872566E-3,-8.2546875E-2,5.4030716E-3,5.82556E-2],"categories":[],"categories_nodes":[],"categories_segments":[],"categories_sizes":[],"default_left":[0,0,0,0,0,0,0,0,0,0,0,0,0,0,0,0,0,0,0,0,0],"id":5,"left_children":[1,3,5,7,9,-1,11,-1,13,15,17,-1,19,-1,-1,-1,-1,-1,-1,-1,-1],"loss_changes":[3.182989E2,7.685246E1,8.69989E1,4.370117E0,6.706829E1,0E0,4.417856E1,0E0,1.2573351E1,9.723885E0,6.500074E1,0E0,2.1193161E1,0E0,0E0,0E0,0E0,0E0,0E0,0E0,0E0],"parents":[2147483647,0,0,1,1,2,2,3,3,4,4,6,6,8,8,9,9,10,10,12,12],"right_children":[2,4,6,8,10,-1,12,-1,14,16,18,-1,20,-1,-1,-1,-1,-1,-1,-1,-1],"split_conditions":[5.823242E-1,-5.508086E-1,-4.480213E-1,8.660891E-3,-5.374468E-1,-7.5202934E-2,-1.1186262E0,-8.27354E-2,5.644523E-2,4.589952E-1,2.9080203E-1,-7.293277E-2,-2.2377029E-1,3.5206694E-2,-7.190581E-2,-8.401178E-2,-1.0216297E-2,9.872566E-3,-8.2546875E-2,5.4030716E-3,5.82556E-2],"split_indices":[5,3,3,2,13,0,13,0,2,5,13,0,8,0,0,0,0,0,0,0,0],"split_type":[0,0,0,0,0,0,0,0,0,0,0,0,0,0,0,0,0,0,0,0,0],"sum_hessian":[5.0445544E2,2.6978906E2,2.3466637E2,8.10181E1,1.8877097E2,1.3683616E1,2.2098274E2,7.154906E1,9.46904E0,4.1699467E1,1.470715E2,5.9294653E0,2.1505328E2,3.0788796E0,6.3901596E0,3.6124603E1,5.57486E0,1.2621216E2,2.085935E1,2.1367886E1,1.936854E2],"tree_param":{"num_deleted":"0","num_feature":"16","num_nodes":"21","size_leaf_vector":"1"}},{"base_weights":[1.45750735E-2,-6.531818E-1,8.77857E-1,-7.935531E-2,-3.9638045E-1,-7.123616E-2,1.0115566E0,-8.098146E-2,-1.9455834E-1,-6.723528E-2,1.075798E0,-8.14326E-2,1.2864703E-3,3.477063E-2,6.275746E-2],"categories":[],"categories_nodes":[],"categories_segments":[],"categories_sizes":[],"default_left":[0,0,0,0,0,0,0,0,0,0,0,0,0,0,0],"id":6,"left_children":[1,3,5,-1,7,-1,9,-1,11,-1,13,-1,-1,-1,-1],"loss_changes":[2.8825275E2,6.6681244E1,6.929814E1,0E0,5.46195E1,0E0,3.3501648E1,0E0,6.111495E1,0E0,1.2494049E1,0E0,0E0,0E0,0E0],"parents":[2147483647,0,0,1,1,2,2,4,4,6,6,8,8,10,10],"right_children":[2,4,6,-1,8,-1,10,-1,12,-1,14,-1,-1,-1,-1],"split_conditions":[6.9333297E-1,-7.5124997E-1,-4.480213E-1,-7.935531E-2,-7.3554367E-1,-7.123616E-2,-1.1186262E0,-8.098146E-2,-1.0803233E0,-6.723528E-2,6.327524E-1,-8.14326E-2,1.2864703E-3,3.477063E-2,6.275746E-2],"split_indices":[5,14,3,0,13,0,13,0,8,0,2,0,0,0,0],"split_type":[0,0,0,0,0,0,0,0,0,0,0,0,0,0,0],"sum_hessian":[4.9704523E2,2.8046664E2,2.1657858E2,5.8811825E1,2.2165483E2,1.1090652E1,2.0548793E2,2.9898958E1,1.9175586E2,4.6602464E0,2.0082768E2,2.4256147E1,1.6749973E2,6.669356E1,1.3413412E2],"tree_param":{"num_deleted":"0","num_feature":"16","num_nodes":"15","size_leaf_vector":"1"}},{"base_weights":[-6.837121E-2,-8.8822794E-1,6.038652E-1,-7.7706814E-2,-5.8745986E-1,-1.1365223E0,7.5780123E-1,1.3597871E-1,-1.131615E0,2.862646E-2,-7.4305266E-2,-7.092472E-2,8.383567E-1,3.280264E-2,-5.5911075E-2,-6.425242E-2,5.738472E-3,2.042677E-2,5.4427553E-2],"categories":[],"categories_nodes":[],"categories_segments":[],"categories_sizes":[],"default_left":[0,0,0,0,0,0,0,0,0,0,0,0,0,0,0,0,0,0,0],"id":7,"left_children":[1,3,5,-1,7,9,11,13,15,-1,-1,-1,17,-1,-1,-1,-1,-1,-1],"loss_changes":[2.6351712E2,4.176445E1,7.170074E1,0E0,5.9582558E1,1.43942375E1,4.4271317E1,4.4190533E1,1.6707153E1,0E0,0E0,0E0,2.4566437E1,0E0,0E0,0E0,0E0,0E0,0E0],"parents":[2147483647,0,0,1,1,2,2,4,4,5,5,6,6,7,7,8,8,12,12],"right_children":[2,4,6,-1,8,10,12,14,16,-1,-1,-1,18,-1,-1,-1,-1,-1,-1],"split_conditions":[5.021562E-1,-7.4876404E-1,-4.480213E-1,-7.7706814E-2,-4.1236183E-1,-9.7372815E-2,-1.1186262E0,3.3831412E-1,3.7608874E-1,2.862646E-2,-7.4305266E-2,-7.092472E-2,9.0840465E-1,3.280264E-2,-5.5911075E-2,-6.425242E-2,5.738472E-3,2.042677E-2,5.4427553E-2],"split_indices":[10,4,3,0,2,0,13,13,10,0,0,0,4,0,0,0,0,0,0],"split_type":[0,0,0,0,0,0,0,0,0,0,0,0,0,0,0,0,0,0,0],"sum_hessian":[4.7517334E2,2.1386388E2,2.6130945E2,6.459594E1,1.4926794E2,2.0456415E1,2.4085304E2,6.456106E1,8.4706894E1,3.3113194E0,1.7145096E1,7.707692E0,2.3314536E2,4.6142647E1,1.841841E1,7.538078E1,9.326106E0,8.723292E1,1.4591243E2],"tree_param":{"num_deleted":"0","num_feature":"16","num_nodes":"19","size_leaf_vector":"1"}},{"base_weights":[-5.7518E-2,-7.06429E-1,7.0516545E-1,-1.3545445E0,-3.836977E-1,-6.882181E-2,8.4025824E-1,-7.64647E-2,-5.782821E-1,-7.784911E-2,-7.4557126E-2,-6.497865E-2,9.0539795E-1,3.049843E-2,-7.274687E-2,-7.9474956E-2,8.285775E-3,-1.0419243E-2,5.125877E-2],"categories":[],"categories_nodes":[],"categories_segments":[],"categories_sizes":[],"default_left":[0,0,0,0,0,0,0,0,0,0,0,0,0,0,0,0,0,0,0],"id":8,"left_children":[1,3,5,7,9,-1,11,-1,13,-1,15,-1,17,-1,-1,-1,-1,-1,-1],"loss_changes":[2.3754503E2,5.34496E1,6.379786E1,1.0284103E1,6.3361984E1,0E0,3.0782959E1,0E0,2.0227076E1,0E0,5.1433777E1,0E0,2.739058E1,0E0,0E0,0E0,0E0,0E0,0E0],"parents":[2147483647,0,0,1,1,2,2,3,3,4,4,6,6,8,8,10,10,12,12],"right_children":[2,4,6,8,10,-1,12,-1,14,-1,16,-1,18,-1,-1,-1,-1,-1,-1],"split_conditions":[5.823242E-1,-5.083181E-1,-4.480213E-1,5.018519E-2,-5.374468E-1,-6.882181E-2,-1.1186262E0,-7.64647E-2,-3.9613557E-1,-7.784911E-2,-8.4931743E-1,-6.497865E-2,-2.2377029E-1,3.049843E-2,-7.274687E-2,-7.9474956E-2,8.285775E-3,-1.0419243E-2,5.125877E-2],"split_indices":[5,3,3,10,13,0,13,0,14,0,6,0,8,0,0,0,0,0,0],"split_type":[0,0,0,0,0,0,0,0,0,0,0,0,0,0,0,0,0,0,0],"sum_hessian":[4.7696283E2,2.5776245E2,2.192004E2,8.409184E1,1.7367061E2,1.2518813E1,2.0668158E2,6.745215E1,1.6639698E1,3.4954117E1,1.3871648E2,5.266067E0,2.0141551E2,7.2581077E0,9.381591E0,1.7835958E1,1.2088052E2,1.9449488E1,1.8196602E2],"tree_param":{"num_deleted":"0","num_feature":"16","num_nodes":"19","size_leaf_vector":"1"}},{"base_weights":[-2.4437591E-2,-1.3156573E0,2.7345288E-1,-7.455503E-2,-2.5347665E-1,-2.0467107E-1,7.846805E-1,-6.511888E-2,5.345576E-2,-1.3125488E0,7.4687995E-2,-5.990526E-2,8.412527E-1,-7.479786E-2,-1.057506E-2,1.5595364E-2,-8.438408E-2,2.2761963E-2,5.4884154E-2],"categories":[],"categories_nodes":[],"categories_segments":[],"categories_sizes":[],"default_left":[0,0,0,0,0,0,0,0,0,0,0,0,0,0,0,0,0,0,0],"id":9,"left_children":[1,3,5,-1,7,9,11,-1,-1,13,15,-1,17,-1,-1,-1,-1,-1,-1],"loss_changes":[1.8026096E2,1.5803436E1,9.3343544E1,0E0,2.1871233E1,6.1430416E1,2.219458E1,0E0,0E0,7.594116E0,6.7494316E1,0E0,1.708294E1,0E0,0E0,0E0,0E0,0E0,0E0],"parents":[2147483647,0,0,1,1,2,2,4,4,5,5,6,6,9,9,10,10,12,12],"right_children":[2,4,6,-1,8,10,12,-1,-1,14,16,-1,18,-1,-1,-1,-1,-1,-1],"split_conditions":[-5.508086E-1,1.0903047E0,6.9333297E-1,-7.455503E-2,-8.3393455E-2,-5.374468E-1,-1.235654E0,-6.511888E-2,5.345576E-2,4.589952E-1,2.692619E-1,-5.990526E-2,9.234649E-1,-7.479786E-2,-1.057506E-2,1.5595364E-2,-8.438408E-2,2.2761963E-2,5.4884154E-2],"split_indices":[3,6,5,0,5,13,13,0,0,5,1,0,2,0,0,0,0,0,0],"split_type":[0,0,0,0,0,0,0,0,0,0,0,0,0,0,0,0,0,0,0],"sum_hessian":[4.6574295E2,8.634627E1,3.793967E2,7.358612E1,1.2760147E1,1.9651042E2,1.8288626E2,7.1291747E0,5.630972E0,3.8455715E1,1.580547E2,4.233675E0,1.7865259E2,3.2503418E1,5.952297E0,1.403921E2,1.7662598E1,7.297053E1,1.0568207E2],"tree_param":{"num_deleted":"0","num_feature":"16","num_nodes":"19","size_leaf_vector":"1"}},{"base_weights":[-6.94245E-2,-6.319793E-1,6.3225687E-1,-1.1672797E0,-2.1229911E-1,-6.610155E-2,7.7272844E-1,-7.631631E-2,-2.7430436E-1,3.5431474E-1,-1.0490397E0,4.2160302E-1,1.1466074E0,3.0083522E-2,-7.066103E-2,-7.075678E-2,2.8260887E-2,-7.940048E-2,-1.9434627E-2,-4.3786924E-2,3.7229575E-2,2.1781467E-3,6.2006142E-2],"categories":[],"categories_nodes":[],"categories_segments":[],"categories_sizes":[],"default_left":[0,0,0,0,0,0,0,0,0,0,0,0,0,0,0,0,0,0,0,0,0,0,0],"id":10,"left_children":[1,3,5,7,9,-1,11,-1,13,15,17,19,21,-1,-1,-1,-1,-1,-1,-1,-1,-1,-1],"loss_changes":[1.8260449E2,5.728871E1,5.8062088E1,3.5429016E1,6.963599E1,0E0,2.4619286E1,0E0,3.5275055E1,3.403794E1,2.0146248E1,4.3689884E1,9.47364E0,0E0,0E0,0E0,0E0,0E0,0E0,0E0,0E0,0E0,0E0],"parents":[2147483647,0,0,1,1,2,2,3,3,4,4,6,6,8,8,9,9,10,10,11,11,12,12],"right_children":[2,4,6,8,10,-1,12,-1,14,16,18,20,22,-1,-1,-1,-1,-1,-1,-1,-1,-1,-1],"split_conditions":[5.823242E-1,-2.7714697E-1,-4.480213E-1,-4.0345082E-1,1.1920254E0,-6.610155E-2,1.4604203E0,-7.631631E-2,-4.8621282E-1,-8.4931743E-1,7.639702E-1,4.6953462E-2,1.3276868E0,3.0083522E-2,-7.066103E-2,-7.075678E-2,2.8260887E-2,-7.940048E-2,-1.9434627E-2,-4.3786924E-2,3.7229575E-2,2.1781467E-3,6.2006142E-2],"split_indices":[5,5,3,0,15,0,5,0,6,6,6,6,0,0,0,0,0,0,0,0,0,0,0],"split_type":[0,0,0,0,0,0,0,0,0,0,0,0,0,0,0,0,0,0,0,0,0,0,0],"sum_hessian":[4.5958276E2,2.5516216E2,2.0442061E2,1.10960464E2,1.4420169E2,1.2862074E1,1.9155853E2,7.838117E1,3.2579292E1,8.649493E1,5.770676E1,1.00431015E2,9.112752E1,1.8815386E1,1.3763906E1,8.299373E0,7.819556E1,3.0613255E1,2.7093504E1,1.9507715E1,8.0923294E1,7.2937746E0,8.383375E1],"tree_param":{"num_deleted":"0","num_feature":"16","num_nodes":"23","size_leaf_vector":"1"}},{"base_weights":[1.1580019E-2,-1.1797304E0,3.0151632E-1,-1.3422337E0,-2.3654394E-1,-1.3685921E-2,1.0869054E0,-7.165164E-2,-2.745709E-1,5.8859896E-2,-6.325229E-2,-1.1676741E0,1.6909462E-1,2.1310909E-2,1.2088248E0,-5.747227E-2,3.8981594E-2,-7.759022E-2,-2.75918E-2,-7.103225E-2,1.5198787E-2,5.39774E-2,-4.0201142E-2,-3.5410875E-3,6.323211E-2],"categories":[],"categories_nodes":[],"categories_segments":[],"categories_sizes":[],"default_left":[0,0,0,0,0,0,0,0,0,0,0,0,0,0,0,0,0,0,0,0,0,0,0,0,0],"id":11,"left_children":[1,3,5,7,9,11,13,-1,15,-1,-1,17,19,21,23,-1,-1,-1,-1,-1,-1,-1,-1,-1,-1],"loss_changes":[1.6269609E2,1.3655594E1,9.379289E1,7.003311E0,2.4584942E1,5.7622753E1,1.4057327E1,0E0,8.717906E0,0E0,0E0,7.551483E0,5.123786E1,1.2364784E1,7.086548E0,0E0,0E0,0E0,0E0,0E0,0E0,0E0,0E0,0E0,0E0],"parents":[2147483647,0,0,1,1,2,2,3,3,4,4,5,5,6,6,8,8,11,11,12,12,13,13,14,14],"right_children":[2,4,6,8,10,12,14,-1,16,-1,-1,18,20,22,24,-1,-1,-1,-1,-1,-1,-1,-1,-1,-1],"split_conditions":[-5.083181E-1,1.1250223E0,1.3725369E0,-5.508086E-1,1.8065672E-1,-7.9875857E-1,1.3276868E0,-7.165164E-2,9.294356E-1,5.8859896E-2,-6.325229E-2,-1.0147829E0,-1.0007871E0,1.0069764E0,-1.9284527E-1,-5.747227E-2,3.8981594E-2,-7.759022E-2,-2.75918E-2,-7.103225E-2,1.5198787E-2,5.39774E-2,-4.0201142E-2,-3.5410875E-3,6.323211E-2],"split_indices":[3,13,5,3,10,6,0,0,6,0,0,6,13,10,3,0,0,0,0,0,0,0,0,0,0],"split_type":[0,0,0,0,0,0,0,0,0,0,0,0,0,0,0,0,0,0,0,0,0,0,0,0,0],"sum_hessian":[4.679864E2,9.070167E1,3.772847E2,7.682988E1,1.3871782E1,2.7028458E2,1.07000145E2,7.0334946E1,6.494936E0,5.750495E0,8.121288E0,3.5851692E1,2.3443288E2,1.1166392E1,9.5833755E1,3.4752967E0,3.0196395E0,2.0675539E1,1.5176153E1,1.7216494E1,2.1721637E2,4.6903887E0,6.4760036E0,3.9886303E0,9.184512E1],"tree_param":{"num_deleted":"0","num_feature":"16","num_nodes":"25","size_leaf_vector":"1"}},{"base_weights":[-1.434634E-3,-1.0203755E0,3.2132426E-1,-1.2120296E0,-4.261297E-1,-6.960831E-2,4.385677E-1,-6.918819E-2,-7.315434E-1,-7.493862E-2,6.9775665E-1,-7.1552955E-2,5.1877314E-1,2.800025E-2,-6.721028E-2,7.716045E-2,-1.7557798E-2,1.3403733E-2,4.961128E-2],"categories":[],"categories_nodes":[],"categories_segments":[],"categories_sizes":[],"default_left":[0,0,0,0,0,0,0,0,0,0,0,0,0,0,0,0,0,0,0],"id":12,"left_children":[1,3,5,7,9,-1,11,-1,13,-1,15,-1,17,-1,-1,-1,-1,-1,-1],"loss_changes":[1.5102365E2,1.1806496E1,7.097871E1,5.306946E0,3.683378E1,0E0,5.0232407E1,0E0,2.0881191E1,0E0,1.4388693E1,0E0,3.7011612E1,0E0,0E0,0E0,0E0,0E0,0E0],"parents":[2147483647,0,0,1,1,2,2,3,3,4,4,6,6,8,8,10,10,12,12],"right_children":[2,4,6,8,10,-1,12,-1,14,-1,16,-1,18,-1,-1,-1,-1,-1,-1],"split_conditions":[-4.1033942E-1,-5.508086E-1,-1.0007871E0,5.018519E-2,5.111758E-1,-6.960831E-2,-1.0803233E0,-6.918819E-2,-3.9613557E-1,-7.493862E-2,6.2608236E-1,-7.1552955E-2,9.463335E-1,2.800025E-2,-6.721028E-2,7.716045E-2,-1.7557798E-2,1.3403733E-2,4.961128E-2],"split_indices":[3,3,13,10,6,0,8,0,14,0,6,0,2,0,0,0,0,0,0],"split_type":[0,0,0,0,0,0,0,0,0,0,0,0,0,0,0,0,0,0,0],"sum_hessian":[4.5622134E2,1.08968544E2,3.472528E2,8.121572E1,2.7752827E1,2.1194082E1,3.2605872E2,5.7753666E1,2.3462053E1,1.3944134E1,1.3808693E1,1.2373068E1,3.1368567E2,7.590179E0,1.5871874E1,7.2544985E0,6.554194E0,2.066248E2,1.0706086E2],"tree_param":{"num_deleted":"0","num_feature":"16","num_nodes":"19","size_leaf_vector":"1"}},{"base_weights":[-5.8127712E-2,-5.4683983E-1,6.5752846E-1,-6.838877E-2,-3.383361E-1,-5.701601E-2,7.3699766E-1,-1.1400587E-1,-7.767375E-2,-4.1213026E-3,8.123349E-1,6.1246034E-2,-1.2962276E-2,3.3524364E-2,-8.0242686E-2,2.2046685E-2,5.1986456E-2],"categories":[],"categories_nodes":[],"categories_segments":[],"categories_sizes":[],"default_left":[0,0,0,0,0,0,0,0,0,0,0,0,0,0,0,0,0],"id":13,"left_children":[1,3,5,-1,7,-1,9,11,-1,13,15,-1,-1,-1,-1,-1,-1],"loss_changes":[1.5787196E2,4.5200035E1,2.743789E1,0E0,5.8562622E1,0E0,9.852715E0,3.621843E1,0E0,2.0800224E1,1.2834152E1,0E0,0E0,0E0,0E0,0E0,0E0],"parents":[2147483647,0,0,1,1,2,2,4,4,6,6,7,7,9,9,10,10],"right_children":[2,4,6,-1,8,-1,10,12,-1,14,16,-1,-1,-1,-1,-1,-1],"split_conditions":[7.0765173E-1,-8.466001E-1,-4.480213E-1,-6.838877E-2,2.692619E-1,-5.701601E-2,-2.2377029E-1,-8.201755E-1,-7.767375E-2,2.24646E0,1.3063632E0,6.1246034E-2,-1.2962276E-2,3.3524364E-2,-8.0242686E-2,2.2046685E-2,5.1986456E-2],"split_indices":[5,10,3,0,0,0,8,10,0,0,0,0,0,0,0,0,0],"split_type":[0,0,0,0,0,0,0,0,0,0,0,0,0,0,0,0,0],"sum_hessian":[4.4834326E2,2.6662347E2,1.8171979E2,5.2313023E1,2.1431044E2,6.8447924E0,1.74875E2,1.8229683E2,3.2013607E1,1.6267149E1,1.5860785E2,1.6748264E1,1.6554857E2,1.2057411E1,4.2097387E0,6.1905964E1,9.670188E1],"tree_param":{"num_deleted":"0","num_feature":"16","num_nodes":"17","size_leaf_vector":"1"}},{"base_weights":[-8.9117825E-2,-5.2226377E-1,5.423127E-1,-6.7764245E-2,-2.7995104E-1,-7.246583E-2,6.2365276E-1,-6.1972167E-2,-7.625029E-2,-5.9727676E-2,6.992451E-1,-5.8198877E-2,9.303818E-3,2.6350632E-2,6.0009427E-2],"categories":[],"categories_nodes":[],"categories_segments":[],"categories_sizes":[],"default_left":[0,0,0,0,0,0,0,0,0,0,0,0,0,0,0],"id":14,"left_children":[1,3,5,-1,7,-1,9,11,-1,-1,13,-1,-1,-1,-1],"loss_changes":[1.1869139E2,5.1355705E1,2.9976845E1,0E0,5.4454018E1,0E0,2.4726746E1,4.7548492E1,0E0,0E0,1.3280235E1,0E0,0E0,0E0,0E0],"parents":[2147483647,0,0,1,1,2,2,4,4,6,6,7,7,10,10],"right_children":[2,4,6,-1,8,-1,10,12,-1,-1,14,-1,-1,-1,-1],"split_conditions":[6.9333297E-1,-7.4876404E-1,1.00636624E-1,-6.7764245E-2,2.6192442E-1,-7.246583E-2,-1.1186262E0,-5.374468E-1,-7.625029E-2,-5.9727676E-2,1.832195E0,-5.8198877E-2,9.303818E-3,2.6350632E-2,6.0009427E-2],"split_indices":[5,4,4,0,0,0,13,13,0,0,10,0,0,0,0],"split_type":[0,0,0,0,0,0,0,0,0,0,0,0,0,0,0],"sum_hessian":[4.3091638E2,2.5574255E2,1.7517381E2,5.6075798E1,1.9966675E2,5.883681E0,1.6929013E2,1.7125826E2,2.8408503E1,5.871054E0,1.6341908E2,3.0448019E1,1.4081023E2,1.2389874E2,3.9520336E1],"tree_param":{"num_deleted":"0","num_feature":"16","num_nodes":"15","size_leaf_vector":"1"}},{"base_weights":[1.3977208E-2,-1.1521077E0,2.56057E-1,-6.6886246E-2,-1.9357066E-1,8.98782E-3,8.827502E-1,3.3262085E-2,-5.7639785E-2,-5.0927085E-1,4.0509173E-1,-6.275288E-1,1.0761634E0,-5.73227E-2,-5.1438245E-3,2.6620736E-2,-7.857313E-2,3.851099E-2,-8.841457E-2,5.990365E-2,1.909337E-2],"categories":[],"categories_nodes":[],"categories_segments":[],"categories_sizes":[],"default_left":[0,0,0,0,0,0,0,0,0,0,0,0,0,0,0,0,0,0,0,0,0],"id":15,"left_children":[1,3,5,-1,7,9,11,-1,-1,13,15,17,19,-1,-1,-1,-1,-1,-1,-1,-1],"loss_changes":[1.2824529E2,1.3508011E1,5.822808E1,0E0,1.3033344E1,5.600208E1,3.2076675E1,0E0,0E0,3.0428156E1,4.016302E1,2.2803669E1,7.339699E0,0E0,0E0,0E0,0E0,0E0,0E0,0E0,0E0],"parents":[2147483647,0,0,1,1,2,2,4,4,5,5,6,6,9,9,10,10,11,11,12,12],"right_children":[2,4,6,-1,8,10,12,-1,-1,14,16,18,20,-1,-1,-1,-1,-1,-1,-1,-1],"split_conditions":[-5.508086E-1,1.0903047E0,1.4997134E0,-6.6886246E-2,1.2557701E0,1.8943755E-1,-1.8156785E-1,3.3262085E-2,-5.7639785E-2,-3.9569405E-1,1.5912971E0,-1.308027E-1,1.6429882E0,-5.73227E-2,-5.1438245E-3,2.6620736E-2,-7.857313E-2,3.851099E-2,-8.841457E-2,5.990365E-2,1.909337E-2],"split_indices":[3,6,0,0,6,6,8,0,0,0,6,2,3,0,0,0,0,0,0,0,0],"split_type":[0,0,0,0,0,0,0,0,0,0,0,0,0,0,0,0,0,0,0,0,0],"sum_hessian":[4.5124286E2,7.6604485E1,3.7463837E2,6.367975E1,1.2924733E1,2.6979514E2,1.0484323E2,7.061847E0,5.862886E0,1.16690216E2,1.5310493E2,1.1520206E1,9.332302E1,4.437826E1,7.231196E1,1.4486891E2,8.236019E0,5.3959327E0,6.124274E0,7.845833E1,1.4864694E1],"tree_param":{"num_deleted":"0","num_feature":"16","num_nodes":"21","size_leaf_vector":"1"}},{"base_weights":[7.369743E-2,-8.8864267E-1,3.935813E-1,-1.0613552E0,7.604726E-1,-6.914099E-2,4.7426704E-1,-3.78299E-1,-1.3429846E0,-2.2589217E-3,7.440954E-2,-6.536223E-2,5.651579E-1,-6.176867E-2,5.0340574E-2,-4.4100326E-2,-7.426835E-2,-1.8726759E-2,3.3381928E-2],"categories":[],"categories_nodes":[],"categories_segments":[],"categories_sizes":[],"default_left":[0,0,0,0,0,0,0,0,0,0,0,0,0,0,0,0,0,0,0],"id":16,"left_children":[1,3,5,7,9,-1,11,13,15,-1,-1,-1,17,-1,-1,-1,-1,-1,-1],"loss_changes":[1.4053578E2,3.3659897E1,5.005924E1,1.919677E1,6.945405E0,0E0,5.4321854E1,4.0302765E1,2.8180542E0,0E0,0E0,0E0,3.0587402E1,0E0,0E0,0E0,0E0,0E0,0E0],"parents":[2147483647,0,0,1,1,2,2,3,3,4,4,6,6,7,7,8,8,12,12],"right_children":[2,4,6,8,10,-1,12,14,16,-1,-1,-1,18,-1,-1,-1,-1,-1,-1],"split_conditions":[-4.53534E-1,-2.0015752E-1,-1.0686004E0,-9.763803E-1,-2.8772482E-1,-6.914099E-2,-1.1186262E0,-8.466001E-1,-9.6401656E-1,-2.2589217E-3,7.440954E-2,-6.536223E-2,-4.6547794E-1,-6.176867E-2,5.0340574E-2,-4.4100326E-2,-7.426835E-2,-1.8726759E-2,3.3381928E-2],"split_indices":[10,0,8,8,2,0,13,10,2,0,0,0,3,0,0,0,0,0,0],"split_type":[0,0,0,0,0,0,0,0,0,0,0,0,0,0,0,0,0,0,0],"sum_hessian":[4.5332224E2,1.1242758E2,3.4089465E2,1.02253174E2,1.0174409E1,1.3759252E1,3.271354E2,3.0877813E1,7.137537E1,5.496336E0,4.6780734E0,1.4905497E1,3.1222992E2,1.9174952E1,1.1702861E1,1.9390034E1,5.198533E1,3.0311113E1,2.819188E2],"tree_param":{"num_deleted":"0","num_feature":"16","num_nodes":"19","size_leaf_vector":"1"}},{"base_weights":[3.589659E-2,-1.001426E0,3.0596521E-1,-6.4818844E-2,-5.8088696E-1,6.1286803E-2,9.3333536E-1,5.737459E-1,-6.6889085E-2,-6.4327344E-2,1.7240596E-1,1.0825102E-1,1.0613792E0,-5.335597E-2,6.5348744E-2,1.2829189E-2,-7.133381E-2,4.203512E-2,-3.8473934E-2,5.5807795E-2,6.6299583E-3],"categories":[],"categories_nodes":[],"categories_segments":[],"categories_sizes":[],"default_left":[0,0,0,0,0,0,0,0,0,0,0,0,0,0,0,0,0,0,0,0,0],"id":17,"left_children":[1,3,5,-1,7,9,11,13,-1,-1,15,17,19,-1,-1,-1,-1,-1,-1,-1,-1],"loss_changes":[1.2449578E2,1.0258461E1,5.401533E1,0E0,3.6602905E1,3.8547935E1,1.0263695E1,2.2680252E1,0E0,0E0,3.2457474E1,1.0575724E1,4.1197815E0,0E0,0E0,0E0,0E0,0E0,0E0,0E0,0E0],"parents":[2147483647,0,0,1,1,2,2,4,4,5,5,6,6,7,7,10,10,11,11,12,12],"right_children":[2,4,6,-1,8,10,12,14,-1,-1,16,18,20,-1,-1,-1,-1,-1,-1,-1,-1],"split_conditions":[-4.560939E-1,-2.9718837E-1,1.3725369E0,-6.4818844E-2,-6.195188E-1,-8.4329706E-1,1.3063632E0,-7.2971165E-1,-6.6889085E-2,-6.4327344E-2,1.8072412E0,7.492302E-1,1.8327091E0,-5.335597E-2,6.5348744E-2,1.2829189E-2,-7.133381E-2,4.203512E-2,-3.8473934E-2,5.5807795E-2,6.6299583E-3],"split_indices":[3,10,5,0,4,10,0,4,0,0,2,8,3,0,0,0,0,0,0,0,0],"split_type":[0,0,0,0,0,0,0,0,0,0,0,0,0,0,0,0,0,0,0,0,0],"sum_hessian":[4.4125192E2,9.0310585E1,3.5094135E2,5.1245132E1,3.9065453E1,2.5365916E2,9.728218E1,1.5612204E1,2.3453249E1,1.8111107E1,2.3554805E2,1.3440824E1,8.3841354E1,4.610805E0,1.1001399E1,2.2496492E2,1.05831375E1,7.3612537E0,6.0795703E0,7.888626E1,4.9550934E0],"tree_param":{"num_deleted":"0","num_feature":"16","num_nodes":"21","size_leaf_vector":"1"}},{"base_weights":[1.1172137E-2,-9.319799E-1,2.8121045E-1,-1.1519494E0,-3.481628E-1,-6.3558064E-2,3.6933857E-1,-6.743404E-2,2.9921118E-2,6.0124266E-1,-6.869782E-2,1.8902554E-1,8.3927524E-1,-5.029385E-2,7.185256E-2,2.8618341E-2,-1.5428624E-2,-1.2998771E-3,4.6733174E-2],"categories":[],"categories_nodes":[],"categories_segments":[],"categories_sizes":[],"default_left":[0,0,0,0,0,0,0,0,0,0,0,0,0,0,0,0,0,0,0],"id":18,"left_children":[1,3,5,7,9,-1,11,-1,-1,13,-1,15,17,-1,-1,-1,-1,-1,-1],"loss_changes":[1.12986946E2,1.2080025E1,4.788057E1,2.56857E1,2.9651712E1,0E0,2.751083E1,0E0,0E0,2.3921612E1,0E0,4.5778324E1,7.4954643E0,0E0,0E0,0E0,0E0,0E0,0E0],"parents":[2147483647,0,0,1,1,2,2,3,3,4,4,6,6,9,9,11,11,12,12],"right_children":[2,4,6,8,10,-1,12,-1,-1,14,-1,16,18,-1,-1,-1,-1,-1,-1],"split_conditions":[-2.7714697E-1,-4.0345082E-1,-1.0007871E0,-3.4838605E-1,-8.201755E-1,-6.3558064E-2,1.3867929E0,-6.743404E-2,2.9921118E-2,-1.0982984E0,-6.869782E-2,1.1920254E0,4.038568E-2,-5.029385E-2,7.185256E-2,2.8618341E-2,-1.5428624E-2,-1.2998771E-3,4.6733174E-2],"split_indices":[5,0,13,10,10,0,5,0,0,8,0,15,8,0,0,0,0,0,0],"split_type":[0,0,0,0,0,0,0,0,0,0,0,0,0,0,0,0,0,0,0],"sum_hessian":[4.4058673E2,9.724969E1,3.4333704E2,6.957548E1,2.7674213E1,1.7362453E1,3.2597458E2,6.2855156E1,6.720318E0,1.4694649E1,1.2979564E1,2.3710254E2,8.8872055E1,4.923112E0,9.771537E0,1.337999E2,1.0330263E2,8.93284E0,7.993922E1],"tree_param":{"num_deleted":"0","num_feature":"16","num_nodes":"19","size_leaf_vector":"1"}},{"base_weights":[-2.7303773E-3,-2.545285E-1,7.299507E-1,-6.208509E-2,-9.204797E-2,-6.3615836E-2,1.0565549E0,-6.6539E-2,2.3578117E-2,5.280767E-1,-8.803316E-2,1.214864E0,6.786728E-1,1.6377091E-2,-2.5812805E-2,-3.814856E-2,4.896859E-2,6.428581E-2,2.8817428E-2,-3.8771983E-2,5.106569E-2],"categories":[],"categories_nodes":[],"categories_segments":[],"categories_sizes":[],"default_left":[0,0,0,0,0,0,0,0,0,0,0,0,0,0,0,0,0,0,0,0,0],"id":19,"left_children":[1,3,5,-1,7,9,11,-1,13,15,-1,17,19,-1,-1,-1,-1,-1,-1,-1,-1],"loss_changes":[7.896484E1,5.092057E1,2.8474987E1,0E0,3.94549E1,3.4866596E1,3.4079437E0,0E0,4.17884E1,1.6194124E1,0E0,1.2780228E0,1.4302606E1,0E0,0E0,0E0,0E0,0E0,0E0,0E0,0E0],"parents":[2147483647,0,0,1,1,2,2,4,4,5,5,6,6,8,8,9,9,11,11,12,12],"right_children":[2,4,6,-1,8,10,12,-1,14,16,-1,18,20,-1,-1,-1,-1,-1,-1,-1,-1],"split_conditions":[1.2992986E0,-7.913232E-1,1.4997134E0,-6.208509E-2,-1.0803233E0,2.8998679E-2,1.687488E0,-6.6539E-2,1.1920254E0,4.927908E-1,-8.803316E-2,2.1844656E0,1.7214139E0,1.6377091E-2,-2.5812805E-2,-3.814856E-2,4.896859E-2,6.428581E-2,2.8817428E-2,-3.8771983E-2,5.106569E-2],"split_indices":[10,4,0,0,8,13,2,0,15,6,0,0,5,0,0,0,0,0,0,0,0],"split_type":[0,0,0,0,0,0,0,0,0,0,0,0,0,0,0,0,0,0,0,0,0],"sum_hessian":[4.2501163E2,3.1703586E2,1.0797576E2,4.3398563E1,2.736373E2,3.183427E1,7.6141495E1,2.2015507E1,2.5162178E2,2.4370493E1,7.463777E0,5.131945E1,2.4822044E1,1.6135675E2,9.026504E1,6.0440283E0,1.8326466E1,4.4825085E1,6.4943633E0,4.372247E0,2.0449797E1],"tree_param":{"num_deleted":"0","num_feature":"16","num_nodes":"21","size_leaf_vector":"1"}},{"base_weights":[2.9817846E-2,-8.4580195E-1,2.7376214E-1,-1.0205574E0,-4.115725E-2,-6.2234443E-2,3.6702183E-1,-1.1820375E0,-1.55065E-1,8.632045E-1,-5.792889E-2,-1.2623145E-2,6.595644E-1,-6.5394424E-2,-1.0224188E-2,-5.2317467E-2,4.845002E-2,3.8194624E-3,7.413341E-2,9.259566E-3,-7.315215E-2,-1.24843E-2,3.819784E-2],"categories":[],"categories_nodes":[],"categories_segments":[],"categories_sizes":[],"default_left":[0,0,0,0,0,0,0,0,0,0,0,0,0,0,0,0,0,0,0,0,0,0,0],"id":20,"left_children":[1,3,5,7,9,-1,11,13,15,17,-1,19,21,-1,-1,-1,-1,-1,-1,-1,-1,-1,-1],"loss_changes":[9.410466E1,1.3437119E1,4.945962E1,1.0739998E1,2.0391071E1,0E0,3.618053E1,7.74247E0,1.5666179E1,5.284834E0,0E0,4.149255E1,1.774694E1,0E0,0E0,0E0,0E0,0E0,0E0,0E0,0E0,0E0,0E0],"parents":[2147483647,0,0,1,1,2,2,3,3,4,4,6,6,7,7,8,8,9,9,11,11,12,12],"right_children":[2,4,6,8,10,-1,12,14,16,18,-1,20,22,-1,-1,-1,-1,-1,-1,-1,-1,-1,-1],"split_conditions":[-4.1033942E-1,1.0903047E0,-1.0007871E0,1.479176E0,1.2557701E0,-6.2234443E-2,5.823242E-1,1.1250223E0,-5.012655E-1,-9.893028E-2,-5.792889E-2,2.692619E-1,-2.2377029E-1,-6.5394424E-2,-1.0224188E-2,-5.2317467E-2,4.845002E-2,3.8194624E-3,7.413341E-2,9.259566E-3,-7.315215E-2,-1.24843E-2,3.819784E-2],"split_indices":[3,6,13,8,6,0,5,13,3,5,0,1,8,0,0,0,0,0,0,0,0,0,0],"split_type":[0,0,0,0,0,0,0,0,0,0,0,0,0,0,0,0,0,0,0,0,0,0,0],"sum_hessian":[4.374338E2,9.450704E1,3.429268E2,7.731337E1,1.7193676E1,1.8771425E1,3.2415533E2,6.469435E1,1.2619022E1,9.691395E0,7.50228E0,1.4170021E2,1.8245514E2,5.686644E1,7.8279076E0,7.096128E0,5.522894E0,5.011273E0,4.6801224E0,1.2584536E2,1.585485E1,1.857558E1,1.6387956E2],"tree_param":{"num_deleted":"0","num_feature":"16","num_nodes":"23","size_leaf_vector":"1"}},{"base_weights":[3.463126E-2,-9.294277E-1,2.2468285E-1,-6.0956534E-2,-4.2988747E-1,-3.3469594E-1,4.492019E-1,4.3853304E-1,-5.981238E-2,2.7306083E-1,-1.3284042E0,2.4850358E-1,8.361595E-1,-1.0539332E-2,6.2850595E-2,-6.0106453E-2,3.0422587E-2,4.5943153E-3,-7.658722E-2,3.407911E-2,-1.1136501E-2,5.090333E-3,4.8063617E-2],"categories":[],"categories_nodes":[],"categories_segments":[],"categories_sizes":[],"default_left":[0,0,0,0,0,0,0,0,0,0,0,0,0,0,0,0,0,0,0,0,0,0,0],"id":21,"left_children":[1,3,5,-1,7,9,11,13,-1,15,17,19,21,-1,-1,-1,-1,-1,-1,-1,-1,-1,-1],"loss_changes":[7.86847E1,9.449783E0,4.525157E1,0E0,1.9607527E1,6.3076843E1,1.9606255E1,8.026262E0,0E0,3.350049E1,1.1633301E1,3.512845E1,7.842491E0,0E0,0E0,0E0,0E0,0E0,0E0,0E0,0E0,0E0,0E0],"parents":[2147483647,0,0,1,1,2,2,4,4,5,5,6,6,7,7,9,9,10,10,11,11,12,12],"right_children":[2,4,6,-1,8,10,12,14,-1,16,18,20,22,-1,-1,-1,-1,-1,-1,-1,-1,-1,-1],"split_conditions":[-5.508086E-1,-1.1432391E-1,1.0389009E-1,-6.0956534E-2,-3.9613557E-1,-4.314288E-1,1.3725369E0,1.0857085E0,-5.981238E-2,-7.5124997E-1,-4.480213E-1,1.1920254E0,1.3276868E0,-1.0539332E-2,6.2850595E-2,-6.0106453E-2,3.0422587E-2,4.5943153E-3,-7.658722E-2,3.407911E-2,-1.1136501E-2,5.090333E-3,4.8063617E-2],"split_indices":[3,0,5,0,14,2,5,6,0,14,3,15,0,0,0,0,0,0,0,0,0,0,0],"split_type":[0,0,0,0,0,0,0,0,0,0,0,0,0,0,0,0,0,0,0,0,0,0,0],"sum_hessian":[4.2624286E2,6.9229996E1,3.5701288E2,4.2450523E1,2.6779474E1,1.02042534E2,2.5497034E2,1.2854607E1,1.3924869E1,6.3992332E1,3.8050205E1,1.6951399E2,8.545634E1,7.7890544E0,5.065552E0,1.113584E1,5.285649E1,4.868297E0,3.3181908E1,8.7984184E1,8.152981E1,1.2835955E1,7.2620384E1],"tree_param":{"num_deleted":"0","num_feature":"16","num_nodes":"23","size_leaf_vector":"1"}},{"base_weights":[-7.628716E-2,-2.8654483E-1,7.205536E-1,-6.0374923E-2,-1.5318547E-1,-1.9890006E-1,8.6412036E-1,1.20313734E-1,-6.077526E-1,4.6137333E-2,-9.639611E-1,-3.4582946E-1,1.0008214E0,-6.810775E-2,1.1827173E-2,-3.9917152E-2,5.5159982E-2,-8.518768E-2,7.235035E-3,-4.2274024E-2,1.805132E-2,5.9006095E-2,3.346261E-2],"categories":[],"categories_nodes":[],"categories_segments":[],"categories_sizes":[],"default_left":[0,0,0,0,0,0,0,0,0,0,0,0,0,0,0,0,0,0,0,0,0,0,0],"id":22,"left_children":[1,3,5,-1,7,9,11,13,15,-1,17,19,21,-1,-1,-1,-1,-1,-1,-1,-1,-1,-1],"loss_changes":[6.659374E1,3.8299934E1,1.1217228E1,0E0,3.4434216E1,1.2002653E1,1.2443256E1,3.0400696E1,3.5222008E1,0E0,7.0333896E0,3.4362257E0,2.6890335E0,0E0,0E0,0E0,0E0,0E0,0E0,0E0,0E0,0E0,0E0],"parents":[2147483647,0,0,1,1,2,2,4,4,5,5,6,6,7,7,8,8,10,10,11,11,12,12],"right_children":[2,4,6,-1,8,10,12,14,16,-1,18,20,22,-1,-1,-1,-1,-1,-1,-1,-1,-1,-1],"split_conditions":[1.3725369E0,-8.4329706E-1,1.3276868E0,-6.0374923E-2,1.1920254E0,1.0069764E0,4.038568E-2,-1.0147829E0,1.7765932E0,4.6137333E-2,1.1360859E0,3.4111416E-1,-4.497176E-2,-6.810775E-2,1.1827173E-2,-3.9917152E-2,5.5159982E-2,-8.518768E-2,7.235035E-3,-4.2274024E-2,1.805132E-2,5.9006095E-2,3.346261E-2],"split_indices":[5,10,0,0,15,10,8,6,10,0,8,6,6,0,0,0,0,0,0,0,0,0,0],"split_type":[0,0,0,0,0,0,0,0,0,0,0,0,0,0,0,0,0,0,0,0,0,0,0],"sum_hessian":[3.9412662E2,3.126026E2,8.152402E1,3.80127E1,2.745899E2,1.0932192E1,7.059183E1,1.7212845E2,1.0246146E2,4.3076444E0,6.624548E0,6.932963E0,6.3658863E1,1.1345201E1,1.6078325E2,9.2911705E1,9.54975E0,3.4903464E0,3.1342013E0,3.8894668E0,3.0434961E0,3.8824947E1,2.4833916E1],"tree_param":{"num_deleted":"0","num_feature":"16","num_nodes":"23","size_leaf_vector":"1"}},{"base_weights":[3.5693232E-2,-3.2550186E-1,5.5280846E-1,-6.386282E-2,-1.6221875E-1,-5.3041082E-2,6.275726E-1,-5.9362788E-2,2.9477132E-2,-1.466662E-1,7.188682E-1,1.3107744E-2,-4.7228783E-2,2.6259515E-2,-7.7897675E-2,2.0340025E-2,4.7419794E-2],"categories":[],"categories_nodes":[],"categories_segments":[],"categories_sizes":[],"default_left":[0,0,0,0,0,0,0,0,0,0,0,0,0,0,0,0,0],"id":23,"left_children":[1,3,5,-1,7,-1,9,-1,11,13,15,-1,-1,-1,-1,-1,-1],"loss_changes":[7.8742E1,3.827666E1,2.1909504E1,0E0,4.2035572E1,0E0,1.1934029E1,0E0,4.149784E1,1.9070568E1,1.0113892E1,0E0,0E0,0E0,0E0,0E0,0E0],"parents":[2147483647,0,0,1,1,2,2,4,4,6,6,8,8,9,9,10,10],"right_children":[2,4,6,-1,8,-1,10,-1,12,14,16,-1,-1,-1,-1,-1,-1],"split_conditions":[7.0765173E-1,-5.4848105E-1,-4.480213E-1,-6.386282E-2,-7.5124997E-1,-5.3041082E-2,-2.2377029E-1,-5.9362788E-2,3.3831412E-1,1.3694165E0,1.4997134E0,1.3107744E-2,-4.7228783E-2,2.6259515E-2,-7.7897675E-2,2.0340025E-2,4.7419794E-2],"split_indices":[5,13,3,0,14,0,8,0,13,14,0,0,0,0,0,0,0],"split_type":[0,0,0,0,0,0,0,0,0,0,0,0,0,0,0,0,0],"sum_hessian":[4.1863226E2,2.4680176E2,1.7183049E2,3.464241E1,2.1215935E2,6.732835E0,1.6509766E2,3.2198303E1,1.7996104E2,1.7318354E1,1.4777931E2,1.4614647E2,3.3814575E1,1.2370878E1,4.9474754E0,6.439112E1,8.338819E1],"tree_param":{"num_deleted":"0","num_feature":"16","num_nodes":"17","size_leaf_vector":"1"}},{"base_weights":[3.6165945E-2,-9.861208E-1,2.1517673E-1,-6.0271244E-2,-9.159161E-2,-5.9302237E-2,2.8991625E-1,3.489591E-2,-5.1605444E-2,4.0812917E-2,7.045741E-1,-6.9363825E-2,8.38654E-3,-7.152205E-3,4.3528263E-2],"categories":[],"categories_nodes":[],"categories_segments":[],"categories_sizes":[],"default_left":[0,0,0,0,0,0,0,0,0,0,0,0,0,0,0],"id":24,"left_children":[1,3,5,-1,7,-1,9,-1,-1,11,13,-1,-1,-1,-1],"loss_changes":[7.591796E1,1.1963516E1,3.746163E1,0E0,1.1325291E1,0E0,3.4676105E1,0E0,0E0,3.8696594E1,1.792199E1,0E0,0E0,0E0,0E0],"parents":[2147483647,0,0,1,1,2,2,4,4,6,6,9,9,10,10],"right_children":[2,4,6,-1,8,-1,10,-1,-1,12,14,-1,-1,-1,-1],"split_conditions":[-5.508086E-1,1.0857085E0,-1.0007871E0,-6.0271244E-2,1.2557701E0,-5.9302237E-2,5.598769E-1,3.489591E-2,-5.1605444E-2,-9.64224E-1,4.038568E-2,-6.9363825E-2,8.38654E-3,-7.152205E-3,4.3528263E-2],"split_indices":[3,6,13,0,6,0,12,0,0,6,8,0,0,0,0],"split_type":[0,0,0,0,0,0,0,0,0,0,0,0,0,0,0],"sum_hessian":[4.116122E2,6.0328403E1,3.512838E2,4.8031578E1,1.2296823E1,1.6658855E1,3.3462497E2,6.8954253E0,5.4013968E0,2.1007266E2,1.245523E2,1.593011E1,1.9414255E2,2.0430943E1,1.0412135E2],"tree_param":{"num_deleted":"0","num_feature":"16","num_nodes":"15","size_leaf_vector":"1"}},{"base_weights":[7.7744976E-2,-8.0468345E-1,2.55676E-1,-1.0609133E0,1.4119653E-1,-5.809754E-2,3.2768872E-1,-6.0338944E-2,-8.150123E-2,9.0999836E-1,-5.223784E-2,-6.27089E-2,3.8843477E-1,5.065049E-2,-4.623345E-2,9.248673E-3,7.011215E-2,-5.619649E-2,2.1832919E-2],"categories":[],"categories_nodes":[],"categories_segments":[],"categories_sizes":[],"default_left":[0,0,0,0,0,0,0,0,0,0,0,0,0,0,0,0,0,0,0],"id":25,"left_children":[1,3,5,7,9,-1,11,-1,13,15,-1,-1,17,-1,-1,-1,-1,-1,-1],"loss_changes":[6.586297E1,1.729224E1,3.6157898E1,7.7938194E0,1.6318981E1,0E0,3.272079E1,0E0,9.539309E0,3.433816E0,0E0,0E0,2.4201485E1,0E0,0E0,0E0,0E0,0E0,0E0],"parents":[2147483647,0,0,1,1,2,2,3,3,4,4,6,6,8,8,9,9,12,12],"right_children":[2,4,6,8,10,-1,12,-1,14,16,-1,-1,18,-1,-1,-1,-1,-1,-1],"split_conditions":[-5.083181E-1,1.0903047E0,-1.0007871E0,1.1250223E0,1.2557701E0,-5.809754E-2,-1.0803233E0,-6.0338944E-2,-1.4608951E-1,-9.893028E-2,-5.223784E-2,-6.27089E-2,-7.5124997E-1,5.065049E-2,-4.623345E-2,9.248673E-3,7.011215E-2,-5.619649E-2,2.1832919E-2],"split_indices":[3,6,13,13,6,0,8,0,6,5,0,0,14,0,0,0,0,0,0],"split_type":[0,0,0,0,0,0,0,0,0,0,0,0,0,0,0,0,0,0,0],"sum_hessian":[4.160134E2,6.89215E1,3.470919E2,5.408733E1,1.4834168E1,1.568173E1,3.3141016E2,4.677311E1,7.314221E0,9.211672E0,5.622496E0,1.1166177E1,3.20244E2,3.0512547E0,4.262966E0,4.5595675E0,4.6521044E0,8.86189E0,3.1138208E2],"tree_param":{"num_deleted":"0","num_feature":"16","num_nodes":"19","size_leaf_vector":"1"}},{"base_weights":[3.537809E-2,-6.715873E-1,2.8420204E-1,-8.600214E-1,2.668024E-1,-5.6746304E-2,3.5646427E-1,-1.178315E0,-2.6909873E-1,-5.0246477E-2,1.0155475E0,1.3110349E-1,6.597219E-1,-6.5038905E-2,-1.1297652E-3,3.5897564E-2,-6.801799E-2,6.720608E-2,9.717893E-3,2.7573863E-2,-2.7309677E-2,-4.0266165E-3,4.0949803E-2],"categories":[],"categories_nodes":[],"categories_segments":[],"categories_sizes":[],"default_left":[0,0,0,0,0,0,0,0,0,0,0,0,0,0,0,0,0,0,0,0,0,0,0],"id":26,"left_children":[1,3,5,7,9,-1,11,13,15,-1,17,19,21,-1,-1,-1,-1,-1,-1,-1,-1,-1,-1],"loss_changes":[7.056164E1,1.8813202E1,3.1017633E1,1.5951309E1,1.9252556E1,0E0,1.9233078E1,7.9268417E0,3.649154E1,0E0,2.9702263E0,4.7261547E1,1.4296078E1,0E0,0E0,0E0,0E0,0E0,0E0,0E0,0E0,0E0,0E0],"parents":[2147483647,0,0,1,1,2,2,3,3,4,4,6,6,7,7,8,8,10,10,11,11,12,12],"right_children":[2,4,6,8,10,-1,12,14,16,-1,18,20,22,-1,-1,-1,-1,-1,-1,-1,-1,-1,-1],"split_conditions":[-1.5787013E-1,8.062817E-1,-1.0280482E0,-3.9569405E-1,-8.193815E-1,-5.6746304E-2,5.598769E-1,-2.0315233E-1,-7.486088E-1,-5.0246477E-2,1.0196384E0,1.1920254E0,4.038568E-2,-6.5038905E-2,-1.1297652E-3,3.5897564E-2,-6.801799E-2,6.720608E-2,9.717893E-3,2.7573863E-2,-2.7309677E-2,-4.0266165E-3,4.0949803E-2],"split_indices":[5,8,13,0,0,0,2,5,10,0,8,15,8,0,0,0,0,0,0,0,0,0,0],"split_type":[0,0,0,0,0,0,0,0,0,0,0,0,0,0,0,0,0,0,0,0,0,0,0],"sum_hessian":[3.979962E2,1.0294825E2,2.9504794E2,8.583696E1,1.711129E1,1.3227134E1,2.818208E2,5.4818546E1,3.1018412E1,6.1508827E0,1.0960407E1,1.629074E2,1.189134E2,4.9396137E1,5.422411E0,1.6556305E1,1.4462108E1,7.145969E0,3.8144386E0,1.0069087E2,6.2216526E1,2.118659E1,9.772681E1],"tree_param":{"num_deleted":"0","num_feature":"16","num_nodes":"23","size_leaf_vector":"1"}},{"base_weights":[3.2735452E-2,-7.866995E-1,2.4739699E-1,-1.1530946E0,-2.9889295E-2,4.371297E-2,6.785665E-1,-6.34515E-2,2.9630376E-2,6.987379E-1,-6.279945E-2,4.2422748E-1,-4.6445847E-1,-7.711132E-1,8.167097E-1,-4.8472032E-2,7.684096E-2,-5.355099E-2,2.54275E-2,3.525661E-3,-7.176425E-2,2.127897E-2,-7.325545E-2,-3.1465136E-2,4.499263E-2],"categories":[],"categories_nodes":[],"categories_segments":[],"categories_sizes":[],"default_left":[0,0,0,0,0,0,0,0,0,0,0,0,0,0,0,0,0,0,0,0,0,0,0,0,0],"id":27,"left_children":[1,3,5,7,9,11,13,-1,-1,15,-1,17,19,21,23,-1,-1,-1,-1,-1,-1,-1,-1,-1,-1],"loss_changes":[7.1146126E1,2.3233849E1,2.8087795E1,1.257151E1,2.7164238E1,4.267398E1,2.1505848E1,0E0,0E0,2.8954634E1,0E0,1.6716743E1,4.9260696E1,8.994497E0,1.22067375E1,0E0,0E0,0E0,0E0,0E0,0E0,0E0,0E0,0E0,0E0],"parents":[2147483647,0,0,1,1,2,2,3,3,4,4,5,5,6,6,9,9,11,11,12,12,13,13,14,14],"right_children":[2,4,6,8,10,12,14,-1,-1,16,-1,18,20,22,24,-1,-1,-1,-1,-1,-1,-1,-1,-1,-1],"split_conditions":[-2.7714697E-1,-4.0345082E-1,1.4997134E0,-2.6250607E-1,-5.5036587E-1,1.1920254E0,-3.1364584E-1,-6.34515E-2,2.9630376E-2,-1.1686358E0,-6.279945E-2,-5.629612E-1,3.9129108E-1,6.064404E-1,-1.9284527E-1,-4.8472032E-2,7.684096E-2,-5.355099E-2,2.54275E-2,3.525661E-3,-7.176425E-2,2.127897E-2,-7.325545E-2,-3.1465136E-2,4.499263E-2],"split_indices":[5,0,0,10,5,15,8,0,0,8,0,3,8,4,3,0,0,0,0,0,0,0,0,0,0],"split_type":[0,0,0,0,0,0,0,0,0,0,0,0,0,0,0,0,0,0,0,0,0,0,0,0,0],"sum_hessian":[4.0130676E2,8.247496E1,3.188318E2,5.5042E1,2.7432962E1,2.1766104E2,1.0117076E2,5.199828E1,3.0437207E0,1.7611969E1,9.820993E0,1.2460536E2,9.305567E1,8.204061E0,9.2966705E1,5.810739E0,1.18012295E1,5.714843E0,1.18890526E2,6.0892212E1,3.2163456E1,3.2243326E0,4.979728E0,4.5190167E0,8.8447685E1],"tree_param":{"num_deleted":"0","num_feature":"16","num_nodes":"25","size_leaf_vector":"1"}},{"base_weights":[8.667496E-3,-6.7498755E-1,2.6340157E-1,-1.0930727E0,-2.8787935E-1,3.3711318E-2,8.3708346E-1,-6.121975E-2,-5.870027E-1,3.521311E-1,-7.532266E-1,-6.7515925E-2,1.3351353E-1,2.768573E-1,9.2065716E-1,-5.088237E-2,2.8101673E-2,4.4183116E-2,-2.941454E-2,-6.849987E-2,4.556379E-3,-5.6381345E-2,1.147747E-2,3.9744355E-2,-2.4756314E-2,1.9715898E-2,5.0097782E-2],"categories":[],"categories_nodes":[],"categories_segments":[],"categories_sizes":[],"default_left":[0,0,0,0,0,0,0,0,0,0,0,0,0,0,0,0,0,0,0,0,0,0,0,0,0,0,0],"id":28,"left_children":[1,3,5,7,9,11,13,-1,15,17,19,-1,21,23,25,-1,-1,-1,-1,-1,-1,-1,-1,-1,-1,-1,-1],"loss_changes":[6.652851E1,1.6312443E1,3.6626263E1,2.1998138E0,1.7041899E1,2.7934933E1,3.3398247E0,0E0,7.312138E0,1.3051068E1,1.7287182E1,0E0,2.3178926E1,5.5752783E0,2.339985E0,0E0,0E0,0E0,0E0,0E0,0E0,0E0,0E0,0E0,0E0,0E0,0E0],"parents":[2147483647,0,0,1,1,2,2,3,3,4,4,5,5,6,6,8,8,9,9,10,10,12,12,13,13,14,14],"right_children":[2,4,6,8,10,12,14,-1,16,18,20,-1,22,24,26,-1,-1,-1,-1,-1,-1,-1,-1,-1,-1,-1,-1],"split_conditions":[-2.9283488E-1,-4.5023093E-1,1.3725369E0,2.7600318E-1,-1.1090887E-1,-1.0147829E0,1.3276868E0,-6.121975E-2,-6.802751E-1,8.062817E-1,1.1250223E0,-6.7515925E-2,-9.2851293E-1,1.1920254E0,1.3729496E-1,-5.088237E-2,2.8101673E-2,4.4183116E-2,-2.941454E-2,-6.849987E-2,4.556379E-3,-5.6381345E-2,1.147747E-2,3.9744355E-2,-2.4756314E-2,1.9715898E-2,5.0097782E-2],"split_indices":[3,10,5,13,13,6,0,0,4,8,13,0,13,15,8,0,0,0,0,0,0,0,0,0,0,0,0],"split_type":[0,0,0,0,0,0,0,0,0,0,0,0,0,0,0,0,0,0,0,0,0,0,0,0,0,0,0],"sum_hessian":[3.7898657E2,1.02207504E2,2.7677905E2,4.782258E1,5.4384926E1,1.9877988E2,7.7999176E1,3.6279194E1,1.1543385E1,2.304928E1,3.1335644E1,1.2105747E1,1.8667413E2,1.0965098E1,6.703408E1,8.521246E0,3.022138E0,1.4783886E1,8.265395E0,1.7568598E1,1.3767045E1,1.2069198E1,1.7460493E2,6.5352197E0,4.4298787E0,1.0142871E1,5.6891205E1],"tree_param":{"num_deleted":"0","num_feature":"16","num_nodes":"27","size_leaf_vector":"1"}},{"base_weights":[6.334783E-3,-8.833695E-1,1.4967981E-1,-5.781315E-2,2.2979602E-1,-1.4961674E-2,7.071281E-1,7.1480066E-2,-4.8516747E-2,1.3993907E-1,-9.4884056E-1,2.2170637E-2,8.407327E-1,-6.3416295E-2,1.1775917E-2,-6.321915E-2,2.9390296E-2,4.163761E-2,-2.17579E-2,-1.52963875E-2,4.5704257E-2],"categories":[],"categories_nodes":[],"categories_segments":[],"categories_sizes":[],"default_left":[0,0,0,0,0,0,0,0,0,0,0,0,0,0,0,0,0,0,0,0,0],"id":29,"left_children":[1,3,5,-1,7,9,11,-1,-1,13,15,17,19,-1,-1,-1,-1,-1,-1,-1,-1],"loss_changes":[4.885062E1,1.6544712E1,3.0287489E1,0E0,1.8950977E1,3.7245693E1,6.857044E0,0E0,0E0,3.0190662E1,1.887473E1,5.666806E0,5.711231E0,0E0,0E0,0E0,0E0,0E0,0E0,0E0,0E0],"parents":[2147483647,0,0,1,1,2,2,4,4,5,5,6,6,9,9,10,10,11,11,12,12],"right_children":[2,4,6,-1,8,10,12,-1,-1,14,16,18,20,-1,-1,-1,-1,-1,-1,-1,-1],"split_conditions":[-5.508086E-1,1.1250223E0,1.3725369E0,-5.781315E-2,-5.6824915E-2,3.4607056E-1,1.3276868E0,7.1480066E-2,-4.8516747E-2,-1.0147829E0,1.4911824E0,1.0069764E0,-1.9284527E-1,-6.3416295E-2,1.1775917E-2,-6.321915E-2,2.9390296E-2,4.163761E-2,-2.17579E-2,-1.52963875E-2,4.5704257E-2],"split_indices":[3,13,5,0,5,13,1,0,0,6,3,10,3,0,0,0,0,0,0,0,0],"split_type":[0,0,0,0,0,0,0,0,0,0,0,0,0,0,0,0,0,0,0,0,0],"sum_hessian":[3.799828E2,5.165156E1,3.2833124E2,4.1435528E1,1.0216031E1,2.5459634E2,7.373489E1,4.9652863E0,5.2507453E0,2.194687E2,3.5127636E1,1.232036E1,6.141453E1,1.2778941E1,2.0668977E2,2.9363716E1,5.7639203E0,3.9997454E0,8.320615E0,3.4065576E0,5.8007973E1],"tree_param":{"num_deleted":"0","num_feature":"16","num_nodes":"21","size_leaf_vector":"1"}},{"base_weights":[2.0156253E-2,-1.7540956E-1,6.232969E-1,-5.133777E-1,1.798065E-1,-6.854867E-2,7.3496723E-1,-3.5909864E-1,-1.9238285E0,3.6531132E-1,-1.0309856E0,-3.7541085E-1,8.792156E-1,-6.40212E-2,-8.753428E-3,-4.029549E-2,-1.0686107E-1,-3.3470035E-2,2.9841406E-2,5.5502784E-3,-7.256865E-2,5.4440316E-2,-7.795539E-2,5.0551005E-2,-3.6008914E-3],"categories":[],"categories_nodes":[],"categories_segments":[],"categories_sizes":[],"default_left":[0,0,0,0,0,0,0,0,0,0,0,0,0,0,0,0,0,0,0,0,0,0,0,0,0],"id":30,"left_children":[1,3,5,7,9,-1,11,13,15,17,19,21,23,-1,-1,-1,-1,-1,-1,-1,-1,-1,-1,-1,-1],"loss_changes":[4.5030167E1,3.4762165E1,2.2326038E1,3.1208252E1,3.239773E1,0E0,1.4827923E1,2.2623486E1,8.196373E-1,3.0304993E1,9.469471E0,2.21999E1,1.0094898E1,0E0,0E0,0E0,0E0,0E0,0E0,0E0,0E0,0E0,0E0,0E0,0E0],"parents":[2147483647,0,0,1,1,2,2,3,3,4,4,6,6,7,7,8,8,9,9,10,10,11,11,12,12],"right_children":[2,4,6,8,10,-1,12,14,16,18,20,22,24,-1,-1,-1,-1,-1,-1,-1,-1,-1,-1,-1,-1],"split_conditions":[1.4997134E0,4.2844313E-1,-1.9284527E-1,1.0455123E0,4.7140643E-1,-6.854867E-2,1.0680833E0,-3.7008348E-1,-4.8474145E-1,-4.2215478E-1,-9.6401656E-1,1.0973449E0,1.7752683E0,-6.40212E-2,-8.753428E-3,-4.029549E-2,-1.0686107E-1,-3.3470035E-2,2.9841406E-2,5.5502784E-3,-7.256865E-2,5.4440316E-2,-7.795539E-2,5.0551005E-2,-3.6008914E-3],"split_indices":[1,6,3,10,13,0,10,13,3,10,2,14,3,0,0,0,0,0,0,0,0,0,0,0,0],"split_type":[0,0,0,0,0,0,0,0,0,0,0,0,0,0,0,0,0,0,0,0,0,0,0,0,0],"sum_hessian":[3.7887103E2,2.8690656E2,9.196448E1,1.4668045E2,1.402261E2,3.9795737E0,8.798491E1,1.3391441E2,1.2766038E1,1.2250466E2,1.7721443E1,9.839531E0,7.814538E1,2.0807507E1,1.1310691E2,3.1946952E0,9.571342E0,2.187998E1,1.0062468E2,5.0653176E0,1.2656125E1,4.4523187E0,5.3872123E0,6.855237E1,9.593008E0],"tree_param":{"num_deleted":"0","num_feature":"16","num_nodes":"25","size_leaf_vector":"1"}},{"base_weights":[4.3330736E-2,-2.762354E-1,4.622069E-1,-5.5833425E-2,-1.356409E-1,-4.9289223E-2,5.2693856E-1,1.3529828E-1,-8.45739E-1,-4.3604072E-2,5.618676E-1,1.4948884E-2,-6.385126E-2,-7.522678E-2,-4.3948493E-3,1.1568552E-2,3.7408404E-2],"categories":[],"categories_nodes":[],"categories_segments":[],"categories_sizes":[],"default_left":[0,0,0,0,0,0,0,0,0,0,0,0,0,0,0,0,0],"id":31,"left_children":[1,3,5,-1,7,-1,9,11,13,-1,15,-1,-1,-1,-1,-1,-1],"loss_changes":[5.1654255E1,2.5652115E1,1.6426342E1,0E0,3.6598988E1,0E0,8.591297E0,3.2552597E1,2.6011715E1,0E0,9.454338E0,0E0,0E0,0E0,0E0,0E0,0E0],"parents":[2147483647,0,0,1,1,2,2,4,4,6,6,7,7,8,8,10,10],"right_children":[2,4,6,-1,8,-1,10,12,14,-1,16,-1,-1,-1,-1,-1,-1],"split_conditions":[6.9333297E-1,-7.5124997E-1,-4.480213E-1,-5.5833425E-2,1.9577649E-1,-4.9289223E-2,-1.1186262E0,2.6192442E-1,5.9390855E-1,-4.3604072E-2,6.327524E-1,1.4948884E-2,-6.385126E-2,-7.522678E-2,-4.3948493E-3,1.1568552E-2,3.7408404E-2],"split_indices":[5,14,3,0,3,0,13,0,6,0,2,0,0,0,0,0,0],"split_type":[0,0,0,0,0,0,0,0,0,0,0,0,0,0,0,0,0],"sum_hessian":[3.8295587E2,2.1751875E2,1.6543712E2,2.9680944E1,1.8783781E2,6.1659946E0,1.5927112E2,1.3684033E2,5.0997475E1,3.0039115E0,1.5626721E2,1.2368812E2,1.3152212E1,2.649087E1,2.4506605E1,5.754515E1,9.872206E1],"tree_param":{"num_deleted":"0","num_feature":"16","num_nodes":"17","size_leaf_vector":"1"}},{"base_weights":[-7.385276E-2,-3.7341934E-1,3.4840852E-1,-1.7470078E-1,-9.555239E-1,-4.8549253E-2,4.1161928E-1,-6.844319E-1,2.3232499E-1,-4.5713612E-1,-7.006682E-2,-4.6698743E-1,4.919734E-1,-4.817327E-2,-3.2713301E-3,1.8760435E-2,-6.147283E-2,-6.30398E-2,6.6117155E-3,1.2675961E-2,-6.910546E-2,3.5782196E-2,6.595572E-3],"categories":[],"categories_nodes":[],"categories_segments":[],"categories_sizes":[],"default_left":[0,0,0,0,0,0,0,0,0,0,0,0,0,0,0,0,0,0,0,0,0,0,0],"id":32,"left_children":[1,3,5,7,9,-1,11,13,15,17,-1,19,21,-1,-1,-1,-1,-1,-1,-1,-1,-1,-1],"loss_changes":[4.558632E1,2.411531E1,1.3084236E1,3.319936E1,1.0875446E1,0E0,1.0504381E1,1.2154079E1,1.9375473E1,1.3218245E1,0E0,8.983679E0,1.0535656E1,0E0,0E0,0E0,0E0,0E0,0E0,0E0,0E0,0E0,0E0],"parents":[2147483647,0,0,1,1,2,2,3,3,4,4,6,6,7,7,8,8,9,9,11,11,12,12],"right_children":[2,4,6,8,10,-1,12,14,16,18,-1,20,22,-1,-1,-1,-1,-1,-1,-1,-1,-1,-1],"split_conditions":[7.0765173E-1,1.1920254E0,-4.480213E-1,-2.7714697E-1,-1.1090887E-1,-4.8549253E-2,-3.0426753E-1,-3.9569405E-1,2.716544E-1,2.5843158E-1,-7.006682E-2,7.5812054E-1,6.546655E-1,-4.817327E-2,-3.2713301E-3,1.8760435E-2,-6.147283E-2,-6.30398E-2,6.6117155E-3,1.2675961E-2,-6.910546E-2,3.5782196E-2,6.595572E-3],"split_indices":[5,15,3,5,13,0,8,0,13,8,0,2,8,0,0,0,0,0,0,0,0,0,0],"split_type":[0,0,0,0,0,0,0,0,0,0,0,0,0,0,0,0,0,0,0,0,0,0,0],"sum_hessian":[3.5733658E2,2.0913942E2,1.4819714E2,1.5736754E2,5.1771877E1,5.790517E0,1.4240663E2,6.941484E1,8.79527E1,2.5879013E1,2.5892862E1,1.1327898E1,1.3107874E2,4.727131E1,2.2143536E1,8.1136856E1,6.8158445E0,1.0226042E1,1.5652972E1,6.944615E0,4.3832827E0,7.993918E1,5.1139553E1],"tree_param":{"num_deleted":"0","num_feature":"16","num_nodes":"23","size_leaf_vector":"1"}},{"base_weights":[7.6913185E-2,-5.5024236E-2,1.7330542E-1,-6.01659E-2,2.463462E-1,-5.518026E-2,3.1521514E-1,5.7867E-2,1.2085378E-2],"categories":[],"categories_nodes":[],"categories_segments":[],"categories_sizes":[],"default_left":[0,0,0,0,0,0,0,0,0],"id":33,"left_children":[1,-1,3,-1,5,-1,7,-1,-1],"loss_changes":[4.392779E1,0E0,3.6313946E1,0E0,3.2131844E1,0E0,1.967809E1,0E0,0E0],"parents":[2147483647,0,0,2,2,4,4,6,6],"right_children":[2,-1,4,-1,6,-1,8,-1,-1],"split_conditions":[-7.5124997E-1,-5.5024236E-2,-1.0686004E0,-6.01659E-2,-1.0007871E0,-5.518026E-2,-9.162028E-1,5.7867E-2,1.2085378E-2],"split_indices":[14,0,8,0,13,0,8,0,0],"split_type":[0,0,0,0,0,0,0,0,0],"sum_hessian":[3.830355E2,2.7803253E1,3.5523224E2,1.6728718E1,3.385035E2,1.5336879E1,3.2316663E2,2.4168486E1,2.9899814E2],"tree_param":{"num_deleted":"0","num_feature":"16","num_nodes":"9","size_leaf_vector":"1"}},{"base_weights":[5.5836692E-2,-5.4818757E-2,1.476243E-1,-5.405117E-2,1.9973919E-1,-5.7956427E-2,2.4980456E-1,-5.55192E-2,1.4610337E-2],"categories":[],"categories_nodes":[],"categories_segments":[],"categories_sizes":[],"default_left":[0,0,0,0,0,0,0,0,0],"id":34,"left_children":[1,-1,3,-1,5,-1,7,-1,-1],"loss_changes":[3.9912502E1,0E0,2.2654133E1,0E0,2.3280758E1,0E0,1.9237904E1,0E0,0E0],"parents":[2147483647,0,0,2,2,4,4,6,6],"right_children":[2,-1,4,-1,6,-1,8,-1,-1],"split_conditions":[-8.466001E-1,-5.4818757E-2,-1.0007871E0,-5.405117E-2,-1.0982984E0,-5.7956427E-2,-9.719416E-1,-5.55192E-2,1.4610337E-2],"split_indices":[10,0,13,0,8,0,2,0,0],"split_type":[0,0,0,0,0,0,0,0,0],"sum_hessian":[3.7359634E2,2.635422E1,3.4724213E2,1.2924428E1,3.343177E2,1.0698977E1,3.236187E2,8.641273E0,3.1497745E2],"tree_param":{"num_deleted":"0","num_feature":"16","num_nodes":"9","size_leaf_vector":"1"}},{"base_weights":[6.653439E-2,-9.423299E-1,1.7727824E-1,-5.6472715E-2,5.8761006E-3,-5.3352E-2,2.3278493E-1,2.7378738E-1,-1.0458672E0,3.2061979E-3,2.5785862E-2,-6.835979E-2,-8.806794E-3],"categories":[],"categories_nodes":[],"categories_segments":[],"categories_sizes":[],"default_left":[0,0,0,0,0,0,0,0,0,0,0,0,0],"id":35,"left_children":[1,3,5,-1,-1,-1,7,9,11,-1,-1,-1,-1],"loss_changes":[4.3091743E1,7.7682915E0,2.4324284E1,0E0,0E0,0E0,1.7898848E1,1.6387087E1,2.6190853E0,0E0,0E0,0E0,0E0],"parents":[2147483647,0,0,1,1,2,2,6,6,7,7,8,8],"right_children":[2,4,6,-1,-1,-1,8,10,12,-1,-1,-1,-1],"split_conditions":[-7.0060706E-1,-2.0315233E-1,-1.0007871E0,-5.6472715E-2,5.8761006E-3,-5.3352E-2,1.5912971E0,4.0546182E-1,9.45424E-1,3.2061979E-3,2.5785862E-2,-6.835979E-2,-8.806794E-3],"split_indices":[14,5,13,0,0,0,6,6,13,0,0,0,0],"split_type":[0,0,0,0,0,0,0,0,0,0,0,0,0],"sum_hessian":[3.8195013E2,3.666573E1,3.452844E2,3.1079853E1,5.5858765E0,1.357744E1,3.3170697E2,3.2254282E2,9.164141E0,1.7381085E2,1.4873198E2,6.0653057E0,3.0988348E0],"tree_param":{"num_deleted":"0","num_feature":"16","num_nodes":"13","size_leaf_vector":"1"}},{"base_weights":[1.0277623E-2,-2.9874337E-1,3.568927E-1,-5.436675E-2,-1.6725461E-1,-4.9676057E-2,4.2025286E-1,1.0747992E0,-2.8295442E-1,-4.277234E-2,4.5467335E-1,1.0896056E-2,6.683418E-2,3.693351E-2,-1.9546513E-2,2.469649E-2,-3.1280912E-2],"categories":[],"categories_nodes":[],"categories_segments":[],"categories_sizes":[],"default_left":[0,0,0,0,0,0,0,0,0,0,0,0,0,0,0,0,0],"id":36,"left_children":[1,3,5,-1,7,-1,9,11,13,-1,15,-1,-1,-1,-1,-1,-1],"loss_changes":[3.8285004E1,1.932382E1,1.5039122E1,0E0,2.3988602E1,0E0,7.694811E0,2.7645798E0,1.7088734E1,0E0,7.1927757E0,0E0,0E0,0E0,0E0,0E0,0E0],"parents":[2147483647,0,0,1,1,2,2,4,4,6,6,7,7,8,8,10,10],"right_children":[2,4,6,-1,8,-1,10,12,14,-1,16,-1,-1,-1,-1,-1,-1],"split_conditions":[5.431998E-1,-8.4329706E-1,-4.480213E-1,-5.436675E-2,-8.201755E-1,-4.9676057E-2,-1.1186262E0,-3.4115395E-1,-8.103968E-1,-4.277234E-2,1.5581101E0,1.0896056E-2,6.683418E-2,3.693351E-2,-1.9546513E-2,2.469649E-2,-3.1280912E-2],"split_indices":[5,10,3,0,10,0,13,3,0,0,8,0,0,0,0,0,0],"split_type":[0,0,0,0,0,0,0,0,0,0,0,0,0,0,0,0,0],"sum_hessian":[3.5443875E2,1.8749065E2,1.6694812E2,2.5235992E1,1.6225465E2,6.4951086E0,1.60453E2,1.276681E1,1.4948784E2,3.2755256E0,1.5717749E2,3.6318154E0,9.134995E0,1.3451685E1,1.3603616E2,1.5245175E2,4.725732E0],"tree_param":{"num_deleted":"0","num_feature":"16","num_nodes":"17","size_leaf_vector":"1"}},{"base_weights":[-3.766725E-2,-8.045317E-1,7.48234E-2,-5.429637E-2,-3.7869853E-1,-5.7866156E-2,1.2604766E-1,4.1655383E-1,-5.184861E-2,1.7748104E-1,-1.1371098E0,4.6997186E-2,-2.284643E-4,-3.993178E-3,2.3870483E-2,-7.0919156E-2,-1.3269705E-2],"categories":[],"categories_nodes":[],"categories_segments":[],"categories_sizes":[],"default_left":[0,0,0,0,0,0,0,0,0,0,0,0,0,0,0,0,0],"id":37,"left_children":[1,3,5,-1,7,-1,9,11,-1,13,15,-1,-1,-1,-1,-1,-1],"loss_changes":[3.017502E1,4.7443275E0,1.9501102E1,0E0,1.1172717E1,0E0,1.944668E1,2.2491834E0,0E0,2.2011234E1,2.311758E0,0E0,0E0,0E0,0E0,0E0,0E0],"parents":[2147483647,0,0,1,1,2,2,4,4,6,6,7,7,9,9,10,10],"right_children":[2,4,6,-1,8,-1,10,12,-1,14,16,-1,-1,-1,-1,-1,-1],"split_conditions":[-5.508086E-1,-1.1432391E-1,-1.0803233E0,-5.429637E-2,-3.9613557E-1,-5.7866156E-2,1.4947758E0,-2.5639978E-1,-5.184861E-2,4.0546182E-1,6.2669253E-1,4.6997186E-2,-2.284643E-4,-3.993178E-3,2.3870483E-2,-7.0919156E-2,-1.3269705E-2],"split_indices":[3,0,8,0,14,0,6,6,0,6,4,0,0,0,0,0,0],"split_type":[0,0,0,0,0,0,0,0,0,0,0,0,0,0,0,0,0],"sum_hessian":[3.472474E2,4.324081E1,3.040066E2,2.4635914E1,1.8604895E1,1.0841263E1,2.931653E2,8.675243E0,9.929651E0,2.8293402E2,1.0231301E1,3.0440183E0,5.631225E0,1.5286955E2,1.3006447E2,7.024164E0,3.207137E0],"tree_param":{"num_deleted":"0","num_feature":"16","num_nodes":"17","size_leaf_vector":"1"}},{"base_weights":[5.2359454E-2,-5.4313846E-2,1.4621237E-1,-5.433712E-2,2.1345893E-1,-5.7231616E-2,2.7683893E-1,5.370753E-2,1.0612503E-2],"categories":[],"categories_nodes":[],"categories_segments":[],"categories_sizes":[],"default_left":[0,0,0,0,0,0,0,0,0],"id":38,"left_children":[1,-1,3,-1,5,-1,7,-1,-1],"loss_changes":[3.8929577E1,0E0,2.8190779E1,0E0,2.799353E1,0E0,1.5449751E1,0E0,0E0],"parents":[2147483647,0,0,2,2,4,4,6,6],"right_children":[2,-1,4,-1,6,-1,8,-1,-1],"split_conditions":[-7.4876404E-1,-5.4313846E-2,-9.2851293E-1,-5.433712E-2,-1.0803233E0,-5.7231616E-2,-9.162028E-1,5.370753E-2,1.0612503E-2],"split_indices":[4,0,13,0,8,0,8,0,0],"split_type":[0,0,0,0,0,0,0,0,0],"sum_hessian":[3.605603E2,2.62485E1,3.343118E2,1.6114485E1,3.181973E2,1.3046673E1,3.0515063E2,2.1110323E1,2.840403E2],"tree_param":{"num_deleted":"0","num_feature":"16","num_nodes":"9","size_leaf_vector":"1"}},{"base_weights":[-4.2879847E-3,-9.477188E-1,1.2414697E-1,-5.5253267E-2,-1.00612484E-1,-5.7210226E-2,2.0281616E-1,3.6353644E-2,-4.0821653E-2,-5.4389235E-2,2.4531454E-1,1.3738773E-2,-6.63216E-2],"categories":[],"categories_nodes":[],"categories_segments":[],"categories_sizes":[],"default_left":[0,0,0,0,0,0,0,0,0,0,0,0,0],"id":39,"left_children":[1,3,5,-1,7,-1,9,-1,-1,-1,11,-1,-1],"loss_changes":[4.0986732E1,5.2355347E0,3.0059868E1,0E0,5.629817E0,0E0,1.5848656E1,0E0,0E0,0E0,1.3229706E1,0E0,0E0],"parents":[2147483647,0,0,1,1,2,2,4,4,6,6,10,10],"right_children":[2,4,6,-1,8,-1,10,-1,-1,-1,12,-1,-1],"split_conditions":[-5.508086E-1,1.2254987E0,-8.1904685E-1,-5.5253267E-2,1.4590349E0,-5.7210226E-2,-1.0803233E0,3.6353644E-2,-4.0821653E-2,-5.4389235E-2,1.8371152E0,1.3738773E-2,-6.63216E-2],"split_indices":[3,13,13,0,13,0,8,0,0,0,8,0,0],"split_type":[0,0,0,0,0,0,0,0,0,0,0,0,0],"sum_hessian":[3.3530298E2,3.9030724E1,2.9627228E2,3.2531376E1,6.4993486E0,1.6116455E1,2.8015582E2,3.0032208E0,3.4961278E0,7.75504E0,2.7240076E2,2.6860382E2,3.7969608E0],"tree_param":{"num_deleted":"0","num_feature":"16","num_nodes":"13","size_leaf_vector":"1"}},{"base_weights":[6.449058E-2,-8.615043E-2,6.6791E-1,-6.190423E-2,-7.708472E-4,1.7299397E-1,8.156771E-1,-5.1785894E-2,8.024069E-2,-7.5243406E-2,7.283241E-1,2.563894E-4,9.079452E-1,3.256866E-2,-8.124623E-3,4.9284883E-2,2.5409197E-2,4.524703E-3,4.893487E-2],"categories":[],"categories_nodes":[],"categories_segments":[],"categories_sizes":[],"default_left":[0,0,0,0,0,0,0,0,0,0,0,0,0,0,0,0,0,0,0],"id":40,"left_children":[1,3,5,-1,7,9,11,-1,13,-1,15,-1,17,-1,-1,-1,-1,-1,-1],"loss_changes":[3.260803E1,2.82875E1,5.027931E0,0E0,2.2702122E1,1.8766788E1,4.089054E0,0E0,3.497329E1,0E0,8.817005E-2,0E0,2.710556E0,0E0,0E0,0E0,0E0,0E0,0E0],"parents":[2147483647,0,0,1,1,2,2,4,4,5,5,6,6,8,8,10,10,12,12],"right_children":[2,4,6,-1,8,10,12,-1,14,-1,16,-1,18,-1,-1,-1,-1,-1,-1],"split_conditions":[1.3725369E0,-1.0147829E0,3.3104452E-1,-6.190423E-2,-7.913232E-1,1.8943755E-1,1.3063632E0,-5.1785894E-2,-4.1236183E-1,-7.5243406E-2,1.1492212E0,2.563894E-4,-1.4540048E-1,3.256866E-2,-8.124623E-3,4.9284883E-2,2.5409197E-2,4.524703E-3,4.893487E-2],"split_indices":[5,6,13,0,4,6,0,0,2,0,0,0,3,0,0,0,0,0,0],"split_type":[0,0,0,0,0,0,0,0,0,0,0,0,0,0,0,0,0,0,0],"sum_hessian":[3.5627585E2,2.8613046E2,7.014537E1,1.8346716E1,2.6778375E2,1.6876625E1,5.326875E1,1.8156155E1,2.496276E2,3.558937E0,1.3317687E1,5.6058955E0,4.7662853E1,7.3697586E1,1.7593002E2,3.734807E0,9.582881E0,4.0690203E0,4.359383E1],"tree_param":{"num_deleted":"0","num_feature":"16","num_nodes":"19","size_leaf_vector":"1"}},{"base_weights":[3.030834E-2,-9.049219E-1,1.4285643E-1,-2.0933692E-1,-5.5043776E-2,-1.5486588E-1,3.745964E-1,-4.425184E-2,4.520079E-2,-3.9669976E-2,-8.784648E-2,4.459937E-1,-9.4184434E-1,-1.4284936E-2,3.0925198E-2,1.4883916E-2,5.26112E-2,-5.931273E-2,-1.3657211E-2],"categories":[],"categories_nodes":[],"categories_segments":[],"categories_sizes":[],"default_left":[0,0,0,0,0,0,0,0,0,0,0,0,0,0,0,0,0,0,0],"id":41,"left_children":[1,3,5,7,-1,9,11,-1,-1,13,-1,15,17,-1,-1,-1,-1,-1,-1],"loss_changes":[3.6869087E1,4.783579E0,2.1633793E1,8.815827E0,0E0,2.5317558E1,1.7176853E1,0E0,0E0,2.1323227E1,0E0,1.4636379E1,1.0729675E0,0E0,0E0,0E0,0E0,0E0,0E0],"parents":[2147483647,0,0,1,1,2,2,3,3,5,5,6,6,9,9,11,11,12,12],"right_children":[2,4,6,8,-1,10,12,-1,-1,14,-1,16,18,-1,-1,-1,-1,-1,-1],"split_conditions":[-5.508086E-1,-6.0571563E-1,1.8943755E-1,-7.0683336E-1,-5.5043776E-2,1.1181108E0,1.5912971E0,-4.425184E-2,4.520079E-2,1.2315856E0,-8.784648E-2,1.1360859E0,1.1523118E0,-1.4284936E-2,3.0925198E-2,1.4883916E-2,5.26112E-2,-5.931273E-2,-1.3657211E-2],"split_indices":[3,6,6,6,0,8,6,0,0,10,0,8,10,0,0,0,0,0,0],"split_type":[0,0,0,0,0,0,0,0,0,0,0,0,0,0,0,0,0,0,0],"sum_hessian":[3.4693002E2,3.613145E1,3.1079855E2,8.623322E0,2.750813E1,1.3625099E2,1.7454758E2,5.5578423E0,3.0654788E0,1.2854514E2,7.705857E0,1.6650877E2,8.038802E0,9.418659E1,3.4358543E1,1.3557632E2,3.0932455E1,5.0368676E0,3.001934E0],"tree_param":{"num_deleted":"0","num_feature":"16","num_nodes":"19","size_leaf_vector":"1"}},{"base_weights":[3.5418503E-2,-5.463474E-2,1.0077636E-1,-5.0617058E-2,1.5703131E-1,2.0689505E-1,-1.1192684E0,-5.0867904E-2,1.28978165E-2,-6.726693E-2,-1.4447051E-2],"categories":[],"categories_nodes":[],"categories_segments":[],"categories_sizes":[],"default_left":[0,0,0,0,0,0,0,0,0,0,0],"id":42,"left_children":[1,-1,3,-1,5,7,9,-1,-1,-1,-1],"loss_changes":[2.5848202E1,0E0,2.0942057E1,0E0,2.0459482E1,1.948528E1,1.6913376E0,0E0,0E0,0E0,0E0],"parents":[2147483647,0,0,2,2,4,4,5,5,6,6],"right_children":[2,-1,4,-1,6,8,10,-1,-1,-1,-1],"split_conditions":[-1.0803233E0,-5.463474E-2,-7.913232E-1,-5.0617058E-2,1.4947758E0,-1.0007871E0,1.2227774E0,-5.0867904E-2,1.28978165E-2,-6.726693E-2,-1.4447051E-2],"split_indices":[8,0,4,0,6,13,10,0,0,0,0],"split_type":[0,0,0,0,0,0,0,0,0,0,0],"sum_hessian":[3.4683386E2,1.7702408E1,3.2913144E2,1.4607105E1,3.1452435E2,3.039078E2,1.0616527E1,1.103138E1,2.9287643E2,7.613303E0,3.003223E0],"tree_param":{"num_deleted":"0","num_feature":"16","num_nodes":"11","size_leaf_vector":"1"}},{"base_weights":[-1.2594144E-2,-3.0009246E-1,3.0260617E-1,-5.400898E-1,1.9680367E-1,3.530047E-1,-7.412781E-2,3.2874927E-2,-8.737639E-1,-6.0115356E-2,4.9610585E-1,-4.8535768E-2,4.131456E-1,-5.2932706E-2,2.676903E-2,-2.1712398E-2,-6.305599E-2,4.023966E-2,-3.4654934E-2,1.4418549E-2,4.951658E-2],"categories":[],"categories_nodes":[],"categories_segments":[],"categories_sizes":[],"default_left":[0,0,0,0,0,0,0,0,0,0,0,0,0,0,0,0,0,0,0,0,0],"id":43,"left_children":[1,3,5,7,9,11,-1,13,15,-1,17,-1,19,-1,-1,-1,-1,-1,-1,-1,-1],"loss_changes":[3.1105597E1,2.156345E1,1.5519218E1,2.3258144E1,2.5833702E1,1.3377634E1,0E0,2.6155373E1,1.2252453E1,0E0,1.9235975E1,0E0,1.0702852E1,0E0,0E0,0E0,0E0,0E0,0E0,0E0,0E0],"parents":[2147483647,0,0,1,1,2,2,3,3,4,4,5,5,7,7,8,8,10,10,12,12],"right_children":[2,4,6,8,10,12,-1,14,16,-1,18,-1,20,-1,-1,-1,-1,-1,-1,-1,-1],"split_conditions":[5.431998E-1,7.685665E-1,1.5581101E0,-7.067537E-1,-4.2215478E-1,-4.480213E-1,-7.412781E-2,-1.0686004E0,-2.663439E-1,-6.0115356E-2,1.2557701E0,-4.8535768E-2,1.8955753E0,-5.2932706E-2,2.676903E-2,-2.1712398E-2,-6.305599E-2,4.023966E-2,-3.4654934E-2,1.4418549E-2,4.951658E-2],"split_indices":[5,6,8,8,10,3,0,8,3,0,6,0,5,0,0,0,0,0,0,0,0],"split_type":[0,0,0,0,0,0,0,0,0,0,0,0,0,0,0,0,0,0,0,0,0],"sum_hessian":[3.4025165E2,1.7798296E2,1.6226869E2,1.1992813E2,5.805483E1,1.5898366E2,3.285026E0,4.4635315E1,7.5292816E1,9.433176E0,4.8621655E1,5.922243E0,1.5306142E2,1.3547558E1,3.1087757E1,3.676207E1,3.8530743E1,3.89866E1,9.635054E0,1.2770409E2,2.535733E1],"tree_param":{"num_deleted":"0","num_feature":"16","num_nodes":"21","size_leaf_vector":"1"}},{"base_weights":[-3.729102E-2,-6.3812804E-1,1.2978983E-1,-1.0897856E0,1.6725859E-1,8.7599427E-1,-1.2447311E-2,-4.4775498E-1,-6.4176016E-2,-4.9539752E-2,5.102282E-1,-5.0114777E-2,1.1021873E0,-6.3860327E-1,2.4943492E-1,-4.9331065E-2,4.3985162E-2,6.339221E-2,-3.2782633E-2,7.258562E-3,6.1162647E-2,3.997263E-2,-4.1148506E-2,-4.7682498E-2,1.527629E-2],"categories":[],"categories_nodes":[],"categories_segments":[],"categories_sizes":[],"default_left":[0,0,0,0,0,0,0,0,0,0,0,0,0,0,0,0,0,0,0,0,0,0,0,0,0],"id":44,"left_children":[1,3,5,7,9,11,13,15,-1,-1,17,-1,19,21,23,-1,-1,-1,-1,-1,-1,-1,-1,-1,-1],"loss_changes":[3.2730854E1,2.6072432E1,2.7122025E1,4.814831E0,1.1396006E1,1.9036613E1,3.5654236E1,1.051757E1,0E0,0E0,2.0373362E1,0E0,4.0465355E0,1.7984928E1,1.0786255E1,0E0,0E0,0E0,0E0,0E0,0E0,0E0,0E0,0E0,0E0],"parents":[2147483647,0,0,1,1,2,2,3,3,4,4,5,5,6,6,7,7,10,10,12,12,13,13,14,14],"right_children":[2,4,6,8,10,12,14,16,-1,-1,18,-1,20,22,24,-1,-1,-1,-1,-1,-1,-1,-1,-1,-1],"split_conditions":[-4.53534E-1,-3.7278312E-1,-3.5640106E-1,-9.6401656E-1,-2.9843032E-1,-4.4982204E-1,5.431998E-1,-6.698855E-1,-6.4176016E-2,-4.9539752E-2,-1.280604E-1,-5.0114777E-2,-7.281081E-1,-8.874563E-1,-4.480213E-1,-4.9331065E-2,4.3985162E-2,6.339221E-2,-3.2782633E-2,7.258562E-3,6.1162647E-2,3.997263E-2,-4.1148506E-2,-4.7682498E-2,1.527629E-2],"split_indices":[10,0,0,2,3,13,5,10,0,0,3,0,4,2,3,0,0,0,0,0,0,0,0,0,0],"split_type":[0,0,0,0,0,0,0,0,0,0,0,0,0,0,0,0,0,0,0,0,0,0,0,0,0],"sum_hessian":[3.2330478E2,6.942339E1,2.5388138E2,4.4140118E1,2.5283276E1,3.94069E1,2.1447449E2,1.1383234E1,3.2756886E1,5.129606E0,2.015367E1,3.6823351E0,3.5724564E1,6.261214E1,1.5186234E2,8.370475E0,3.0127592E0,1.2136145E1,8.017525E0,4.3822E0,3.1342363E1,6.546366E0,5.6065777E1,5.695592E0,1.4616675E2],"tree_param":{"num_deleted":"0","num_feature":"16","num_nodes":"25","size_leaf_vector":"1"}},{"base_weights":[-1.8565955E-2,-1.5263242E-1,5.32972E-1,6.529167E-3,-8.602898E-1,-2.3579597E-2,6.1035585E-1,7.0246205E-2,-6.741544E-2,-3.802631E-1,-1.3389938E0,7.1572554E-1,-1.5312152E-2,-4.9648695E-2,7.5480365E-3,-5.669358E-2,2.490312E-2,-7.923269E-2,9.811321E-3,5.765806E-3,4.231384E-2],"categories":[],"categories_nodes":[],"categories_segments":[],"categories_sizes":[],"default_left":[0,0,0,0,0,0,0,0,0,0,0,0,0,0,0,0,0,0,0,0,0],"id":45,"left_children":[1,3,5,7,9,-1,11,13,-1,15,17,19,-1,-1,-1,-1,-1,-1,-1,-1,-1],"loss_changes":[2.4296976E1,2.9763046E1,5.4275837E0,1.8888483E1,1.0385265E1,0E0,6.1548843E0,1.8146025E1,0E0,1.8269033E1,9.403786E0,4.1297054E0,0E0,0E0,0E0,0E0,0E0,0E0,0E0,0E0,0E0],"parents":[2147483647,0,0,1,1,2,2,3,3,4,4,6,6,7,7,9,9,10,10,11,11],"right_children":[2,4,6,8,10,-1,12,14,-1,16,18,20,-1,-1,-1,-1,-1,-1,-1,-1,-1],"split_conditions":[1.3725369E0,3.4607056E-1,-3.2101613E-1,1.6735094E0,-5.5290747E-1,-2.3579597E-2,1.971679E0,-7.5124997E-1,-6.741544E-2,1.2023606E-1,1.3050753E0,1.3276868E0,-1.5312152E-2,-4.9648695E-2,7.5480365E-3,-5.669358E-2,2.490312E-2,-7.923269E-2,9.811321E-3,5.765806E-3,4.231384E-2],"split_indices":[5,13,3,2,2,0,2,14,0,0,3,0,0,0,0,0,0,0,0,0,0],"split_type":[0,0,0,0,0,0,0,0,0,0,0,0,0,0,0,0,0,0,0,0,0],"sum_hessian":[3.2544156E2,2.6267584E2,6.27657E1,2.1565771E2,4.7018135E1,3.9426484E0,5.882305E1,2.0732939E2,8.328322E0,2.4820545E1,2.219759E1,5.3052956E1,5.770096E0,1.3432676E1,1.9389671E2,1.3123815E1,1.1696732E1,1.909395E1,3.103641E0,9.979919E0,4.3073036E1],"tree_param":{"num_deleted":"0","num_feature":"16","num_nodes":"21","size_leaf_vector":"1"}},{"base_weights":[-6.7995414E-3,-5.2010592E-2,6.6285215E-2,1.293655E-1,-9.8589885E-1,-5.2678853E-2,1.7948611E-1,-6.971333E-2,1.1943988E-2,5.2803066E-2,4.8344033E-3],"categories":[],"categories_nodes":[],"categories_segments":[],"categories_sizes":[],"default_left":[0,0,0,0,0,0,0,0,0,0,0],"id":46,"left_children":[1,-1,3,5,7,-1,9,-1,-1,-1,-1],"loss_changes":[2.4788422E1,0E0,2.0544994E1,1.751572E1,9.261877E0,0E0,2.0176807E1,0E0,0E0,0E0,0E0],"parents":[2147483647,0,0,2,2,3,3,4,4,6,6],"right_children":[2,-1,4,6,8,-1,10,-1,-1,-1,-1],"split_conditions":[-7.4876404E-1,-5.2010592E-2,1.2557701E0,-1.0803233E0,1.1181108E0,-5.2678853E-2,-9.162028E-1,-6.971333E-2,1.1943988E-2,5.2803066E-2,4.8344033E-3],"split_indices":[4,0,6,8,8,0,8,0,0,0,0],"split_type":[0,0,0,0,0,0,0,0,0,0,0],"sum_hessian":[3.25338E2,2.0177694E1,3.051603E2,2.8914136E2,1.6018959E1,1.0532108E1,2.7860925E2,1.1857753E1,4.1612062E0,2.2523464E1,2.560858E2],"tree_param":{"num_deleted":"0","num_feature":"16","num_nodes":"11","size_leaf_vector":"1"}},{"base_weights":[-1.4139646E-3,-2.2413848E-1,3.160433E-1,-4.4251627E-1,1.992922E-1,-3.2042333E-1,4.0732446E-1,-4.5504298E-2,-1.0312148E0,-6.0854267E-2,4.772933E-1,-7.98042E-2,5.247379E-1,8.1809646E-1,2.0263523E-1,-3.6588356E-2,3.3066414E-2,1.7396985E-2,-6.2464196E-2,4.1019768E-2,-2.8233517E-2,5.047477E-2,-2.0850714E-2,4.9466904E-2,1.8354563E-2,-4.3402154E-2,3.1367477E-2],"categories":[],"categories_nodes":[],"categories_segments":[],"categories_sizes":[],"default_left":[0,0,0,0,0,0,0,0,0,0,0,0,0,0,0,0,0,0,0,0,0,0,0,0,0,0,0],"id":47,"left_children":[1,3,5,7,9,11,13,15,17,-1,19,-1,21,23,25,-1,-1,-1,-1,-1,-1,-1,-1,-1,-1,-1,-1],"loss_changes":[2.3156166E1,1.7928879E1,8.041033E0,2.9715448E1,2.7064041E1,2.0422485E1,9.736677E0,3.840728E1,1.6068596E1,0E0,2.0959267E1,0E0,6.0283136E0,2.4674587E0,3.7766697E1,0E0,0E0,0E0,0E0,0E0,0E0,0E0,0E0,0E0,0E0,0E0,0E0],"parents":[2147483647,0,0,1,1,2,2,3,3,4,4,5,5,6,6,7,7,8,8,10,10,12,12,13,13,14,14],"right_children":[2,4,6,8,10,12,14,16,18,-1,20,-1,22,24,26,-1,-1,-1,-1,-1,-1,-1,-1,-1,-1,-1,-1],"split_conditions":[7.0765173E-1,7.5018144E-1,-2.2377029E-1,-4.3867016E-1,-4.2215478E-1,4.2844313E-1,1.0455123E0,-4.0345082E-1,-5.804489E-1,-6.0854267E-2,1.200615E0,-7.98042E-2,7.639702E-1,1.0415534E0,1.4997134E0,-3.6588356E-2,3.3066414E-2,1.7396985E-2,-6.2464196E-2,4.1019768E-2,-2.8233517E-2,5.047477E-2,-2.0850714E-2,4.9466904E-2,1.8354563E-2,-4.3402154E-2,3.1367477E-2],"split_indices":[5,6,8,10,10,6,10,0,0,0,6,0,6,5,0,0,0,0,0,0,0,0,0,0,0,0,0],"split_type":[0,0,0,0,0,0,0,0,0,0,0,0,0,0,0,0,0,0,0,0,0,0,0,0,0,0,0],"sum_hessian":[3.2449875E2,1.9096251E2,1.3353625E2,1.2594218E2,6.502033E1,1.6277111E1,1.1725914E2,7.618188E1,4.9760296E1,9.836702E0,5.5183628E1,5.955427E0,1.0321684E1,3.7502888E1,7.9756256E1,3.8626526E1,3.7555355E1,6.6718154E0,4.308848E1,4.175375E1,1.3429877E1,6.742929E0,3.578755E0,2.5884418E1,1.161847E1,2.2207298E1,5.7548954E1],"tree_param":{"num_deleted":"0","num_feature":"16","num_nodes":"27","size_leaf_vector":"1"}},{"base_weights":[2.5493953E-2,-5.1585245E-1,1.4472826E-1,-8.7726295E-1,8.291098E-2,6.39672E-2,8.3452255E-1,-5.997282E-2,2.502256E-2,8.149014E-1,-5.819651E-2,5.884483E-1,-6.22983E-2,8.270255E-3,9.6350557E-1,5.6699432E-2,2.6681742E-3,3.9586086E-2,-5.2675497E-2,-4.6530325E-2,5.5878586E-3,5.413146E-2,1.0473432E-2],"categories":[],"categories_nodes":[],"categories_segments":[],"categories_sizes":[],"default_left":[0,0,0,0,0,0,0,0,0,0,0,0,0,0,0,0,0,0,0,0,0,0,0],"id":48,"left_children":[1,3,5,7,9,11,13,-1,-1,15,-1,17,19,-1,21,-1,-1,-1,-1,-1,-1,-1,-1],"loss_changes":[2.1126839E1,1.28971195E1,1.4848671E1,1.7315823E1,2.2974396E1,1.604921E1,2.1742153E0,0E0,0E0,3.7391157E0,0E0,1.6940037E1,2.9780008E1,0E0,1.7376518E0,0E0,0E0,0E0,0E0,0E0,0E0,0E0,0E0],"parents":[2147483647,0,0,1,1,2,2,3,3,4,4,5,5,6,6,9,9,11,11,12,12,14,14],"right_children":[2,4,6,8,10,12,14,-1,-1,16,-1,18,20,-1,22,-1,-1,-1,-1,-1,-1,-1,-1],"split_conditions":[-2.7714697E-1,-4.0345082E-1,1.8019168E0,1.1500561E0,-5.5036587E-1,-3.189799E-1,1.4997134E0,-5.997282E-2,2.502256E-2,-6.0571563E-1,-5.819651E-2,1.4196931E-1,3.0782518E-1,8.270255E-3,1.687488E0,5.6699432E-2,2.6681742E-3,3.9586086E-2,-5.2675497E-2,-4.6530325E-2,5.5878586E-3,5.413146E-2,1.0473432E-2],"split_indices":[5,0,10,6,5,4,0,0,0,6,0,5,10,0,2,0,0,0,0,0,0,0,0],"split_type":[0,0,0,0,0,0,0,0,0,0,0,0,0,0,0,0,0,0,0,0,0,0,0],"sum_hessian":[3.240741E2,5.759451E1,2.6647958E2,3.5480797E1,2.2113712E1,2.4001746E2,2.6462126E1,2.891321E1,6.567588E0,1.426104E1,7.8526726E0,4.5505653E1,1.945118E2,4.8299026E0,2.1632221E1,9.533044E0,4.727996E0,4.1183846E1,4.3218064E0,3.139117E1,1.6312064E2,1.8116493E1,3.5157287E0],"tree_param":{"num_deleted":"0","num_feature":"16","num_nodes":"23","size_leaf_vector":"1"}},{"base_weights":[1.3264241E-2,-8.8165176E-1,8.740879E-2,-5.3487506E-2,-6.7676352E-3,-4.9832843E-2,1.3172947E-1,2.5728023E-2,5.186662E-1,-5.4001242E-2,6.361605E-3,-2.4743946E-2,2.9961599E-2],"categories":[],"categories_nodes":[],"categories_segments":[],"categories_sizes":[],"default_left":[0,0,0,0,0,0,0,0,0,0,0,0,0],"id":49,"left_children":[1,3,5,-1,-1,-1,7,9,11,-1,-1,-1,-1],"loss_changes":[2.1501884E1,3.263586E0,1.4563532E1,0E0,0E0,0E0,1.1816935E1,2.5809214E1,5.506012E0,0E0,0E0,0E0,0E0],"parents":[2147483647,0,0,1,1,2,2,6,6,7,7,8,8],"right_children":[2,4,6,-1,-1,-1,8,10,12,-1,-1,-1,-1],"split_conditions":[-5.959954E-1,-3.9569405E-1,-1.0007871E0,-5.3487506E-2,-6.7676352E-3,-4.9832843E-2,1.3725369E0,-7.9875857E-1,-3.3538362E-1,-5.4001242E-2,6.361605E-3,-2.4743946E-2,2.9961599E-2],"split_indices":[5,0,13,0,0,0,5,6,3,0,0,0,0],"split_type":[0,0,0,0,0,0,0,0,0,0,0,0,0],"sum_hessian":[3.208101E2,2.3295818E1,2.9751428E2,1.8087029E1,5.2087903E0,1.0419775E1,2.870945E2,2.2661342E2,6.0481083E1,1.783747E1,2.0877596E2,3.8855605E0,5.6595524E1],"tree_param":{"num_deleted":"0","num_feature":"16","num_nodes":"13","size_leaf_vector":"1"}},{"base_weights":[4.249881E-3,-5.361696E-2,6.558572E-2,8.4701747E-1,4.2120548E-4,-3.87884E-3,1.0874654E0,-6.2289065E-1,1.3720748E-1,6.531956E-2,4.3011964E-3,-4.773791E-2,4.5402534E-2,4.0382963E-2,4.0733404E-4],"categories":[],"categories_nodes":[],"categories_segments":[],"categories_sizes":[],"default_left":[0,0,0,0,0,0,0,0,0,0,0,0,0,0,0],"id":50,"left_children":[1,-1,3,5,7,-1,9,11,13,-1,-1,-1,-1,-1,-1],"loss_changes":[2.0956997E1,0E0,1.5284333E1,5.262869E0,2.3878448E1,0E0,3.8731995E0,2.6907297E1,1.9862453E1,0E0,0E0,0E0,0E0,0E0,0E0],"parents":[2147483647,0,0,2,2,3,3,4,4,6,6,7,7,8,8],"right_children":[2,-1,4,6,8,-1,10,12,14,-1,-1,-1,-1,-1,-1],"split_conditions":[-1.0686004E0,-5.361696E-2,-9.162028E-1,-4.369936E-1,-4.53534E-1,-3.87884E-3,1.2898077E-1,-2.0578791E-1,-3.5640106E-1,6.531956E-2,4.3011964E-3,-4.773791E-2,4.5402534E-2,4.0382963E-2,4.0733404E-4],"split_indices":[8,0,8,0,10,0,3,0,0,0,0,0,0,0,0],"split_type":[0,0,0,0,0,0,0,0,0,0,0,0,0,0,0],"sum_hessian":[3.1427164E2,1.5607012E1,2.986646E2,2.1603632E1,2.77061E2,4.6683764E0,1.6935255E1,4.8900246E1,2.2816075E2,1.3522358E1,3.412897E0,4.0652416E1,8.24783E0,3.5557556E1,1.926032E2],"tree_param":{"num_deleted":"0","num_feature":"16","num_nodes":"15","size_leaf_vector":"1"}},{"base_weights":[9.579493E-3,-7.0095104E-1,9.470662E-2,-5.2866857E-2,2.8624016E-1,-2.2619434E-1,2.2231093E-1,-4.014038E-2,5.0447434E-2,2.9924533E-1,-1.0359356E0,5.065647E-1,2.0955957E-2,-9.461215E-3,5.1487483E-2,1.589626E-2,-6.1530452E-2,2.920439E-2,-4.522589E-2,-2.9445736E-2,1.567944E-2],"categories":[],"categories_nodes":[],"categories_segments":[],"categories_sizes":[],"default_left":[0,0,0,0,0,0,0,0,0,0,0,0,0,0,0,0,0,0,0,0,0],"id":51,"left_children":[1,3,5,-1,7,9,11,-1,-1,13,15,17,19,-1,-1,-1,-1,-1,-1,-1,-1],"loss_changes":[1.9163343E1,1.2380541E1,1.1654803E1,0E0,9.221264E0,3.501203E1,1.16077E1,0E0,0E0,1.8279034E1,9.097267E0,9.996941E0,2.177178E1,0E0,0E0,0E0,0E0,0E0,0E0,0E0,0E0],"parents":[2147483647,0,0,1,1,2,2,4,4,5,5,6,6,9,9,10,10,11,11,12,12],"right_children":[2,4,6,-1,8,10,12,-1,-1,14,16,18,20,-1,-1,-1,-1,-1,-1,-1,-1],"split_conditions":[-5.508086E-1,1.0903047E0,1.0389009E-1,-5.2866857E-2,-8.3393455E-2,-4.1236183E-1,1.1920254E0,-4.014038E-2,5.0447434E-2,-5.0515234E-1,-4.480213E-1,6.54435E-1,5.598769E-1,-9.461215E-3,5.1487483E-2,1.589626E-2,-6.1530452E-2,2.920439E-2,-4.522589E-2,-2.9445736E-2,1.567944E-2],"split_indices":[3,6,5,0,5,12,15,0,0,12,3,0,12,0,0,0,0,0,0,0,0],"split_type":[0,0,0,0,0,0,0,0,0,0,0,0,0,0,0,0,0,0,0,0,0],"sum_hessian":[3.1367953E2,3.239949E1,2.8128003E2,2.3727158E1,8.672331E0,7.96973E1,2.0158273E2,3.3930717E0,5.2792597E0,4.8907185E1,3.079012E1,8.26424E1,1.1894033E2,2.997507E1,1.8932114E1,3.7513795E0,2.703874E1,7.9171906E1,3.470498E0,3.8073452E1,8.086688E1],"tree_param":{"num_deleted":"0","num_feature":"16","num_nodes":"21","size_leaf_vector":"1"}},{"base_weights":[1.27254175E-2,-5.2212387E-2,6.858269E-2,9.5038855E-1,-8.78097E-3,3.470691E-3,1.1231936E0,-4.9875242E-1,1.023922E-1,6.578155E-2,2.358639E-2,-4.6033356E-2,5.0198235E-2,-4.7774535E-2,8.838204E-3],"categories":[],"categories_nodes":[],"categories_segments":[],"categories_sizes":[],"default_left":[0,0,0,0,0,0,0,0,0,0,0,0,0,0,0],"id":52,"left_children":[1,-1,3,5,7,-1,9,11,13,-1,-1,-1,-1,-1,-1],"loss_changes":[1.8423922E1,0E0,2.0210745E1,3.520649E0,1.4984505E1,0E0,1.560997E0,3.3638382E1,1.7901531E1,0E0,0E0,0E0,0E0,0E0,0E0],"parents":[2147483647,0,0,2,2,3,3,4,4,6,6,7,7,8,8],"right_children":[2,-1,4,6,8,-1,10,12,14,-1,-1,-1,-1,-1,-1],"split_conditions":[-1.0686004E0,-5.2212387E-2,-9.162028E-1,-4.369936E-1,-4.53534E-1,3.470691E-3,1.2898077E-1,-2.0578791E-1,-4.5275757E-1,6.578155E-2,2.358639E-2,-4.6033356E-2,5.0198235E-2,-4.7774535E-2,8.838204E-3],"split_indices":[8,0,8,0,10,0,3,0,8,0,0,0,0,0,0],"split_type":[0,0,0,0,0,0,0,0,0,0,0,0,0,0,0],"sum_hessian":[3.0874063E2,1.4164623E1,2.9457602E2,2.2394312E1,2.721817E2,4.0171385E0,1.8377172E1,4.936904E1,2.2281265E2,1.300606E1,5.371114E0,3.9000072E1,1.0368971E1,1.3468095E1,2.0934456E2],"tree_param":{"num_deleted":"0","num_feature":"16","num_nodes":"15","size_leaf_vector":"1"}},{"base_weights":[3.5890029E-3,-5.0858665E-2,5.293944E-2,9.3673724E-1,-2.4794292E-2,-1.8049829E-3,1.1559958E0,-6.6618085E-1,1.02118045E-1,6.795455E-2,2.7053034E-2,-4.4060048E-2,3.0464694E-2,4.1965965E-2,7.416663E-4],"categories":[],"categories_nodes":[],"categories_segments":[],"categories_sizes":[],"default_left":[0,0,0,0,0,0,0,0,0,0,0,0,0,0,0],"id":53,"left_children":[1,-1,3,5,7,-1,9,11,13,-1,-1,-1,-1,-1,-1],"loss_changes":[1.5595557E1,0E0,2.031588E1,5.1614666E0,2.2308207E1,0E0,1.3389683E0,1.3218788E1,1.47192745E1,0E0,0E0,0E0,0E0,0E0,0E0],"parents":[2147483647,0,0,2,2,3,3,4,4,6,6,7,7,8,8],"right_children":[2,-1,4,6,8,-1,10,12,14,-1,-1,-1,-1,-1,-1],"split_conditions":[-1.0803233E0,-5.0858665E-2,-9.162028E-1,-4.0345082E-1,-4.53534E-1,-1.8049829E-3,-4.3582445E-1,-2.0578791E-1,-5.804489E-1,6.795455E-2,2.7053034E-2,-4.4060048E-2,3.0464694E-2,4.1965965E-2,7.416663E-4],"split_indices":[8,0,8,0,10,0,14,0,0,0,0,0,0,0,0],"split_type":[0,0,0,0,0,0,0,0,0,0,0,0,0,0,0],"sum_hessian":[3.0648538E2,1.2777581E1,2.937078E2,2.240436E1,2.7130344E2,4.3512354E0,1.8053123E1,4.3762722E1,2.2754071E2,1.2206479E1,5.8466454E0,3.7846264E1,5.916461E0,2.272055E1,2.0482016E2],"tree_param":{"num_deleted":"0","num_feature":"16","num_nodes":"15","size_leaf_vector":"1"}},{"base_weights":[-1.2462535E-3,-2.3648117E-1,2.3827387E-1,-1.064288E0,-8.5271135E-2,3.0862772E-1,-8.873712E-1,-4.4369647E-1,-6.755962E-2,-5.1284045E-2,2.1114603E-2,-4.48809E-2,3.748504E-1,-5.5063047E-2,-1.5051446E-2,-5.1044505E-2,2.1751681E-2,1.5150006E-2,-1.4736119E-2,-4.4565868E-2,2.1709995E-2],"categories":[],"categories_nodes":[],"categories_segments":[],"categories_sizes":[],"default_left":[0,0,0,0,0,0,0,0,0,0,0,0,0,0,0,0,0,0,0,0,0],"id":54,"left_children":[1,3,5,7,9,11,13,15,-1,-1,17,-1,19,-1,-1,-1,-1,-1,-1,-1,-1],"loss_changes":[1.7312315E1,1.9267464E1,1.2467933E1,3.340372E0,1.3308925E1,1.2039977E1,6.7446613E-1,5.6171293E0,0E0,0E0,1.0878631E1,0E0,1.0946882E1,0E0,0E0,0E0,0E0,0E0,0E0,0E0,0E0],"parents":[2147483647,0,0,1,1,2,2,3,3,4,4,5,5,6,6,7,7,10,10,12,12],"right_children":[2,4,6,8,10,12,14,16,-1,-1,18,-1,20,-1,-1,-1,-1,-1,-1,-1,-1],"split_conditions":[4.0546182E-1,-2.1761638E-1,1.5912971E0,-3.862673E-1,-4.560939E-1,-8.6604834E-1,4.542709E-1,-4.138263E-1,-6.755962E-2,-5.1284045E-2,-5.1379037E-1,-4.48809E-2,-1.0533296E0,-5.5063047E-2,-1.5051446E-2,-5.1044505E-2,2.1751681E-2,1.5150006E-2,-1.4736119E-2,-4.4565868E-2,2.1709995E-2],"split_indices":[6,13,6,3,3,3,13,4,0,0,6,0,13,0,0,0,0,0,0,0,0],"split_type":[0,0,0,0,0,0,0,0,0,0,0,0,0,0,0,0,0,0,0,0,0],"sum_hessian":[3.0426364E2,1.5351459E2,1.5074905E2,2.2311497E1,1.312031E2,1.4290604E2,7.843027E0,8.261379E0,1.40501175E1,1.201686E1,1.1918623E2,6.4571543E0,1.3644888E2,4.781514E0,3.0615127E0,4.839733E0,3.421646E0,6.3010303E1,5.617593E1,5.167963E0,1.3128091E2],"tree_param":{"num_deleted":"0","num_feature":"16","num_nodes":"21","size_leaf_vector":"1"}},{"base_weights":[6.456323E-2,-5.103026E-1,1.7385285E-1,7.642774E-2,-8.837944E-1,-4.8367765E-2,2.1794292E-1,-4.6531588E-2,8.484466E-1,-6.004976E-2,3.687637E-2,5.2561915E-1,6.864071E-2,6.6537745E-3,5.274945E-2,1.5061915E-2,-1.0758542E-2,3.2335356E-2,-3.9601043E-2,-1.6613081E-2,1.3966503E-2],"categories":[],"categories_nodes":[],"categories_segments":[],"categories_sizes":[],"default_left":[0,0,0,0,0,0,0,0,0,0,0,0,0,0,0,0,0,0,0,0,0],"id":55,"left_children":[1,3,5,7,9,-1,11,-1,13,-1,15,17,19,-1,-1,-1,-1,-1,-1,-1,-1],"loss_changes":[2.0208675E1,1.1370648E1,1.3882075E1,1.7809212E1,9.277941E0,0E0,1.1926561E1,0E0,1.6937857E0,0E0,7.3275346E-1,1.4327688E1,1.5116981E1,0E0,0E0,0E0,0E0,0E0,0E0,0E0,0E0],"parents":[2147483647,0,0,1,1,2,2,3,3,4,4,6,6,8,8,10,10,11,11,12,12],"right_children":[2,4,6,8,10,-1,12,-1,14,-1,16,18,20,-1,-1,-1,-1,-1,-1,-1,-1],"split_conditions":[-2.7714697E-1,-9.763803E-1,-1.0007871E0,-1.0803233E0,8.2034916E-1,-4.8367765E-2,-8.485252E-3,-4.6531588E-2,-5.819838E-1,-6.004976E-2,-4.5357326E-1,1.3383857E0,7.0765173E-1,6.6537745E-3,5.274945E-2,1.5061915E-2,-1.0758542E-2,3.2335356E-2,-3.9601043E-2,-1.6613081E-2,1.3966503E-2],"split_indices":[5,8,13,8,8,0,13,0,14,0,5,3,5,0,0,0,0,0,0,0,0],"split_type":[0,0,0,0,0,0,0,0,0,0,0,0,0,0,0,0,0,0,0,0,0],"sum_hessian":[3.1803845E2,4.9925472E1,2.6811298E2,1.9883266E1,3.0042206E1,8.804724E0,2.5930826E2,8.494475E0,1.138879E1,2.2004297E1,8.037909E0,8.3484955E1,1.7582332E2,3.1040814E0,8.284709E0,3.7802308E0,4.2576776E0,7.71581E1,6.326856E0,6.0271812E1,1.155515E2],"tree_param":{"num_deleted":"0","num_feature":"16","num_nodes":"21","size_leaf_vector":"1"}},{"base_weights":[-4.65735E-2,-4.977833E-2,-4.4793556E-3,2.0535408E-1,-2.369153E-1,-5.636242E-2,2.8858742E-1,-6.812256E-1,3.0744615E-1,-9.628211E-3,2.2550864E-2,-9.299868E-3,-7.985248E-2,2.8157597E-2,-2.542415E-2],"categories":[],"categories_nodes":[],"categories_segments":[],"categories_sizes":[],"default_left":[0,0,0,0,0,0,0,0,0,0,0,0,0,0,0],"id":56,"left_children":[1,-1,3,5,7,-1,9,11,13,-1,-1,-1,-1,-1,-1],"loss_changes":[1.1788867E1,0E0,1.3936422E1,1.7146517E1,3.3100414E1,0E0,1.1271384E1,3.361692E1,1.3355162E1,0E0,0E0,0E0,0E0,0E0,0E0],"parents":[2147483647,0,0,2,2,3,3,4,4,6,6,7,7,8,8],"right_children":[2,-1,4,6,8,-1,10,12,14,-1,-1,-1,-1,-1,-1],"split_conditions":[-1.0803233E0,-4.977833E-2,1.1920254E0,-1.0147829E0,1.4997134E0,-5.636242E-2,-2.7714697E-1,3.9129108E-1,1.687488E0,-9.628211E-3,2.2550864E-2,-9.299868E-3,-7.985248E-2,2.8157597E-2,-2.542415E-2],"split_indices":[8,0,15,6,0,0,5,8,2,0,0,0,0,0,0],"split_type":[0,0,0,0,0,0,0,0,0,0,0,0,0,0,0],"sum_hessian":[2.9377975E2,1.1034548E1,2.827452E2,1.486894E2,1.340558E2,7.63499E0,1.4105441E2,7.360332E1,6.0452488E1,3.5529682E1,1.05524734E2,4.8942493E1,2.4660822E1,4.6381573E1,1.4070917E1],"tree_param":{"num_deleted":"0","num_feature":"16","num_nodes":"15","size_leaf_vector":"1"}},{"base_weights":[-2.9764693E-2,-2.4294932E-1,2.5281283E-1,-8.648712E-2,-6.3936815E-2,6.5563756E-1,7.106578E-2,9.184301E-2,-6.756337E-1,8.450896E-1,-2.7191399E-2,-9.602441E-1,2.7199855E-1,-4.721647E-2,1.1090611E-2,-7.336685E-2,8.790483E-4,4.7763813E-2,-6.7026163E-3,3.0430937E-3,-7.876728E-2,-2.3976918E-2,3.028273E-2],"categories":[],"categories_nodes":[],"categories_segments":[],"categories_sizes":[],"default_left":[0,0,0,0,0,0,0,0,0,0,0,0,0,0,0,0,0,0,0,0,0,0,0],"id":57,"left_children":[1,3,5,7,-1,9,11,13,15,17,-1,19,21,-1,-1,-1,-1,-1,-1,-1,-1,-1,-1],"loss_changes":[1.7683659E1,2.6932621E1,9.177322E0,1.55243025E1,0E0,9.571619E0,1.8776627E1,1.5675913E1,1.8867386E1,3.897295E0,0E0,9.438182E0,1.934802E1,0E0,0E0,0E0,0E0,0E0,0E0,0E0,0E0,0E0,0E0],"parents":[2147483647,0,0,1,1,2,2,3,3,5,5,6,6,7,7,8,8,9,9,11,11,12,12],"right_children":[2,4,6,8,-1,10,12,14,16,18,-1,20,22,-1,-1,-1,-1,-1,-1,-1,-1,-1,-1],"split_conditions":[6.9333297E-1,2.692619E-1,1.0053412E0,1.2898077E-1,-6.3936815E-2,6.210599E-1,4.038568E-2,-7.913232E-1,4.8521283E-1,7.7775896E-1,-2.7191399E-2,5.0618535E-1,1.1211528E0,-4.721647E-2,1.1090611E-2,-7.336685E-2,8.790483E-4,4.7763813E-2,-6.7026163E-3,3.0430937E-3,-7.876728E-2,-2.3976918E-2,3.028273E-2],"split_indices":[5,0,5,3,0,8,8,4,4,6,0,2,4,0,0,0,0,0,0,0,0,0,0],"split_type":[0,0,0,0,0,0,0,0,0,0,0,0,0,0,0,0,0,0,0,0,0,0,0],"sum_hessian":[2.9051828E2,1.6571126E2,1.24807E2,1.4537648E2,2.0334791E1,3.7587288E1,8.721971E1,1.125689E2,3.280757E1,3.2843E1,4.7442875E0,1.3297974E1,7.392174E1,1.1498561E1,1.01070335E2,1.4533805E1,1.8273767E1,2.955376E1,3.2892385E0,5.5072246E0,7.7907495E0,2.2526512E1,5.1395226E1],"tree_param":{"num_deleted":"0","num_feature":"16","num_nodes":"23","size_leaf_vector":"1"}},{"base_weights":[-5.821391E-2,-5.2479148E-2,3.7730627E-2,-4.922874E-2,8.2629584E-2,-1.3402377E-1,3.1389314E-1,-1.7222026E-2,2.4613917E-2,2.278184E-2,-1.6145522E-2],"categories":[],"categories_nodes":[],"categories_segments":[],"categories_sizes":[],"default_left":[0,0,0,0,0,0,0,0,0,0,0],"id":58,"left_children":[1,-1,3,-1,5,7,9,-1,-1,-1,-1],"loss_changes":[2.6643425E1,0E0,1.1885174E1,0E0,1.2432637E1,1.7190754E1,1.1039692E1,0E0,0E0,0E0,0E0],"parents":[2147483647,0,0,2,2,4,4,5,5,6,6],"right_children":[2,-1,4,-1,6,8,10,-1,-1,-1,-1],"split_conditions":[-5.508086E-1,-5.2479148E-2,-9.164726E-1,-4.922874E-2,4.0546182E-1,1.3867929E0,3.4607056E-1,-1.7222026E-2,2.4613917E-2,2.278184E-2,-1.6145522E-2],"split_indices":[3,0,13,0,6,5,13,0,0,0,0],"split_type":[0,0,0,0,0,0,0,0,0,0,0],"sum_hessian":[2.7798926E2,2.3214178E1,2.5477507E2,9.398033E0,2.4537703E2,1.2701603E2,1.1836101E2,9.557954E1,3.1436493E1,9.716105E1,2.1199959E1],"tree_param":{"num_deleted":"0","num_feature":"16","num_nodes":"11","size_leaf_vector":"1"}},{"base_weights":[4.8607886E-2,-4.93432E-2,9.306511E-2,8.7350434E-1,2.2833727E-2,-2.4734063E-3,1.0932827E0,-6.4285547E-1,1.04184076E-1,6.363719E-2,3.4128755E-2,-5.8037855E-2,2.102303E-2,3.0817965E-2,3.095614E-5],"categories":[],"categories_nodes":[],"categories_segments":[],"categories_sizes":[],"default_left":[0,0,0,0,0,0,0,0,0,0,0,0,0,0,0],"id":59,"left_children":[1,-1,3,5,7,-1,9,11,13,-1,-1,-1,-1,-1,-1],"loss_changes":[1.3989665E1,0E0,1.5859228E1,4.927786E0,1.4586407E1,0E0,1.2402725E-1,1.6888645E1,1.2711625E1,0E0,0E0,0E0,0E0,0E0,0E0],"parents":[2147483647,0,0,2,2,3,3,4,4,6,6,7,7,8,8],"right_children":[2,-1,4,6,8,-1,10,12,14,-1,-1,-1,-1,-1,-1],"split_conditions":[-1.0803233E0,-4.93432E-2,-9.162028E-1,-4.0345082E-1,-2.7714697E-1,-2.4734063E-3,-3.4369817E-1,8.2034916E-1,-3.189799E-1,6.363719E-2,3.4128755E-2,-5.8037855E-2,2.102303E-2,3.0817965E-2,3.095614E-5],"split_indices":[8,0,8,0,5,0,4,8,4,0,0,0,0,0,0],"split_type":[0,0,0,0,0,0,0,0,0,0,0,0,0,0,0],"sum_hessian":[2.9940454E2,1.1016543E1,2.88388E2,2.2392897E1,2.6599512E2,4.5302444E0,1.7862652E1,2.7838604E1,2.381565E2,1.023991E1,7.622742E0,1.8628094E1,9.210509E0,3.8807728E1,1.9934877E2],"tree_param":{"num_deleted":"0","num_feature":"16","num_nodes":"15","size_leaf_vector":"1"}},{"base_weights":[4.7370195E-2,-3.982415E-1,1.5262961E-1,-5.981115E-1,6.815587E-1,7.86011E-1,6.658445E-2,3.9517063E-1,-1.0355309E0,4.7456226E-3,5.2282073E-2,-5.5686096E-3,9.826487E-1,-6.425936E-1,1.5695329E-1,-4.212126E-2,4.3048482E-2,-4.1486807E-3,-6.40788E-2,5.434984E-2,2.0492554E-2,3.4142304E-2,-5.324794E-2,1.5530388E-2,-7.242047E-3],"categories":[],"categories_nodes":[],"categories_segments":[],"categories_sizes":[],"default_left":[0,0,0,0,0,0,0,0,0,0,0,0,0,0,0,0,0,0,0,0,0,0,0,0,0],"id":60,"left_children":[1,3,5,7,9,11,13,15,17,-1,-1,-1,19,21,23,-1,-1,-1,-1,-1,-1,-1,-1,-1,-1],"loss_changes":[1.4494272E1,1.3364279E1,1.3518042E1,2.2624533E1,1.9721231E0,5.4049416E0,1.4332652E1,1.0642557E1,8.18074E0,0E0,0E0,0E0,7.9696274E-1,1.5256895E1,9.224855E0,0E0,0E0,0E0,0E0,0E0,0E0,0E0,0E0,0E0,0E0],"parents":[2147483647,0,0,1,1,2,2,3,3,4,4,5,5,6,6,7,7,8,8,12,12,13,13,14,14],"right_children":[2,4,6,8,10,12,14,16,18,-1,-1,-1,20,22,24,-1,-1,-1,-1,-1,-1,-1,-1,-1,-1],"split_conditions":[-4.53534E-1,-2.0578791E-1,-5.304689E-1,-9.967E-1,-2.176275E-1,-7.281081E-1,1.3136454E-1,-5.674572E-1,-9.6401656E-1,4.7456226E-3,5.2282073E-2,-5.5686096E-3,-6.195188E-1,-4.1775066E-1,6.773298E-1,-4.212126E-2,4.3048482E-2,-4.1486807E-3,-6.40788E-2,5.434984E-2,2.0492554E-2,3.4142304E-2,-5.324794E-2,1.5530388E-2,-7.242047E-3],"split_indices":[10,0,4,8,2,4,5,4,2,0,0,0,4,10,8,0,0,0,0,0,0,0,0,0,0],"split_type":[0,0,0,0,0,0,0,0,0,0,0,0,0,0,0,0,0,0,0,0,0,0,0,0,0],"sum_hessian":[3.055707E2,5.7590103E1,2.4798062E2,4.9159805E1,8.430299E0,2.819966E1,2.1978096E2,1.50743E1,3.4085503E1,3.9525652E0,4.477733E0,5.1854725E0,2.3014187E1,2.3804749E1,1.9597621E2,3.790463E0,1.1283837E1,7.4087095E0,2.6676794E1,1.832866E1,4.685528E0,5.5289774E0,1.827577E1,1.298308E2,6.614541E1],"tree_param":{"num_deleted":"0","num_feature":"16","num_nodes":"25","size_leaf_vector":"1"}},{"base_weights":[-5.096048E-2,-4.1467673E-1,1.020118E-1,-1.5505446E-1,-7.154768E-2,-7.260419E-1,1.9697736E-1,-7.1987396E-1,3.2232597E-1,-6.220568E-2,3.4142205E-1,1.134724E0,1.1316959E-1,-5.9619274E-2,5.6905136E-3,-4.1205388E-2,2.6335016E-2,3.541148E-2,-5.037731E-3,6.481501E-2,1.8956136E-2,9.384363E-3,-5.023023E-2],"categories":[],"categories_nodes":[],"categories_segments":[],"categories_sizes":[],"default_left":[0,0,0,0,0,0,0,0,0,0,0,0,0,0,0,0,0,0,0,0,0,0,0],"id":61,"left_children":[1,3,5,7,-1,9,11,13,15,-1,17,19,21,-1,-1,-1,-1,-1,-1,-1,-1,-1,-1],"loss_changes":[1.5815098E1,2.1860394E1,1.5980628E1,1.8866581E1,0E0,1.2221882E1,1.4035809E1,1.2778826E1,9.6148405E0,0E0,1.4081109E0,1.0558681E0,1.4264428E1,0E0,0E0,0E0,0E0,0E0,0E0,0E0,0E0,0E0,0E0],"parents":[2147483647,0,0,1,1,2,2,3,3,5,5,6,6,7,7,8,8,10,10,11,11,12,12],"right_children":[2,4,6,8,-1,10,12,14,16,-1,18,20,22,-1,-1,-1,-1,-1,-1,-1,-1,-1,-1],"split_conditions":[-1.4540048E-1,1.5461743E-1,-4.904215E-1,3.0894035E-1,-7.154768E-2,4.9561587E-1,-1.280604E-1,-4.5732376E-1,-7.6229316E-1,-6.220568E-2,1.2607042E0,1.5585987E-1,1.0627272E0,-5.9619274E-2,5.6905136E-3,-4.1205388E-2,2.6335016E-2,3.541148E-2,-5.037731E-3,6.481501E-2,1.8956136E-2,9.384363E-3,-5.023023E-2],"split_indices":[3,0,13,6,0,0,3,4,4,0,2,13,6,0,0,0,0,0,0,0,0,0,0],"split_type":[0,0,0,0,0,0,0,0,0,0,0,0,0,0,0,0,0,0,0,0,0,0,0],"sum_hessian":[2.816069E2,8.261359E1,1.989933E2,6.718029E1,1.5433296E1,1.9448017E1,1.7954529E2,3.0422968E1,3.6757324E1,1.2926284E1,6.521733E0,1.3186684E1,1.663586E2,1.900565E1,1.1417318E1,4.873124E0,3.1884201E1,3.0713563E0,3.4503765E0,9.979343E0,3.2073405E0,1.571314E2,9.227207E0],"tree_param":{"num_deleted":"0","num_feature":"16","num_nodes":"23","size_leaf_vector":"1"}},{"base_weights":[4.9758527E-2,7.912226E-2,-8.046983E-2,-4.8292827E-2,1.20366804E-1,8.6332995E-1,4.7758274E-2,-4.308587E-3,5.4077145E-2,-3.1059032E-2,6.2857545E-3],"categories":[],"categories_nodes":[],"categories_segments":[],"categories_sizes":[],"default_left":[0,0,0,0,0,0,0,0,0,0,0],"id":62,"left_children":[1,3,-1,-1,5,7,9,-1,-1,-1,-1],"loss_changes":[1.46876E1,1.2837518E1,0E0,0E0,1.525802E1,5.360037E0,1.3690993E1,0E0,0E0,0E0,0E0],"parents":[2147483647,0,0,1,1,4,4,5,5,6,6],"right_children":[2,4,-1,-1,6,8,10,-1,-1,-1,-1],"split_conditions":[2.455524E0,-1.0803233E0,-8.046983E-2,-4.8292827E-2,-9.162028E-1,-4.0345082E-1,-2.7714697E-1,-4.308587E-3,5.4077145E-2,-3.1059032E-2,6.2857545E-3],"split_indices":[3,8,0,0,8,1,5,0,0,0,0],"split_type":[0,0,0,0,0,0,0,0,0,0,0],"sum_hessian":[2.9605527E2,2.9231042E2,3.7448432E0,9.822374E0,2.8248804E2,2.3694986E1,2.5879306E2,4.59754E0,1.9097446E1,2.5920416E1,2.3287265E2],"tree_param":{"num_deleted":"0","num_feature":"16","num_nodes":"11","size_leaf_vector":"1"}},{"base_weights":[-1.25494925E-2,2.3974894E-2,-6.911605E-2,-2.7543735E-2,4.445019E-2,2.7192779E-2,-1.0643533E0,3.3138064E-3,-5.737227E-2,-4.4326144E-3,-8.906382E-2],"categories":[],"categories_nodes":[],"categories_segments":[],"categories_sizes":[],"default_left":[0,0,0,0,0,0,0,0,0,0,0],"id":63,"left_children":[1,3,-1,5,-1,7,9,-1,-1,-1,-1],"loss_changes":[1.4410864E1,1.2562627E1,0E0,1.5180461E1,0E0,1.1812239E1,9.14525E0,0E0,0E0,0E0,0E0],"parents":[2147483647,0,0,1,1,3,3,5,5,6,6],"right_children":[2,4,-1,6,-1,8,10,-1,-1,-1,-1],"split_conditions":[1.6769022E0,2.044065E0,-6.911605E-2,1.8072412E0,4.445019E-2,1.5912971E0,-5.5515677E-1,3.3138064E-3,-5.737227E-2,-4.4326144E-3,-8.906382E-2],"split_indices":[8,5,0,2,0,6,6,0,0,0,0],"split_type":[0,0,0,0,0,0,0,0,0,0,0],"sum_hessian":[2.855505E2,2.7956964E2,5.9808626E0,2.652258E2,1.4343847E1,2.5331323E2,1.1912562E1,2.4652602E2,6.7872133E0,5.759551E0,6.1530113E0],"tree_param":{"num_deleted":"0","num_feature":"16","num_nodes":"11","size_leaf_vector":"1"}},{"base_weights":[-2.0551952E-2,-5.208614E-2,3.7843436E-2,6.9976544E-1,-2.8243892E-2,-1.3641548E-2,1.0310786E0,-8.3104825E-1,5.4212663E-2,2.0225769E-2,5.957642E-2,-6.608363E-2,1.9724848E-2,2.8271068E-2,-2.568579E-3],"categories":[],"categories_nodes":[],"categories_segments":[],"categories_sizes":[],"default_left":[0,0,0,0,0,0,0,0,0,0,0,0,0,0,0],"id":64,"left_children":[1,-1,3,5,7,-1,9,11,13,-1,-1,-1,-1,-1,-1],"loss_changes":[1.731973E1,0E0,1.2070101E1,8.492099E0,1.6729214E1,0E0,1.1865788E0,1.49339485E1,1.2439793E1,0E0,0E0,0E0,0E0,0E0,0E0],"parents":[2147483647,0,0,2,2,3,3,4,4,6,6,7,7,8,8],"right_children":[2,-1,4,6,8,-1,10,12,14,-1,-1,-1,-1,-1,-1],"split_conditions":[-7.0060706E-1,-5.208614E-2,-7.486088E-1,-4.082127E-1,-4.5023093E-1,-1.3641548E-2,-5.0515234E-1,-2.0578791E-1,-4.491505E-1,2.0225769E-2,5.957642E-2,-6.608363E-2,1.9724848E-2,2.8271068E-2,-2.568579E-3],"split_indices":[14,0,10,0,10,0,2,0,2,0,0,0,0,0,0],"split_type":[0,0,0,0,0,0,0,0,0,0,0,0,0,0,0],"sum_hessian":[2.8795355E2,1.4209568E1,2.73744E2,2.354433E1,2.5019966E2,6.0497055E0,1.7494625E1,2.2036118E1,2.2816354E2,4.64345E0,1.2851174E1,1.5652338E1,6.3837795E0,3.7939342E1,1.902242E2],"tree_param":{"num_deleted":"0","num_feature":"16","num_nodes":"15","size_leaf_vector":"1"}},{"base_weights":[6.985041E-2,-1.6549006E-1,2.9752228E-1,-2.51407E-1,3.9987233E-2,-4.353634E-2,3.5411274E-1,-1.1497362E-1,-9.863174E-1,4.1113323E-1,-7.1485007E-1,-3.700539E-2,2.7314252E-3,1.426837E-2,-7.897307E-2,1.2203338E-2,3.4506798E-2,-4.7005456E-2,-1.201327E-2],"categories":[],"categories_nodes":[],"categories_segments":[],"categories_sizes":[],"default_left":[0,0,0,0,0,0,0,0,0,0,0,0,0,0,0,0,0,0,0],"id":65,"left_children":[1,3,5,7,-1,-1,9,11,13,15,17,-1,-1,-1,-1,-1,-1,-1,-1],"loss_changes":[1.5772652E1,1.2329354E1,1.0343572E1,1.3297845E1,0E0,0E0,9.194946E0,1.2252123E1,1.6390951E1,6.1471806E0,4.9725986E-1,0E0,0E0,0E0,0E0,0E0,0E0,0E0,0E0],"parents":[2147483647,0,0,1,1,2,2,3,3,6,6,7,7,8,8,9,9,10,10],"right_children":[2,4,6,8,-1,-1,10,12,14,16,18,-1,-1,-1,-1,-1,-1,-1,-1],"split_conditions":[4.0546182E-1,1.832195E0,-8.6604834E-1,7.586085E-1,3.9987233E-2,-4.353634E-2,1.5912971E0,-4.0345082E-1,-5.804489E-1,6.060529E-1,1.24185994E-1,-3.700539E-2,2.7314252E-3,1.426837E-2,-7.897307E-2,1.2203338E-2,3.4506798E-2,-4.7005456E-2,-1.201327E-2],"split_indices":[6,10,3,8,0,0,6,0,0,12,14,0,0,0,0,0,0,0,0],"split_type":[0,0,0,0,0,0,0,0,0,0,0,0,0,0,0,0,0,0,0],"sum_hessian":[2.9149512E2,1.4353508E2,1.4796005E2,1.3282173E2,1.0713347E1,5.8390703E0,1.4212097E2,1.1348781E2,1.933392E1,1.3580022E2,6.320754E0,2.3142284E1,9.034552E1,6.3970814E0,1.2936839E1,8.669784E1,4.910238E1,3.2885153E0,3.032239E0],"tree_param":{"num_deleted":"0","num_feature":"16","num_nodes":"19","size_leaf_vector":"1"}},{"base_weights":[-3.8715407E-2,-6.365752E-1,5.279177E-2,-8.9622205E-1,4.0450746E-1,8.8846284E-1,-2.3227543E-2,-5.8310904E-2,-1.2674567E-1,3.8402643E-2,7.6640434E-5,-1.6203236E-3,1.0851016E0,-9.043192E-1,8.0171674E-2,2.1233121E-2,-4.2729642E-2,6.3422754E-2,1.0907711E-2,3.5571817E-2,-5.949963E-2,-4.1924194E-3,1.8001746E-2],"categories":[],"categories_nodes":[],"categories_segments":[],"categories_sizes":[],"default_left":[0,0,0,0,0,0,0,0,0,0,0,0,0,0,0,0,0,0,0,0,0,0,0],"id":66,"left_children":[1,3,5,7,9,11,13,-1,15,-1,-1,-1,17,19,21,-1,-1,-1,-1,-1,-1,-1,-1],"loss_changes":[1.5587836E1,1.0765393E1,1.576601E1,6.1630306E0,1.2554611E0,3.7995033E0,2.0925962E1,0E0,4.4234657E0,0E0,0E0,0E0,2.3021393E0,1.2403616E1,9.495737E0,0E0,0E0,0E0,0E0,0E0,0E0,0E0,0E0],"parents":[2147483647,0,0,1,1,2,2,3,3,4,4,5,5,6,6,8,8,12,12,13,13,14,14],"right_children":[2,4,6,8,10,12,14,-1,16,-1,-1,-1,18,20,22,-1,-1,-1,-1,-1,-1,-1,-1],"split_conditions":[-2.7714697E-1,-1.9259095E-1,-5.804489E-1,-3.9569405E-1,-6.287078E-1,-2.0315233E-1,-2.0578791E-1,-5.8310904E-2,-8.201755E-1,3.8402643E-2,7.6640434E-5,-1.6203236E-3,-4.6812972E-1,-7.1378744E-1,8.6326754E-1,2.1233121E-2,-4.2729642E-2,6.3422754E-2,1.0907711E-2,3.5571817E-2,-5.949963E-2,-4.1924194E-3,1.8001746E-2],"split_indices":[5,10,1,1,3,5,1,0,10,0,0,0,2,8,3,0,0,0,0,0,0,0,0],"split_type":[0,0,0,0,0,0,0,0,0,0,0,0,0,0,0,0,0,0,0,0,0,0,0],"sum_hessian":[2.825041E2,3.6313824E1,2.4619028E2,2.9232046E1,7.0817785E0,1.919133E1,2.2699895E2,2.1066704E1,8.165341E0,3.0086102E0,4.0731688E0,3.5973854E0,1.5593944E1,2.2620964E1,2.0437798E2,5.0012674E0,3.164074E0,1.2298254E1,3.2956896E0,3.062729E0,1.9558235E1,1.2952032E2,7.4857666E1],"tree_param":{"num_deleted":"0","num_feature":"16","num_nodes":"23","size_leaf_vector":"1"}},{"base_weights":[-3.8162235E-2,-1.0059478E-1,6.826013E-1,-1.66977E-2,-6.1591643E-1,-5.0652577E-3,8.166862E-1,1.773703E-2,-7.685777E-2,-1.5708982E0,-1.198671E-1,5.104624E-2,4.348759E-1,-4.9092997E-2,3.5819795E-3,-9.352293E-2,-2.2035696E-2,-5.668185E-2,1.433976E-2,-4.520957E-4,3.4733824E-2],"categories":[],"categories_nodes":[],"categories_segments":[],"categories_sizes":[],"default_left":[0,0,0,0,0,0,0,0,0,0,0,0,0,0,0,0,0,0,0,0,0],"id":67,"left_children":[1,3,5,7,9,-1,11,13,-1,15,17,-1,19,-1,-1,-1,-1,-1,-1,-1,-1],"loss_changes":[1.2610816E1,1.1100333E1,2.4733152E0,1.1698136E1,1.6750534E1,0E0,8.352413E-1,1.1916354E1,0E0,2.88307E0,1.09129505E1,0E0,1.0845379E0,0E0,0E0,0E0,0E0,0E0,0E0,0E0,0E0],"parents":[2147483647,0,0,1,1,2,2,3,3,4,4,6,6,7,7,9,9,10,10,12,12],"right_children":[2,4,6,8,10,-1,12,14,-1,16,18,-1,20,-1,-1,-1,-1,-1,-1,-1,-1],"split_conditions":[1.832195E0,8.555178E-1,1.1983008E0,2.455524E0,1.1743807E0,-5.0652577E-3,1.6503445E0,-1.0686004E0,-7.685777E-2,6.060529E-1,