{"learner":{"attributes":{},"feature_names":[],"feature_types":[],"gradient_booster":{"model":{"cats":{"enc":[],"feature_segments":[],"sorted_idx":[]},"gbtree_model_param":{"num_parallel_tree":"1","num_trees":"25"},"iteration_indptr":[0,1,2,3,4,5,6,7,8,9,10,11,12,13,14,15,16,17,18,19,20,21,22,23,24,25],"tree_info":[0,0,0,0,0,0,0,0,0,0,0,0,0,0,0,0,0,0,0,0,0,0,0,0,0],"trees":[{"base_weights":[-1.8966379E-2,-6.973041E-1,1.0832428E0,-9.826082E-2,-3.603386E-1,-1.1994785E0,1.2061999E0,-1.7113867E0,-1.8122795E-1,-8.7332174E-2,2.7191808E-2,6.891677E-1,1.6508951E0,-6.747541E-3,-9.584234E-2,9.743265E-3,-4.3124832E-2,4.9663804E-2,-8.948322E-2,-7.485611E-2,8.840563E-2],"categories":[],"categories_nodes":[],"categories_segments":[],"categories_sizes":[],"default_left":[0,0,0,0,0,0,0,0,0,0,0,0,0,0,0,0,0,0,0,0,0],"id":0,"left_children":[1,3,5,-1,7,9,11,13,15,-1,-1,17,19,-1,-1,-1,-1,-1,-1,-1,-1],"loss_changes":[5.585196E2,1.9649352E2,8.205112E1,0E0,8.83797E1,1.6017672E1,6.0556763E1,1.3474121E1,8.374135E1,0E0,0E0,9.9000275E1,5.729547E1,0E0,0E0,0E0,0E0,0E0,0E0,0E0,0E0],"parents":[2147483647,0,0,1,1,2,2,4,4,5,5,6,6,7,7,8,8,11,11,12,12],"right_children":[2,4,6,-1,8,10,12,14,16,-1,-1,18,20,-1,-1,-1,-1,-1,-1,-1,-1],"split_conditions":[7.055008E-1,-8.764975E-1,-6.7094725E-1,-9.826082E-2,-9.7893304E-1,9.5133173E-1,1.2814023E0,-8.799373E-1,-1.0377442E-2,-8.7332174E-2,2.7191808E-2,1.5926107E0,6.9645905E-1,-6.747541E-3,-9.584234E-2,9.743265E-3,-4.3124832E-2,4.9663804E-2,-8.948322E-2,-7.485611E-2,8.840563E-2],"split_indices":[5,10,3,0,6,4,10,5,12,0,0,14,0,0,0,0,0,0,0,0,0],"split_type":[0,0,0,0,0,0,0,0,0,0,0,0,0,0,0,0,0,0,0,0,0],"sum_hessian":[7.439981E2,4.6089706E2,2.83101E2,9.524965E1,3.6564743E2,1.3798391E1,2.693026E2,4.129829E1,3.2434915E2,1.0499961E1,3.2984304E0,1.26291916E2,1.4301071E2,5.0484242E0,3.6249866E1,2.0967136E2,1.1467777E2,1.1329196E2,1.2999952E1,4.4999833E0,1.3851073E2],"tree_param":{"num_deleted":"0","num_feature":"16","num_nodes":"21","size_leaf_vector":"1"}},{"base_weights":[-3.5626136E-2,-6.436366E-1,9.770991E-1,-9.361646E-2,-3.3136207E-1,-1.1739161E0,1.1005433E0,-1.3146528E0,-9.040963E-2,-8.4306136E-2,2.6259659E-2,5.77991E-1,1.5541233E0,-2.4768045E-2,-8.6337574E-2,2.447441E-2,-3.1761117E-2,4.9164176E-2,-5.557331E-2,-7.492087E-2,8.4481746E-2],"categories":[],"categories_nodes":[],"categories_segments":[],"categories_sizes":[],"default_left":[0,0,0,0,0,0,0,0,0,0,0,0,0,0,0,0,0,0,0,0,0],"id":1,"left_children":[1,3,5,-1,7,9,11,13,15,-1,-1,17,19,-1,-1,-1,-1,-1,-1,-1,-1],"loss_changes":[4.5512192E2,1.7625748E2,7.557065E1,0E0,8.749397E1,1.5058294E1,6.09953E1,2.3269196E1,9.4874504E1,0E0,0E0,8.696257E1,6.167566E1,0E0,0E0,0E0,0E0,0E0,0E0,0E0,0E0],"parents":[2147483647,0,0,1,1,2,2,4,4,5,5,6,6,7,7,8,8,11,11,12,12],"right_children":[2,4,6,-1,8,10,12,14,16,-1,-1,18,20,-1,-1,-1,-1,-1,-1,-1,-1],"split_conditions":[6.8928766E-1,-8.764975E-1,-6.8491143E-1,-9.361646E-2,-5.8783567E-1,9.5133173E-1,1.2814023E0,-8.62206E-1,-2.0541415E-1,-8.4306136E-2,2.6259659E-2,1.2793462E0,6.9645905E-1,-2.4768045E-2,-8.6337574E-2,2.447441E-2,-3.1761117E-2,4.9164176E-2,-5.557331E-2,-7.492087E-2,8.4481746E-2],"split_indices":[5,10,3,0,3,4,10,12,4,0,0,4,0,0,0,0,0,0,0,0,0],"split_type":[0,0,0,0,0,0,0,0,0,0,0,0,0,0,0,0,0,0,0,0,0],"sum_hessian":[7.3610516E2,4.603008E2,2.7580438E2,9.176064E1,3.6854016E2,1.4276241E1,2.6152814E2,7.121959E1,2.9732056E2,1.0978248E1,3.2979932E0,1.2310964E2,1.384185E2,2.4939842E1,4.6279747E1,1.4409663E2,1.5322392E2,9.979604E1,2.3313597E1,5.2423773E0,1.3317613E2],"tree_param":{"num_deleted":"0","num_feature":"16","num_nodes":"21","size_leaf_vector":"1"}},{"base_weights":[-2.7496193E-2,-5.540474E-1,9.411336E-1,-8.9656085E-2,-2.4619767E-1,3.3181566E-1,1.4682966E0,-1.346931E0,-2.2338296E-3,-1.2467958E0,8.0959266E-1,-7.120059E-2,1.5929475E0,2.2181766E-2,-7.270264E-2,2.1302031E-2,-4.03683E-2,5.257089E-2,-9.18917E-2,5.0635803E-2,-8.2588874E-2,8.3657674E-2,1.1050446E-2],"categories":[],"categories_nodes":[],"categories_segments":[],"categories_sizes":[],"default_left":[0,0,0,0,0,0,0,0,0,0,0,0,0,0,0,0,0,0,0,0,0,0,0],"id":2,"left_children":[1,3,5,-1,7,9,11,13,15,17,19,-1,21,-1,-1,-1,-1,-1,-1,-1,-1,-1,-1],"loss_changes":[3.7231107E2,1.7970699E2,8.184822E1,0E0,1.0217206E2,9.291808E1,5.2938477E1,1.4207878E1,1.0843067E2,4.194705E1,4.9476555E1,0E0,1.4017548E1,0E0,0E0,0E0,0E0,0E0,0E0,0E0,0E0,0E0,0E0],"parents":[2147483647,0,0,1,1,2,2,4,4,5,5,6,6,7,7,8,8,9,9,10,10,12,12],"right_children":[2,4,6,-1,8,10,12,14,16,18,20,-1,22,-1,-1,-1,-1,-1,-1,-1,-1,-1,-1],"split_conditions":[7.326548E-1,-8.764975E-1,1.2814023E0,-8.9656085E-2,-5.8783567E-1,7.249769E-2,6.9645905E-1,-8.8454664E-1,5.0089482E-2,8.631352E-1,5.744374E-1,-7.120059E-2,1.1827329E0,2.2181766E-2,-7.270264E-2,2.1302031E-2,-4.03683E-2,5.257089E-2,-9.18917E-2,5.0635803E-2,-8.2588874E-2,8.3657674E-2,1.1050446E-2],"split_indices":[5,10,10,0,3,6,0,11,2,5,8,0,8,0,0,0,0,0,0,0,0,0,0],"split_type":[0,0,0,0,0,0,0,0,0,0,0,0,0,0,0,0,0,0,0,0,0,0,0],"sum_hessian":[7.269406E2,4.713531E2,2.555875E2,9.236266E1,3.7899045E2,1.1968941E2,1.3589809E2,6.7528595E1,3.1146185E2,2.7247438E1,9.244196E1,4.9688344E0,1.3092926E2,3.5458968E0,6.39827E1,2.037743E2,1.0768753E2,5.3348436E0,2.1912596E1,8.6210335E1,6.2316313E0,1.2338653E2,7.542733E0],"tree_param":{"num_deleted":"0","num_feature":"16","num_nodes":"23","size_leaf_vector":"1"}},{"base_weights":[6.770135E-2,-5.005423E-1,9.935005E-1,-8.615311E-2,-2.079961E-1,-8.164103E-2,1.1041456E0,-8.9671426E-2,-3.9259046E-2,-7.952844E-2,1.1739682E0,-5.5354115E-2,9.853105E-3,6.076309E-2,-7.179302E-2],"categories":[],"categories_nodes":[],"categories_segments":[],"categories_sizes":[],"default_left":[0,0,0,0,0,0,0,0,0,0,0,0,0,0,0],"id":3,"left_children":[1,3,5,-1,7,-1,9,-1,11,-1,13,-1,-1,-1,-1],"loss_changes":[4.0377832E2,1.6960161E2,8.752252E1,0E0,1.0304272E2,0E0,5.566739E1,0E0,8.8653366E1,0E0,3.222647E1,0E0,0E0,0E0,0E0],"parents":[2147483647,0,0,1,1,2,2,4,4,6,6,8,8,10,10],"right_children":[2,4,6,-1,8,-1,10,-1,12,-1,14,-1,-1,-1,-1],"split_conditions":[7.055008E-1,-8.764975E-1,-6.089429E-1,-8.615311E-2,-7.525101E-1,-8.164103E-2,-1.2856154E0,-8.9671426E-2,-5.8783567E-1,-7.952844E-2,1.3699615E0,-5.5354115E-2,9.853105E-3,6.076309E-2,-7.179302E-2],"split_indices":[5,10,3,0,13,0,13,0,3,0,8,0,0,0,0],"split_type":[0,0,0,0,0,0,0,0,0,0,0,0,0,0,0],"sum_hessian":[7.646056E2,4.7422278E2,2.9038284E2,9.0152016E1,3.8407074E2,1.0904852E1,2.79478E2,3.5555252E1,3.485155E2,6.233495E0,2.732445E2,6.21522E1,2.863633E2,2.697775E2,3.4669862E0],"tree_param":{"num_deleted":"0","num_feature":"16","num_nodes":"15","size_leaf_vector":"1"}},{"base_weights":[2.0811452E-2,-5.1924443E-1,8.991373E-1,-8.307453E-2,-2.4206552E-1,-7.927122E-2,1.015523E0,-8.666887E-2,-5.428369E-2,-7.9473756E-2,1.0980054E0,1.474233E-2,-5.2143384E-2,-3.8378045E-4,6.098869E-2],"categories":[],"categories_nodes":[],"categories_segments":[],"categories_sizes":[],"default_left":[0,0,0,0,0,0,0,0,0,0,0,0,0,0,0],"id":4,"left_children":[1,3,5,-1,7,-1,9,-1,11,-1,13,-1,-1,-1,-1],"loss_changes":[3.5367914E2,1.4559154E2,8.450499E1,0E0,1.0440995E2,0E0,6.1082123E1,0E0,1.1544183E2,0E0,3.5643158E1,0E0,0E0,0E0,0E0],"parents":[2147483647,0,0,1,1,2,2,4,4,6,6,8,8,10,10],"right_children":[2,4,6,-1,8,-1,10,-1,12,-1,14,-1,-1,-1,-1],"split_conditions":[6.8928766E-1,-8.764975E-1,-6.8491143E-1,-8.307453E-2,-7.374847E-1,-7.927122E-2,-1.2297789E0,-8.666887E-2,3.0930468E-1,-7.9473756E-2,-5.7029843E-1,1.474233E-2,-5.2143384E-2,-3.8378045E-4,6.098869E-2],"split_indices":[5,10,3,0,13,0,13,0,13,0,6,0,0,0,0],"split_type":[0,0,0,0,0,0,0,0,0,0,0,0,0,0,0],"sum_hessian":[7.4263934E2,4.602555E2,2.8238388E2,8.841372E1,3.7184177E2,1.1788727E1,2.7059515E2,4.020427E1,3.316375E2,7.463826E0,2.6313132E2,2.4586127E2,8.577623E1,2.6243204E1,2.3688812E2],"tree_param":{"num_deleted":"0","num_feature":"16","num_nodes":"15","size_leaf_vector":"1"}},{"base_weights":[6.979262E-2,-4.748966E-1,9.0426695E-1,-1.4521862E0,-1.7422701E-1,-7.707267E-2,9.834907E-1,-8.253966E-2,-7.8973943E-1,-8.274583E-2,4.3292534E-2,-9.347736E-1,1.0750525E0,-6.5659426E-2,6.58553E-2,-8.563595E-2,1.26003055E-2,-7.427086E-2,3.6658254E-2,-8.579922E-3,5.9656143E-2],"categories":[],"categories_nodes":[],"categories_segments":[],"categories_sizes":[],"default_left":[0,0,0,0,0,0,0,0,0,0,0,0,0,0,0,0,0,0,0,0,0],"id":5,"left_children":[1,3,5,7,9,-1,11,-1,13,-1,15,17,19,-1,-1,-1,-1,-1,-1,-1,-1],"loss_changes":[3.4967642E2,1.36435E2,6.113643E1,1.2429977E1,1.1533651E2,0E0,5.335193E1,0E0,3.3579132E1,0E0,1.1551062E2,1.4721054E1,4.1878082E1,0E0,0E0,0E0,0E0,0E0,0E0,0E0,0E0],"parents":[2147483647,0,0,1,1,2,2,3,3,4,4,6,6,8,8,10,10,11,11,12,12],"right_children":[2,4,6,8,10,-1,12,-1,14,-1,16,18,20,-1,-1,-1,-1,-1,-1,-1,-1],"split_conditions":[6.8928766E-1,-7.2809714E-1,-1.2297789E0,-4.906247E-1,-7.525101E-1,-7.707267E-2,-6.8491143E-1,-8.253966E-2,-4.142937E-1,-8.274583E-2,-1.1185203E0,6.647874E-1,-6.024382E-1,-6.5659426E-2,6.58553E-2,-8.563595E-2,1.26003055E-2,-7.427086E-2,3.6658254E-2,-8.579922E-3,5.9656143E-2],"split_indices":[5,4,13,5,13,0,3,0,3,0,8,4,6,0,0,0,0,0,0,0,0],"split_type":[0,0,0,0,0,0,0,0,0,0,0,0,0,0,0,0,0,0,0,0,0],"sum_hessian":[7.663985E2,4.641068E2,3.0229166E2,1.07840324E2,3.5626648E2,8.616169E0,2.936755E2,8.124459E1,2.6595734E1,4.4363697E1,3.119028E2,1.274968E1,2.809258E2,2.175558E1,4.8401527E0,3.198531E1,2.7991748E2,9.708663E0,3.0410166E0,2.4245764E1,2.5668005E2],"tree_param":{"num_deleted":"0","num_feature":"16","num_nodes":"21","size_leaf_vector":"1"}},{"base_weights":[-6.1319387E-3,-1.3219771E0,2.8652835E-1,-1.3772918E0,3.4851264E-2,-1.5659504E0,4.5502874E-1,-7.767629E-2,-5.271161E-1,-8.5976146E-2,2.3105828E-2,8.923459E-2,1.0989906E0,4.207277E-2,-7.738014E-2,1.2702304E-2,-7.1433716E-2,-4.0971834E-2,5.9780058E-2],"categories":[],"categories_nodes":[],"categories_segments":[],"categories_sizes":[],"default_left":[0,0,0,0,0,0,0,0,0,0,0,0,0,0,0,0,0,0,0],"id":6,"left_children":[1,3,5,7,-1,9,11,-1,13,-1,-1,15,17,-1,-1,-1,-1,-1,-1],"loss_changes":[2.819318E2,1.6316162E1,1.8802103E2,1.8272705E1,0E0,1.6850006E1,1.2944641E2,0E0,3.6334797E1,0E0,0E0,8.8726295E1,3.838324E1,0E0,0E0,0E0,0E0,0E0,0E0],"parents":[2147483647,0,0,1,1,2,2,3,3,5,5,6,6,8,8,11,11,12,12],"right_children":[2,4,6,8,-1,10,12,-1,14,-1,-1,16,18,-1,-1,-1,-1,-1,-1],"split_conditions":[-6.0443455E-1,9.5133173E-1,-1.0202557E0,9.6392536E-1,3.4851264E-2,1.1883035E0,7.1044314E-1,-7.767629E-2,-7.3797874E-2,-8.5976146E-2,2.3105828E-2,9.300648E-1,-5.7029843E-1,4.207277E-2,-7.738014E-2,1.2702304E-2,-7.1433716E-2,-4.0971834E-2,5.9780058E-2],"split_indices":[3,4,6,13,0,10,0,0,5,0,0,10,6,0,0,0,0,0,0],"split_type":[0,0,0,0,0,0,0,0,0,0,0,0,0,0,0,0,0,0,0],"sum_hessian":[7.291331E2,1.3170259E2,5.9743054E2,1.2865459E2,3.0480037E0,4.8773926E1,5.486566E2,1.0553679E2,2.3117798E1,4.555272E1,3.2212086E0,3.5098947E2,1.9766713E2,9.987179E0,1.3130619E1,3.1773895E2,3.3250504E1,8.939023E0,1.887281E2],"tree_param":{"num_deleted":"0","num_feature":"16","num_nodes":"19","size_leaf_vector":"1"}},{"base_weights":[-2.1050638E-2,-4.5850185E-1,1.0202769E0,-1.4957979E0,-2.1631032E-1,-7.848283E-2,1.1560591E0,-7.843405E-2,-9.0684503E-1,-8.061069E-2,-7.034576E-2,-6.22592E-1,1.2950847E0,4.2054527E-2,-7.441134E-2,6.0991603E-3,-5.40087E-2,2.4929694E-3,-7.382679E-2,7.6502755E-2,4.3906536E-2],"categories":[],"categories_nodes":[],"categories_segments":[],"categories_sizes":[],"default_left":[0,0,0,0,0,0,0,0,0,0,0,0,0,0,0,0,0,0,0,0,0],"id":7,"left_children":[1,3,5,7,9,-1,11,-1,13,-1,15,17,19,-1,-1,-1,-1,-1,-1,-1,-1],"loss_changes":[3.3139172E2,1.2819977E2,7.8405426E1,2.017212E0,8.479999E1,0E0,5.1989655E1,0E0,1.6312744E1,0E0,7.3829216E1,9.241192E0,1.6692902E1,0E0,0E0,0E0,0E0,0E0,0E0,0E0,0E0],"parents":[2147483647,0,0,1,1,2,2,3,3,4,4,6,6,8,8,10,10,11,11,12,12],"right_children":[2,4,6,8,10,-1,12,-1,14,-1,16,18,20,-1,-1,-1,-1,-1,-1,-1,-1],"split_conditions":[1.009037E0,-7.619651E-1,-7.8609425E-1,-4.819354E-1,-1.1185203E0,-7.848283E-2,-4.2588657E-1,-7.843405E-2,-4.3538597E-1,-8.061069E-2,9.078149E-1,7.1529377E-1,9.6392536E-1,4.2054527E-2,-7.441134E-2,6.0991603E-3,-5.40087E-2,2.4929694E-3,-7.382679E-2,7.6502755E-2,4.3906536E-2],"split_indices":[11,4,6,10,8,0,3,0,10,0,8,6,13,0,0,0,0,0,0,0,0],"split_type":[0,0,0,0,0,0,0,0,0,0,0,0,0,0,0,0,0,0,0,0,0],"sum_hessian":[7.244456E2,5.1073187E2,2.1371376E2,9.52057E1,4.1552615E2,9.857121E0,2.0385664E2,8.250093E1,1.2704773E1,3.7910324E1,3.7761584E2,1.4400725E1,1.8945592E2,3.0037816E0,9.700992E0,3.183102E2,5.9305637E1,8.846685E0,5.5540404E0,1.18610016E2,7.08459E1],"tree_param":{"num_deleted":"0","num_feature":"16","num_nodes":"21","size_leaf_vector":"1"}},{"base_weights":[-6.0985107E-3,-1.2504647E0,2.7321994E-1,-1.3032026E0,3.3930603E-2,-1.2546159E0,4.4560322E-1,-8.7150836E-1,-1.4698354E0,-2.3245026E-1,-1.4809285E0,1.2245241E-1,1.078931E0,-7.413042E-2,4.634709E-2,-7.7817656E-2,-3.0540923E-2,-6.2618695E-2,2.5199104E-2,-8.16498E-2,-3.2530557E-2,1.0419721E-2,-8.2908146E-2,1.43777E-2,6.494419E-2],"categories":[],"categories_nodes":[],"categories_segments":[],"categories_sizes":[],"default_left":[0,0,0,0,0,0,0,0,0,0,0,0,0,0,0,0,0,0,0,0,0,0,0,0,0],"id":8,"left_children":[1,3,5,7,-1,9,11,13,15,17,19,21,23,-1,-1,-1,-1,-1,-1,-1,-1,-1,-1,-1,-1],"loss_changes":[2.5374731E2,1.4941803E1,1.578742E2,7.4862976E0,0E0,1.3559067E1,1.0968421E2,4.6140892E1,5.424469E0,1.0567565E1,4.6610947E0,5.5180305E1,3.0980911E1,0E0,0E0,0E0,0E0,0E0,0E0,0E0,0E0,0E0,0E0,0E0,0E0],"parents":[2147483647,0,0,1,1,2,2,3,3,5,5,6,6,7,7,8,8,9,9,10,10,11,11,12,12],"right_children":[2,4,6,8,-1,10,12,14,16,18,20,22,24,-1,-1,-1,-1,-1,-1,-1,-1,-1,-1,-1,-1],"split_conditions":[-6.0443455E-1,9.5133173E-1,-9.7893304E-1,-5.289758E-1,3.3930603E-2,-1.906396E0,1.009037E0,-6.2539524E-1,1.2203479E0,-5.4624015E-1,4.8911798E-1,1.8515881E0,-8.046786E-2,-7.413042E-2,4.634709E-2,-7.7817656E-2,-3.0540923E-2,-6.2618695E-2,2.5199104E-2,-8.16498E-2,-3.2530557E-2,1.0419721E-2,-8.2908146E-2,1.43777E-2,6.494419E-2],"split_indices":[3,4,6,6,0,6,11,6,6,0,8,3,8,0,0,0,0,0,0,0,0,0,0,0,0],"split_type":[0,0,0,0,0,0,0,0,0,0,0,0,0,0,0,0,0,0,0,0,0,0,0,0,0],"sum_hessian":[7.270773E2,1.3233011E2,5.9474713E2,1.2928241E2,3.047711E0,5.934595E1,5.354012E2,3.8607487E1,9.067492E1,1.1308871E1,4.803708E1,3.556986E2,1.7970258E2,2.9012634E1,9.594852E0,8.127179E1,9.403125E0,4.3011246E0,7.0077467E0,3.9375607E1,8.661473E0,3.4058463E2,1.5113984E1,3.9836014E1,1.3986656E2],"tree_param":{"num_deleted":"0","num_feature":"16","num_nodes":"25","size_leaf_vector":"1"}},{"base_weights":[2.2415942E-2,-3.652392E-1,9.8036325E-1,-1.3556834E0,-1.2868059E-1,4.5128873E-1,1.3217384E0,-1.4302074E0,4.0084957E-3,5.104895E-2,-1.1454474E0,-8.12246E-2,8.462208E-1,-2.4266507E-2,1.3987557E0,-7.5027935E-2,-4.7410466E-2,-1.1532024E-2,4.473009E-2,2.8189668E-2,-6.9253586E-2,-2.906606E-2,5.9393235E-2,1.5178685E-2,7.2637655E-2],"categories":[],"categories_nodes":[],"categories_segments":[],"categories_sizes":[],"default_left":[0,0,0,0,0,0,0,0,0,0,0,0,0,0,0,0,0,0,0,0,0,0,0,0,0],"id":9,"left_children":[1,3,5,7,9,11,13,15,-1,17,19,-1,21,-1,23,-1,-1,-1,-1,-1,-1,-1,-1,-1,-1],"loss_changes":[2.6820636E2,1.2022221E2,3.6683792E1,1.0763779E1,7.624578E1,7.0822586E1,1.8510605E1,1.0592804E0,0E0,8.48034E1,2.6837502E1,0E0,3.5885036E1,0E0,6.490158E0,0E0,0E0,0E0,0E0,0E0,0E0,0E0,0E0,0E0,0E0],"parents":[2147483647,0,0,1,1,2,2,3,3,4,4,5,5,6,6,7,7,9,9,10,10,12,12,14,14],"right_children":[2,4,6,8,10,12,14,16,-1,18,20,-1,22,-1,24,-1,-1,-1,-1,-1,-1,-1,-1,-1,-1],"split_conditions":[1.009037E0,-7.2809714E-1,1.2814023E0,-1.2008036E-1,9.417022E-1,9.545469E-2,1.3183951E0,-4.6586478E-1,4.0084957E-3,5.344523E-1,2.720583E-1,-8.12246E-2,-2.3243766E-1,-2.4266507E-2,3.4736568E-1,-7.5027935E-2,-4.7410466E-2,-1.1532024E-2,4.473009E-2,2.8189668E-2,-6.9253586E-2,-2.906606E-2,5.9393235E-2,1.5178685E-2,7.2637655E-2],"split_indices":[11,4,10,3,10,6,1,10,0,5,5,0,3,0,4,0,0,0,0,0,0,0,0,0,0],"split_type":[0,0,0,0,0,0,0,0,0,0,0,0,0,0,0,0,0,0,0,0,0,0,0,0,0],"sum_hessian":[7.192943E2,5.127333E2,2.0656107E2,9.74837E1,4.1524954E2,8.2375595E1,1.2418547E2,9.267934E1,4.8043613E0,3.5408426E2,6.116528E1,1.2420878E1,6.995471E1,4.75135E0,1.1943412E2,7.810895E1,1.4570392E1,2.6626102E2,8.782324E1,7.271119E0,5.389416E1,1.3305603E1,5.6649113E1,6.0786815E0,1.1335544E2],"tree_param":{"num_deleted":"0","num_feature":"16","num_nodes":"25","size_leaf_vector":"1"}},{"base_weights":[2.7577478E-2,-3.421906E-1,9.5017993E-1,-7.167373E-2,-1.490743E-1,-6.3423574E-1,1.0794663E0,-8.050452E-2,-2.0569379E-2,-7.1474485E-2,3.1300146E-2,-3.8868606E-1,1.1811327E0,-7.421976E-2,4.277786E-3,-6.712085E-2,1.9944537E-2,6.1064005E-2,-1.7904876E-2],"categories":[],"categories_nodes":[],"categories_segments":[],"categories_sizes":[],"default_left":[0,0,0,0,0,0,0,0,0,0,0,0,0,0,0,0,0,0,0],"id":10,"left_children":[1,3,5,-1,7,9,11,-1,13,-1,-1,15,17,-1,-1,-1,-1,-1,-1],"loss_changes":[2.4614444E2,1.0824689E2,4.3311844E1,0E0,8.2442535E1,1.7896952E1,2.9258423E1,0E0,6.3165073E1,0E0,0E0,1.0962135E1,1.1741135E1,0E0,0E0,0E0,0E0,0E0,0E0],"parents":[2147483647,0,0,1,1,2,2,4,4,5,5,6,6,8,8,11,11,12,12],"right_children":[2,4,6,-1,8,10,12,-1,14,-1,-1,16,18,-1,-1,-1,-1,-1,-1],"split_conditions":[1.009037E0,-8.764975E-1,-5.7029843E-1,-7.167373E-2,-1.0202557E0,1.2564652E0,-4.6982828E-1,-8.050452E-2,-9.397792E-1,-7.1474485E-2,3.1300146E-2,1.1157085E0,1.1285199E0,-7.421976E-2,4.277786E-3,-6.712085E-2,1.9944537E-2,6.1064005E-2,-1.7904876E-2],"split_indices":[11,10,6,0,6,10,3,0,3,0,0,10,6,0,0,0,0,0,0],"split_type":[0,0,0,0,0,0,0,0,0,0,0,0,0,0,0,0,0,0,0],"sum_hessian":[7.185864E2,5.136609E2,2.049255E2,7.578304E1,4.3787787E2,1.5018158E1,1.8990735E2,3.400212E1,4.0387573E2,9.08424E0,5.933918E0,1.2024734E1,1.7788261E2,2.5984213E1,3.778915E2,4.96072E0,7.064013E0,1.7366286E2,4.2197695E0],"tree_param":{"num_deleted":"0","num_feature":"16","num_nodes":"19","size_leaf_vector":"1"}},{"base_weights":[3.1871595E-3,-4.0495437E-1,7.012312E-1,-7.01553E-2,-1.837385E-1,-7.205065E-2,7.8604484E-1,-7.730613E-2,-3.2202777E-2,3.2802418E-1,1.1329936E0,1.3661198E-2,-4.5553636E-2,3.2044828E-2,-5.582731E-2,6.310097E-2,-2.5239244E-2],"categories":[],"categories_nodes":[],"categories_segments":[],"categories_sizes":[],"default_left":[0,0,0,0,0,0,0,0,0,0,0,0,0,0,0,0,0],"id":11,"left_children":[1,3,5,-1,7,-1,9,-1,11,13,15,-1,-1,-1,-1,-1,-1],"loss_changes":[2.0126726E2,9.804938E1,4.9057007E1,0E0,7.562033E1,0E0,3.943921E1,0E0,8.935346E1,5.1057995E1,3.108931E1,0E0,0E0,0E0,0E0,0E0,0E0],"parents":[2147483647,0,0,1,1,2,2,4,4,6,6,8,8,9,9,10,10],"right_children":[2,4,6,-1,8,-1,10,-1,12,14,16,-1,-1,-1,-1,-1,-1],"split_conditions":[6.8928766E-1,-8.764975E-1,-1.2554663E0,-7.01553E-2,-7.525101E-1,-7.205065E-2,7.764952E-1,-7.730613E-2,3.0930468E-1,6.984664E-1,1.1075194E0,1.3661198E-2,-4.5553636E-2,3.2044828E-2,-5.582731E-2,6.310097E-2,-2.5239244E-2],"split_indices":[5,10,13,0,13,0,2,0,13,8,13,0,0,0,0,0,0],"split_type":[0,0,0,0,0,0,0,0,0,0,0,0,0,0,0,0,0],"sum_hessian":[7.034518E2,4.443015E2,2.5915024E2,7.915064E1,3.6515088E2,8.955844E0,2.5019441E2,3.5167995E1,3.2998288E2,1.0909371E2,1.411007E2,2.4564833E2,8.433456E1,9.0358025E1,1.8735687E1,1.3111545E2,9.985254E0],"tree_param":{"num_deleted":"0","num_feature":"16","num_nodes":"17","size_leaf_vector":"1"}},{"base_weights":[-1.4832555E-2,-1.125868E0,2.2097668E-1,-1.2348317E0,-2.6423332E-1,-1.2671797E0,3.847989E-1,-1.2962738E0,2.4361648E-2,-6.1108228E-2,6.333441E-1,2.6084173E-3,-1.3994881E0,8.7270096E-2,9.888565E-1,-4.6831712E-2,-7.234433E-2,4.185328E-2,1.5522592E-2,-7.677878E-2,-2.6299236E-2,2.1521898E-2,-2.0442834E-2,1.639325E-2,6.2513545E-2],"categories":[],"categories_nodes":[],"categories_segments":[],"categories_sizes":[],"default_left":[0,0,0,0,0,0,0,0,0,0,0,0,0,0,0,0,0,0,0,0,0,0,0,0,0],"id":12,"left_children":[1,3,5,7,9,11,13,15,-1,-1,17,-1,19,21,23,-1,-1,-1,-1,-1,-1,-1,-1,-1,-1],"loss_changes":[1.8165378E2,1.0907623E1,1.4019066E2,1.2306335E1,1.4519435E1,1.0072929E1,9.269152E1,3.6040802E0,0E0,0E0,2.0279741E-1,0E0,4.9613876E0,5.945679E1,2.8810059E1,0E0,0E0,0E0,0E0,0E0,0E0,0E0,0E0,0E0,0E0],"parents":[2147483647,0,0,1,1,2,2,3,3,4,4,5,5,6,6,7,7,10,10,12,12,13,13,14,14],"right_children":[2,4,6,8,10,12,14,16,-1,-1,18,-1,20,22,24,-1,-1,-1,-1,-1,-1,-1,-1,-1,-1],"split_conditions":[-6.0443455E-1,1.0826058E0,-9.7893304E-1,9.5133173E-1,-9.082501E-1,-5.259777E-1,9.5680344E-1,-5.289758E-1,2.4361648E-2,-6.1108228E-2,-6.329727E-1,2.6084173E-3,4.8911798E-1,1.777338E-1,1.5574041E-1,-4.6831712E-2,-7.234433E-2,4.185328E-2,1.5522592E-2,-7.677878E-2,-2.6299236E-2,2.1521898E-2,-2.0442834E-2,1.639325E-2,6.2513545E-2],"split_indices":[3,6,6,4,3,3,0,6,0,0,2,0,8,3,8,0,0,0,0,0,0,0,0,0,0],"split_type":[0,0,0,0,0,0,0,0,0,0,0,0,0,0,0,0,0,0,0,0,0,0,0,0,0],"sum_hessian":[6.9043066E2,1.1989121E2,5.705394E2,1.05854935E2,1.4036272E1,5.5576996E1,5.1496246E2,1.02566315E2,3.2886198E0,6.527461E0,7.508811E0,5.1482644E0,5.042873E1,3.46172E2,1.6879045E2,3.3471016E1,6.90953E1,3.1394491E0,4.369362E0,4.2647533E1,7.781195E0,2.0474779E2,1.414242E2,4.8794315E1,1.1999613E2],"tree_param":{"num_deleted":"0","num_feature":"16","num_nodes":"25","size_leaf_vector":"1"}},{"base_weights":[1.8040758E-2,-3.0801815E-1,8.456404E-1,-1.3021168E0,-1.0795003E-1,5.069325E-2,1.1653316E0,-6.911882E-2,-7.0043606E-1,-7.40108E-2,2.4897518E-2,4.9882025E-1,-8.296278E-2,1.2285105E0,-5.8545577E-3,3.7909243E-2,-6.472638E-2,8.286525E-3,-6.330391E-2,-7.576506E-2,4.4396043E-2,-7.0771486E-3,6.3746E-2],"categories":[],"categories_nodes":[],"categories_segments":[],"categories_sizes":[],"default_left":[0,0,0,0,0,0,0,0,0,0,0,0,0,0,0,0,0,0,0,0,0,0,0],"id":13,"left_children":[1,3,5,7,9,11,13,-1,15,-1,17,19,-1,21,-1,-1,-1,-1,-1,-1,-1,-1,-1],"loss_changes":[1.8958829E2,1.000423E2,5.0373306E1,2.6192322E0,7.68509E1,4.6082294E1,1.1683929E1,0E0,1.2706234E1,0E0,7.041199E1,3.9259346E1,0E0,8.856247E0,0E0,0E0,0E0,0E0,0E0,0E0,0E0,0E0,0E0],"parents":[2147483647,0,0,1,1,2,2,3,3,4,4,5,5,6,6,8,8,10,10,11,11,13,13],"right_children":[2,4,6,8,10,12,14,-1,16,-1,18,20,-1,22,-1,-1,-1,-1,-1,-1,-1,-1,-1],"split_conditions":[1.009037E0,-7.855045E-1,1.5516441E-2,-5.384598E-1,-1.1185203E0,1.2793462E0,1.1827329E0,-6.911882E-2,-3.6334512E-1,-7.40108E-2,1.1622579E0,-2.2438703E-1,-8.296278E-2,-5.520617E-1,-5.8545577E-3,3.7909243E-2,-6.472638E-2,8.286525E-3,-6.330391E-2,-7.576506E-2,4.4396043E-2,-7.0771486E-3,6.3746E-2],"split_indices":[11,4,8,10,8,4,8,0,10,0,10,3,0,3,0,0,0,0,0,0,0,0,0],"split_type":[0,0,0,0,0,0,0,0,0,0,0,0,0,0,0,0,0,0,0,0,0,0,0],"sum_hessian":[6.996311E2,5.025697E2,1.9706142E2,8.281515E1,4.1975455E2,5.7017933E1,1.4004349E2,7.1351166E1,1.1463983E1,3.5706486E1,3.8404807E2,4.6019905E1,1.099803E1,1.3352823E2,6.5152473E0,3.1979716E0,8.266011E0,3.4745187E2,3.6596203E1,6.7480536E0,3.927185E1,4.2742133E0,1.2925401E2],"tree_param":{"num_deleted":"0","num_feature":"16","num_nodes":"23","size_leaf_vector":"1"}},{"base_weights":[-4.5821797E-2,-1.2213665E0,1.4106095E-1,-6.845503E-2,-4.6110278E-1,-6.25701E-2,9.9288225E-1,5.7537634E-2,-6.610013E-2,-1.2931381E0,6.172288E-2,-6.1463762E-2,1.1049405E0,3.8821187E-2,-7.3957115E-2,2.2199301E-2,-1.8420897E-2,-1.17400065E-2,6.112668E-2],"categories":[],"categories_nodes":[],"categories_segments":[],"categories_sizes":[],"default_left":[0,0,0,0,0,0,0,0,0,0,0,0,0,0,0,0,0,0,0],"id":14,"left_children":[1,3,5,-1,7,9,11,-1,-1,13,15,-1,17,-1,-1,-1,-1,-1,-1],"loss_changes":[1.4654391E2,9.329208E0,9.99842E1,0E0,2.607714E1,7.142349E1,2.9726303E1,0E0,0E0,1.8212135E1,7.010241E1,0E0,1.7232224E1,0E0,0E0,0E0,0E0,0E0,0E0],"parents":[2147483647,0,0,1,1,2,2,4,4,5,5,6,6,9,9,10,10,12,12],"right_children":[2,4,6,-1,8,10,12,-1,-1,14,16,-1,18,-1,-1,-1,-1,-1,-1],"split_conditions":[-7.2809714E-1,-5.733718E-1,1.478614E0,-6.845503E-2,-2.1886556E-1,-1.0202557E0,8.139318E-1,5.7537634E-2,-6.610013E-2,-7.137453E-1,-2.393345E-2,-6.1463762E-2,1.2692108E0,3.8821187E-2,-7.3957115E-2,2.2199301E-2,-1.8420897E-2,-1.17400065E-2,6.112668E-2],"split_indices":[4,10,5,0,5,6,14,0,0,4,2,0,10,0,0,0,0,0,0],"split_type":[0,0,0,0,0,0,0,0,0,0,0,0,0,0,0,0,0,0,0],"sum_hessian":[6.6437524E2,8.999271E1,5.743825E2,7.4344826E1,1.5647886E1,4.6468716E2,1.0969537E2,5.2720475E0,1.0375839E1,4.1335667E1,4.2335147E2,4.5481853E0,1.0514719E2,3.0160847E0,3.8319584E1,2.2412494E2,1.9922655E2,8.363749E0,9.678344E1],"tree_param":{"num_deleted":"0","num_feature":"16","num_nodes":"19","size_leaf_vector":"1"}},{"base_weights":[-1.0426542E-2,-1.0361377E0,1.9506405E-1,-6.718434E-2,-4.7967386E-1,-7.147158E-2,8.275379E-1,7.023389E-2,-7.9418194E-1,-1.2559887E0,7.116372E-2,-5.93029E-1,9.576933E-1,3.1912334E-2,-5.8176953E-2,1.0934341E-2,-7.17052E-2,-7.4329756E-2,7.7245953E-3,-6.6387124E-2,3.1932507E-2,5.3131897E-2,-1.1627486E-3],"categories":[],"categories_nodes":[],"categories_segments":[],"categories_sizes":[],"default_left":[0,0,0,0,0,0,0,0,0,0,0,0,0,0,0,0,0,0,0,0,0,0,0],"id":15,"left_children":[1,3,5,-1,7,9,11,-1,13,15,17,19,21,-1,-1,-1,-1,-1,-1,-1,-1,-1,-1],"loss_changes":[1.4391832E2,1.8536316E1,9.599379E1,0E0,2.7096172E1,6.798973E1,3.20599E1,0E0,2.1070656E1,1.1829163E1,4.705848E1,1.4930168E1,1.6013641E1,0E0,0E0,0E0,0E0,0E0,0E0,0E0,0E0,0E0,0E0],"parents":[2147483647,0,0,1,1,2,2,4,4,5,5,6,6,8,8,9,9,10,10,11,11,12,12],"right_children":[2,4,6,-1,8,10,12,-1,14,16,18,20,22,-1,-1,-1,-1,-1,-1,-1,-1,-1,-1],"split_conditions":[-6.0443455E-1,-5.32434E-1,1.009037E0,-6.718434E-2,-5.189054E-1,-1.0202557E0,-5.7029843E-1,7.023389E-2,-6.548252E-2,-5.259777E-1,-1.1185203E0,1.4784047E-1,9.632294E-1,3.1912334E-2,-5.8176953E-2,1.0934341E-2,-7.17052E-2,-7.4329756E-2,7.7245953E-3,-6.6387124E-2,3.1932507E-2,5.3131897E-2,-1.1627486E-3],"split_indices":[3,14,11,0,14,6,6,0,0,3,8,8,6,0,0,0,0,0,0,0,0,0,0],"split_type":[0,0,0,0,0,0,0,0,0,0,0,0,0,0,0,0,0,0,0,0,0,0,0],"sum_hessian":[6.7987024E2,1.12460014E2,5.674102E2,7.106272E1,4.1397293E1,4.0012216E2,1.6728806E2,5.1774697E0,3.6219826E1,4.174465E1,3.5837753E2,1.3593106E1,1.5369495E2,7.201031E0,2.9018793E1,4.4618483E0,3.7282806E1,1.6914427E1,3.414631E2,8.440965E0,5.1521416E0,1.3872847E2,1.496648E1],"tree_param":{"num_deleted":"0","num_feature":"16","num_nodes":"23","size_leaf_vector":"1"}},{"base_weights":[-3.1289868E-2,-4.509719E-1,6.634667E-1,-6.5802954E-2,-2.5853607E-1,-6.309342E-2,7.527001E-1,-2.6764607E-3,-9.7342604E-1,-6.769736E-2,8.180387E-1,-7.245638E-2,6.8163103E-3,-8.269044E-2,-2.518329E-2,1.9071193E-2,5.608627E-2],"categories":[],"categories_nodes":[],"categories_segments":[],"categories_sizes":[],"default_left":[0,0,0,0,0,0,0,0,0,0,0,0,0,0,0,0,0],"id":16,"left_children":[1,3,5,-1,7,-1,9,11,13,-1,15,-1,-1,-1,-1,-1,-1],"loss_changes":[1.9076753E2,6.737917E1,4.3759506E1,0E0,6.1356937E1,0E0,3.4205994E1,5.0270493E1,2.7009384E1,0E0,2.9889389E1,0E0,0E0,0E0,0E0,0E0,0E0],"parents":[2147483647,0,0,1,1,2,2,4,4,6,6,7,7,8,8,10,10],"right_children":[2,4,6,-1,8,-1,10,12,14,-1,16,-1,-1,-1,-1,-1,-1],"split_conditions":[6.8928766E-1,-8.6208934E-1,-7.0060277E-1,-6.5802954E-2,1.5925883E-1,-6.309342E-2,-1.2297789E0,-7.525101E-1,7.925284E-2,-6.769736E-2,7.764952E-1,-7.245638E-2,6.8163103E-3,-8.269044E-2,-2.518329E-2,1.9071193E-2,5.608627E-2],"split_indices":[5,10,3,0,1,0,13,13,3,0,2,0,0,0,0,0,0],"split_type":[0,0,0,0,0,0,0,0,0,0,0,0,0,0,0,0,0],"sum_hessian":[6.512223E2,4.063092E2,2.4491312E2,7.2341705E1,3.339675E2,9.975072E0,2.3493803E2,2.4705276E2,8.6914734E1,6.177579E0,2.2876045E2,2.042053E1,2.2663223E2,3.3954918E1,5.2959816E1,9.523035E1,1.335301E2],"tree_param":{"num_deleted":"0","num_feature":"16","num_nodes":"17","size_leaf_vector":"1"}},{"base_weights":[-6.4755683E-3,-3.030363E-1,6.918526E-1,-6.369271E-2,-1.3793288E-1,-9.78312E-1,8.233211E-1,-1.2240509E-2,-7.710563E-2,-8.338603E-3,-6.943127E-2,-7.2110705E-2,8.7392837E-1,-1.1779527E-2,2.7920205E-2,4.673645E-2,-8.588874E-3],"categories":[],"categories_nodes":[],"categories_segments":[],"categories_sizes":[],"default_left":[0,0,0,0,0,0,0,0,0,0,0,0,0,0,0,0,0],"id":17,"left_children":[1,3,5,-1,7,9,11,13,-1,-1,-1,-1,15,-1,-1,-1,-1],"loss_changes":[1.3579332E2,7.3503494E1,4.41257E1,0E0,6.968941E1,4.630229E0,2.2758461E1,4.65995E1,0E0,0E0,0E0,0E0,1.1619476E1,0E0,0E0,0E0,0E0],"parents":[2147483647,0,0,1,1,2,2,4,4,5,5,6,6,7,7,12,12],"right_children":[2,4,6,-1,8,10,12,14,-1,-1,-1,-1,16,-1,-1,-1,-1],"split_conditions":[7.727881E-1,-8.764975E-1,-4.6982828E-1,-6.369271E-2,1.110721E0,-1.097147E0,-9.194417E-1,4.594515E-1,-7.710563E-2,-8.338603E-3,-6.943127E-2,-7.2110705E-2,2.444782E0,-1.1779527E-2,2.7920205E-2,4.673645E-2,-8.588874E-3],"split_indices":[11,10,3,0,10,2,8,5,0,0,0,0,1,0,0,0,0],"split_type":[0,0,0,0,0,0,0,0,0,0,0,0,0,0,0,0,0],"sum_hessian":[6.5268146E2,4.587234E2,1.9395808E2,6.521021E1,3.9351318E2,1.3448413E1,1.8050967E2,3.6257138E2,3.0941788E1,5.2245965E0,8.223817E0,3.0428567E0,1.7746681E2,2.6121335E2,1.01358055E2,1.6786575E2,9.601051E0],"tree_param":{"num_deleted":"0","num_feature":"16","num_nodes":"17","size_leaf_vector":"1"}},{"base_weights":[4.569489E-2,-2.7083936E-1,6.205864E-1,-6.275504E-2,-1.01811476E-1,6.9754225E-1,-1.1357164E0,-7.203623E-2,4.1463073E-2,3.299856E-1,1.1022419E0,-7.924365E-2,-2.709865E-4,-7.295012E-2,6.808668E-3,2.8366083E-2,-8.05909E-2,1.5680399E-2,6.1136942E-2],"categories":[],"categories_nodes":[],"categories_segments":[],"categories_sizes":[],"default_left":[0,0,0,0,0,0,0,0,0,0,0,0,0,0,0,0,0,0,0],"id":18,"left_children":[1,3,5,-1,7,9,11,-1,13,15,17,-1,-1,-1,-1,-1,-1,-1,-1],"loss_changes":[1.2318905E2,7.246658E1,3.367286E1,0E0,7.190337E1,3.384326E1,5.39892E0,0E0,4.8562424E1,5.8192574E1,9.820129E0,0E0,0E0,0E0,0E0,0E0,0E0,0E0,0E0],"parents":[2147483647,0,0,1,1,2,2,4,4,5,5,6,6,8,8,9,9,10,10],"right_children":[2,4,6,-1,8,10,12,-1,14,16,18,-1,-1,-1,-1,-1,-1,-1,-1],"split_conditions":[7.1011055E-1,-8.764975E-1,1.1827329E0,-6.275504E-2,-7.525101E-1,1.2814023E0,9.050395E-1,-7.203623E-2,-1.1185203E0,1.5926107E0,1.137586E0,-7.924365E-2,-2.709865E-4,-7.295012E-2,6.808668E-3,2.8366083E-2,-8.05909E-2,1.5680399E-2,6.1136942E-2],"split_indices":[5,10,8,0,13,10,2,0,8,14,0,0,0,0,0,0,0,0,0],"split_type":[0,0,0,0,0,0,0,0,0,0,0,0,0,0,0,0,0,0,0],"sum_hessian":[6.740784E2,4.3523315E2,2.3884529E2,6.2375877E1,3.7285727E2,2.2968542E2,9.159865E0,3.4728924E1,3.3812836E2,1.2179329E2,1.0789213E2,6.123321E0,3.0365438E0,1.8792784E1,3.1933557E2,1.0947457E2,1.2318725E1,1.5016356E1,9.287577E1],"tree_param":{"num_deleted":"0","num_feature":"16","num_nodes":"19","size_leaf_vector":"1"}},{"base_weights":[-2.9359398E-2,-3.6316955E-1,5.7603604E-1,-6.280937E-2,-1.9050574E-1,-6.629228E-2,6.417341E-1,6.408748E-2,-9.343522E-1,1.7272407E-1,9.2245615E-1,-6.882607E-2,9.5126415E-3,-7.8984424E-2,-3.0156424E-2,3.4962665E-2,-3.7156146E-2,5.2376684E-2,-3.275631E-2],"categories":[],"categories_nodes":[],"categories_segments":[],"categories_sizes":[],"default_left":[0,0,0,0,0,0,0,0,0,0,0,0,0,0,0,0,0,0,0],"id":19,"left_children":[1,3,5,-1,7,-1,9,11,13,15,17,-1,-1,-1,-1,-1,-1,-1,-1],"loss_changes":[1.2956903E2,6.3352478E1,2.9753075E1,0E0,6.5996704E1,0E0,2.8898537E1,4.7772644E1,1.7559952E1,4.1628E1,2.8278748E1,0E0,0E0,0E0,0E0,0E0,0E0,0E0,0E0],"parents":[2147483647,0,0,1,1,2,2,4,4,6,6,7,7,8,8,9,9,10,10],"right_children":[2,4,6,-1,8,-1,10,12,14,16,18,-1,-1,-1,-1,-1,-1,-1,-1],"split_conditions":[7.1011055E-1,-8.6208934E-1,-1.2297789E0,-6.280937E-2,1.5925883E-1,-6.629228E-2,6.564235E-1,-7.525101E-1,2.3778811E-1,-9.590514E-2,1.1075194E0,-6.882607E-2,9.5126415E-3,-7.8984424E-2,-3.0156424E-2,3.4962665E-2,-3.7156146E-2,5.2376684E-2,-3.275631E-2],"split_indices":[5,10,13,0,1,0,2,13,6,2,13,0,0,0,0,0,0,0,0],"split_type":[0,0,0,0,0,0,0,0,0,0,0,0,0,0,0,0,0,0,0],"sum_hessian":[6.3810144E2,4.1169583E2,2.264056E2,6.517864E1,3.4651718E2,6.599073E0,2.1980652E2,2.5917963E2,8.733756E1,8.320932E1,1.365972E2,1.9673512E1,2.395061E2,2.770498E1,5.963258E1,5.3059593E1,3.0149727E1,1.27029724E2,9.567474E0],"tree_param":{"num_deleted":"0","num_feature":"16","num_nodes":"19","size_leaf_vector":"1"}},{"base_weights":[2.2805282E-3,-9.590397E-1,1.869538E-1,-1.1364524E0,-2.5965428E-1,-7.739765E-2,7.29019E-1,-7.394835E-1,-6.5748855E-2,1.0225195E0,-6.281424E-2,-1.1678376E0,4.83417E-2,1.0432614E0,2.1710016E-1,-6.215735E-2,3.898604E-2,9.812689E-3,8.237024E-2,1.6707476E-2,-6.816413E-2,7.642869E-3,-6.649163E-2,5.6701463E-2,-4.0679447E-2,4.1581627E-2,-3.0485341E-2],"categories":[],"categories_nodes":[],"categories_segments":[],"categories_sizes":[],"default_left":[0,0,0,0,0,0,0,0,0,0,0,0,0,0,0,0,0,0,0,0,0,0,0,0,0,0,0],"id":20,"left_children":[1,3,5,7,9,11,13,15,-1,17,-1,19,21,23,25,-1,-1,-1,-1,-1,-1,-1,-1,-1,-1,-1,-1],"loss_changes":[1.1603739E2,1.262664E1,7.865029E1,4.464096E0,3.1645588E1,5.080238E1,2.8596046E1,2.3913668E1,0E0,5.193654E0,0E0,1.1927498E1,4.8284706E1,2.0102676E1,3.648609E1,0E0,0E0,0E0,0E0,0E0,0E0,0E0,0E0,0E0,0E0,0E0,0E0],"parents":[2147483647,0,0,1,1,2,2,3,3,4,4,5,5,6,6,7,7,9,9,11,11,12,12,13,13,14,14],"right_children":[2,4,6,8,10,12,14,16,-1,18,-1,20,22,24,26,-1,-1,-1,-1,-1,-1,-1,-1,-1,-1,-1,-1],"split_conditions":[-6.0443455E-1,9.6392536E-1,8.0224437E-1,-5.289758E-1,-7.3797874E-2,-1.0202557E0,9.6392536E-1,-6.2539524E-1,-6.5748855E-2,-1.0098006E-1,-6.281424E-2,-5.259777E-1,1.0580637E0,9.632294E-1,-1.5152639E-1,-6.215735E-2,3.898604E-2,9.812689E-3,8.237024E-2,1.6707476E-2,-6.816413E-2,7.642869E-3,-6.649163E-2,5.6701463E-2,-4.0679447E-2,4.1581627E-2,-3.0485341E-2],"split_indices":[3,13,11,6,5,6,13,6,0,5,0,3,4,6,2,0,0,0,0,0,0,0,0,0,0,0,0],"split_type":[0,0,0,0,0,0,0,0,0,0,0,0,0,0,0,0,0,0,0,0,0,0,0,0,0,0,0],"sum_hessian":[6.506059E2,1.0382953E2,5.4677637E2,8.207278E1,2.1756752E1,3.6840192E2,1.7837444E2,2.7852657E1,5.4220116E1,9.498231E0,1.2258521E1,3.680335E1,3.3159857E2,1.09562416E2,6.881202E1,2.1122469E1,6.730189E0,4.9388466E0,4.5593843E0,4.115025E0,3.268832E1,3.0946362E2,2.213495E1,1.0501301E2,4.5494094E0,3.9468166E1,2.9343855E1],"tree_param":{"num_deleted":"0","num_feature":"16","num_nodes":"27","size_leaf_vector":"1"}},{"base_weights":[-6.0302606E-3,-3.2762408E-1,5.3700954E-1,-9.532226E-1,-1.4746614E-1,2.2987801E-1,9.307351E-1,-1.0896946E0,-1.4990212E-1,1.7234075E-1,-7.527291E-1,4.0226105E-1,-7.668474E-2,-5.9019167E-2,1.0251627E0,-3.1664457E-2,-6.46743E-2,-5.669101E-2,4.8023485E-2,1.9297335E-2,-4.0102314E-2,-7.5570986E-2,-1.6237356E-2,-4.0242407E-3,3.958937E-2,-4.416078E-3,5.3619154E-2],"categories":[],"categories_nodes":[],"categories_segments":[],"categories_sizes":[],"default_left":[0,0,0,0,0,0,0,0,0,0,0,0,0,0,0,0,0,0,0,0,0,0,0,0,0,0,0],"id":21,"left_children":[1,3,5,7,9,11,13,15,17,19,21,23,-1,-1,25,-1,-1,-1,-1,-1,-1,-1,-1,-1,-1,-1,-1],"loss_changes":[1.1190638E2,4.5146255E1,2.8500832E1,9.589462E0,6.1019226E1,4.2236652E1,2.2538399E1,5.881027E0,1.7765406E1,4.3510307E1,3.4628193E1,2.3596397E1,0E0,0E0,5.4161453E0,0E0,0E0,0E0,0E0,0E0,0E0,0E0,0E0,0E0,0E0,0E0,0E0],"parents":[2147483647,0,0,1,1,2,2,3,3,4,4,5,5,6,6,7,7,8,8,9,9,10,10,11,11,14,14],"right_children":[2,4,6,8,10,12,14,16,18,20,22,24,-1,-1,26,-1,-1,-1,-1,-1,-1,-1,-1,-1,-1,-1,-1],"split_conditions":[6.8928766E-1,-5.8783567E-1,1.478614E0,1.0780144E0,1.777338E-1,1.3710178E0,8.139318E-1,-6.11621E-1,-1.0098006E-1,3.7470892E-2,4.035788E-2,5.31298E-1,-7.668474E-2,-5.9019167E-2,-9.7893304E-1,-3.1664457E-2,-6.46743E-2,-5.669101E-2,4.8023485E-2,1.9297335E-2,-4.0102314E-2,-7.5570986E-2,-1.6237356E-2,-4.0242407E-3,3.958937E-2,-4.416078E-3,5.3619154E-2],"split_indices":[5,3,5,6,3,14,14,6,5,1,6,2,0,0,6,0,0,0,0,0,0,0,0,0,0,0,0],"split_type":[0,0,0,0,0,0,0,0,0,0,0,0,0,0,0,0,0,0,0,0,0,0,0,0,0,0,0],"sum_hessian":[6.377785E2,4.009354E2,2.3684311E2,8.8205444E1,3.1272995E2,1.3438774E2,1.02455376E2,7.49396E1,1.3265847E1,2.0531773E2,1.07412224E2,1.2347623E2,1.0911507E1,3.64793E0,9.880744E1,2.5034443E1,4.9905155E1,7.0166264E0,6.249221E0,1.6914377E2,3.6173977E1,3.7369484E1,7.004274E1,5.567162E1,6.780461E1,3.9666178E0,9.484083E1],"tree_param":{"num_deleted":"0","num_feature":"16","num_nodes":"27","size_leaf_vector":"1"}},{"base_weights":[4.7169205E-2,-6.031121E-2,1.7074631E-1,-1.0645235E0,2.604482E-1,-2.4545075E-1,-6.9157846E-2,-6.754082E-2,3.2479933E-1,-5.3894307E-2,1.5797397E-2,-7.404389E-2,1.9081445E-2],"categories":[],"categories_nodes":[],"categories_segments":[],"categories_sizes":[],"default_left":[0,0,0,0,0,0,0,0,0,0,0,0,0],"id":22,"left_children":[1,-1,3,5,7,9,-1,-1,11,-1,-1,-1,-1],"loss_changes":[9.9859505E1,0E0,6.5386765E1,9.927811E0,5.74636E1,6.597224E0,0E0,0E0,5.503153E1,0E0,0E0,0E0,0E0],"parents":[2147483647,0,0,2,2,3,3,4,4,5,5,8,8],"right_children":[2,-1,4,6,8,10,-1,-1,12,-1,-1,-1,-1],"split_conditions":[-8.764975E-1,-6.031121E-2,-1.0202557E0,-1.906396E0,-1.2297789E0,-7.480204E-1,-6.9157846E-2,-6.754082E-2,-1.1185203E0,-5.3894307E-2,1.5797397E-2,-7.404389E-2,1.9081445E-2],"split_indices":[10,0,6,6,13,2,0,0,8,0,0,0,0],"split_type":[0,0,0,0,0,0,0,0,0,0,0,0,0],"sum_hessian":[6.4121484E2,5.636685E1,5.8484796E2,3.8491184E1,5.4635675E2,1.1523806E1,2.6967379E1,1.9830917E1,5.265259E2,4.08565E0,7.438155E0,1.4918685E1,5.1160718E2],"tree_param":{"num_deleted":"0","num_feature":"16","num_nodes":"13","size_leaf_vector":"1"}},{"base_weights":[4.678509E-3,-3.3101717E-1,5.5493855E-1,-6.076023E-2,-1.6945074E-1,-6.0008537E-2,6.130043E-1,-6.762541E-2,-4.379506E-2,1.8312097E-1,8.6979115E-1,-6.891591E-2,2.3811203E-3,2.4185842E-2,-5.3882252E-2,4.8648294E-2,-2.9420227E-2],"categories":[],"categories_nodes":[],"categories_segments":[],"categories_sizes":[],"default_left":[0,0,0,0,0,0,0,0,0,0,0,0,0,0,0,0,0],"id":23,"left_children":[1,3,5,-1,7,-1,9,-1,11,13,15,-1,-1,-1,-1,-1,-1],"loss_changes":[1.1751353E2,5.613801E1,2.5668945E1,0E0,4.9834908E1,0E0,2.5627197E1,0E0,3.7324596E1,3.4710533E1,2.2868408E1,0E0,0E0,0E0,0E0,0E0,0E0],"parents":[2147483647,0,0,1,1,2,2,4,4,6,6,8,8,9,9,10,10],"right_children":[2,4,6,-1,8,-1,10,-1,12,14,16,-1,-1,-1,-1,-1,-1],"split_conditions":[6.8928766E-1,-8.6208934E-1,-1.2554663E0,-6.076023E-2,-7.525101E-1,-6.0008537E-2,6.3424635E-1,-6.762541E-2,-1.0742806E0,6.984664E-1,1.1075194E0,-6.891591E-2,2.3811203E-3,2.4185842E-2,-5.3882252E-2,4.8648294E-2,-2.9420227E-2],"split_indices":[5,10,13,0,13,0,12,0,8,8,13,0,0,0,0,0,0],"split_type":[0,0,0,0,0,0,0,0,0,0,0,0,0,0,0,0,0],"sum_hessian":[6.331797E2,3.9363406E2,2.3954562E2,5.93042E1,3.3432986E2,6.726453E0,2.3281917E2,3.0694405E1,3.0363547E2,8.80259E1,1.4479327E2,1.8112417E1,2.8552304E2,7.182552E1,1.6200375E1,1.3569156E2,9.101721E0],"tree_param":{"num_deleted":"0","num_feature":"16","num_nodes":"17","size_leaf_vector":"1"}},{"base_weights":[-2.6553517E-2,-9.2673486E-1,1.3308656E-1,-1.052751E0,3.439296E-1,-1.0377163E0,2.2535658E-1,-1.1272031E0,3.999271E-3,3.3792287E-2,1.2218574E-3,-6.667163E-2,-1.8848547E-1,-6.955942E-2,2.854802E-1,-6.0055148E-2,-5.253242E-3,2.737853E-2,-5.1865548E-2,-6.484064E-2,1.7326884E-2],"categories":[],"categories_nodes":[],"categories_segments":[],"categories_sizes":[],"default_left":[0,0,0,0,0,0,0,0,0,0,0,0,0,0,0,0,0,0,0,0,0],"id":24,"left_children":[1,3,5,7,9,11,13,15,-1,-1,-1,-1,17,-1,19,-1,-1,-1,-1,-1,-1],"loss_changes":[8.845578E1,1.5388603E1,5.685452E1,7.279793E0,9.821887E-1,9.285675E0,4.783723E1,5.822708E0,0E0,0E0,0E0,0E0,8.15237E0,0E0,4.6069176E1,0E0,0E0,0E0,0E0,0E0,0E0],"parents":[2147483647,0,0,1,1,2,2,3,3,4,4,5,5,6,6,7,7,12,12,14,14],"right_children":[2,4,6,8,10,12,14,16,-1,-1,-1,-1,18,-1,20,-1,-1,-1,-1,-1,-1],"split_conditions":[-6.4898235E-1,-1.2008036E-1,-9.7893304E-1,1.1285199E0,-7.824644E-2,4.8911798E-1,-1.1185203E0,-6.2779045E-1,3.999271E-3,3.3792287E-2,1.2218574E-3,-6.667163E-2,8.8727504E-1,-6.955942E-2,-1.2297789E0,-6.0055148E-2,-5.253242E-3,2.737853E-2,-5.1865548E-2,-6.484064E-2,1.7326884E-2],"split_indices":[14,3,6,6,3,8,8,4,0,0,0,0,8,0,13,0,0,0,0,0,0],"split_type":[0,0,0,0,0,0,0,0,0,0,0,0,0,0,0,0,0,0,0,0,0],"sum_hessian":[6.127498E2,9.121233E1,5.215375E2,8.321669E1,7.99564E0,3.6976566E1,4.845609E2,7.809126E1,5.1254296E0,3.100998E0,4.894642E0,2.6791924E1,1.0184644E1,1.618505E1,4.6837585E2,7.258107E1,5.510194E0,5.7397776E0,4.444866E0,1.62742E1,4.5210165E2],"tree_param":{"num_deleted":"0","num_feature":"16","num_nodes":"21","size_leaf_vector":"1"}}]},"name":"gbtree"},"learner_model_param":{"base_score":"[4.9903935E-1]","boost_from_average":"1","num_class":"0","num_feature":"16","num_target":"1"},"objective":{"name":"binary:logistic","reg_loss_param":{"scale_pos_weight":"9.19377136"}}},"version":[3,2,0]}